tree
version=v4
num_class=1
num_tree_per_iteration=1
label_index=0
max_feature_idx=15
objective=binary sigmoid:1
feature_names=rating topics attempts topicsSkill creationTime problem_ratingAvailable problem_topicsAvailable user_currentRating user_maxRating user_successRate user_strongTopics user_weakTopics user_easy user_medium user_hard user_ratingNotAvailable
feature_infos=[0:3500] -1:3352:3288:3291:3326:1685:3220:3314:3230:2888:3249:2278:3265:3332:1200:1955:2305:2238:3311:3239:1704:2323:2638:1687:0:2254:2961:3232:1698:1657:3362:149:1935:3269:3368:3133:1656:815:3155:2800:2240:2999:1706:2283:3254:1551:2595:2307:1875:3294:494:1354:3250:793:2829:2317:3353:2452:1668:2265:1592:1844:3178:2681:3039:2964:3127:2242:2972:3305:754:3244:1261:2319:2616:3147:1631:2759:1659:3214:1637:1122:2982:1733:2763:2599:780:3008:3111:2210:2679:3104:3272:2269:389:1366:1723:1675:3336:2314:1697:1689:769:542:3300:2737:3246:2478:2667:3233:1937:204:140:1331:2071:1341:3340:3019:3022:602:1715:3031:2644:3312:1465:805:3166:3015:832:1635:623:2224:2939:3148:1669:1567:3128:2912:998:2401:259:1878:2826:2006:2126:2987:3286:2603:2813:2256:796:2639:2652:395:1171:829:2017:2142:2842:3240:2959:1568:676:1720:798:911:3006:2525:3190:2289:3317:153:645:2965:837:1176:1601:3000:960:1519:1956:3112:806:1515:2746:1926:3268:100:838:1356:1511:65:836:1725:2264:1403:1752:322:3042:1664:3119:2626:2676:1367:1758:2246:2855:3199:3256:2208:396:2211:2290:3024:3284:3373:2832:3096:1374:1939:3224:3261:790:1048:1933:3274:1890:2237:685:716:2008:2261:2801:765:1880:2761:2996:2482:2859:2973:3025:759:797:987:1086:393:614:2188:2694:2978:3009:3074:641:785:381:1677:2496:618:1141:1359:1636:2402:2643:3005:139:1128:2266:2621:2731:1678:2112:2655:1732:2015:774:2727:2828:3003:3086:366:2991:3358:801:821:1372:640:876:1572:2236:2294:2547:194:1612:1694:2072:2192:3364:1711:2782:2815:3243:3141:3361:12:390:2247:2780:2809:154:1869:1929:1031:1574:2181:2321:2506:2720:3072:2128:2177:2592:2623:2680:3004:3235:3316:432:576:2143:3367:698:1474:1681:2091:2550:2600:2663:2803:2810:3229:102:731:1192:1362:2524:90:712:1333:1823:1985:2230:35:47:701:1609:1712:3180:3264:3315:488:1942:2447:2717:2928:1513:1576:2505:3062:52:1653:2450:2490:3193:165:622:714:822:825:849:1454:1831:205:1435:1599:2666:2767:3343:236:388:543:1318:2389:2789:158:474:919:1825:2263:3365:427:491:700:1337:1708:1952:2196:2391:2812:3030:3345:152:320:443:1046:1237:1794:2039:2382:2755:2830:2990:3204:3277:378:736:778:1035:1056:1205:1213:1230:1947:2605:2704:2788:43:551:1118:1475:1603:1691:1701:2426:2528:78:1142:1254:1467:1628:1919:1923:2092:2725:3301:10:36:686:1466:1482:1930:2180:2357:2594:2714:2849:3115:89:144:341:826:997:1485:2021:2099:2201:2285:2497:2543:2608:2664:2669:2773:2908:2923:251:583:590:631:1017:1342:1674:2012:2087:2625:3088:3098:116:727:823:853:1145:1928:1938:2031:2273:2730:151:479:1189:1449:1531:1633:1641:1893:2131:2718:2745:2816:2867:834:1589:1783:2061:2969:3045:3095:107:480:831:1226:1642:1650:1676:2028:2100:2404:2465:2485:2535:2647:2697:2807:3037:3044:3121:3295:3347:3372:67:83:225:344:367:760:871:989:1251:1313:1505:1508:1662:2493:2548:2611:3211:3275:3292:57:147:753:864:1154:1408:1587:1760:1997:2632:2636:2881:3058:3293:193:374:504:554:567:1350:1443:1571:1646:1696:2088:2136:2212:2284:2487:2779:2940:3036:3054:3069:3073:3252:29:338:472:571:743:892:1444:1619:2359:2374:2503:2551:2624:2861:2945:3053:3303:3327:339:365:481:636:1151:1175:1219:1518:1575:1671:1718:2009:2472:2570:2622:2696:2764:2854:3366:632:903:1393:1407:1569:1632:1703:1750:1977:2030:2250:2571:2629:2726:3151:3228:80:235:296:330:573:600:851:894:1476:1998:2308:2310:2577:2765:2948:3309:3371:28:38:779:981:1052:1598:1716:1721:1987:2686:2701:2710:3010:3117:3236:3258:161:417:468:517:560:635:1197:1417:1534:1751:1944:2016:2025:2032:2293:2336:2385:2521:2649:2827:2976:3279:3302:112:132:245:290:409:994:1032:1315:1345:1464:1724:1829:1850:1862:1951:2270:2358:2395:2620:2695:2733:3116:3125:3171:3200:3201:3333:363:377:562:682:768:1030:1156:1381:1557:1593:1860:2120:2508:2563:2671:2835:2941:2988:3089:3168:3225:133:269:291:333:415:451:496:523:1243:1323:1672:1884:2344:2369:2453:2523:2776:3048:3144:3346:218:487:612:628:644:646:792:817:1195:1415:1795:2431:2598:2785:3131:3207:123:359:370:386:604:946:993:1050:1352:1553:1663:1830:2027:2199:2579:2653:2784:2831:2925:3059:3245:471:515:516:627:677:757:835:1124:1131:1371:1453:1536:1613:1655:1738:1899:1931:2222:2296:2408:2715:2775:2821:2853:3065:3255:3318:3351:360:397:401:638:767:931:1037:1117:1119:1174:1259:1326:1327:1535:1541:1588:1734:1915:2055:2127:2157:2249:2337:2475:2760:2852:3170:3320:110:156:227:398:531:619:715:756:763:777:788:925:948:1019:1172:1253:1283:1301:1501:1590:1608:1814:1925:1932:2002:2132:2153:2423:2529:2590:2619:2768:2893:2992:3071:3113:3129:3142:3198:3218:3241:3306:3341:16:99:109:254:275:605:693:804:902:915:929:961:1106:1223:1357:1373:1540:1623:1731:1820:1917:1982:2063:2109:2259:2272:2532:2640:2708:2856:2957:3016:3049:3068:3263:1:49:177:221:321:392:400:434:446:563:575:728:755:813:872:939:1024:1062:1089:1235:1242:1321:1361:1418:1455:1559:1604:1638:1666:1864:2144:2315:2322:2324:2451:2488:2541:2635:2659:2673:2743:2834:2843:2845:2860:2866:2915:2963:3055:3150:3299:179:210:285:357:503:510:704:740:771:786:803:812:870:996:1000:1022:1143:1148:1204:1334:1427:1432:1549:1573:1640:1658:1707:1737:1764:1921:2057:2080:2124:2161:2183:2291:2371:2477:2499:2568:2613:2736:2919:2929:3029:3051:3061:3134:3159:3162:3192:3217:3337:64:113:176:230:347:384:419:460:508:637:695:703:705:708:709:776:787:859:880:924:962:986:1168:1286:1289:1298:1537:1682:1683:1710:1813:1871:1946:2044:2050:2105:2171:2174:2207:2251:2381:2494:2501:2706:2791:2808:2833:2868:2877:2892:2905:3103:3231:3289:79:108:238:242:380:449:467:478:552:559:616:617:639:651:694:770:789:833:893:947:1130:1135:1257:1309:1339:1457:1591:1739:1767:1900:1992:2042:2077:2086:2096:2189:2255:2279:2492:2498:2630:2674:2700:2709:2740:2778:2786:2839:2922:2926:3099:3221:3323:127:186:199:208:252:399:421:539:574:593:613:710:748:783:907:918:953:988:999:1051:1065:1073:1132:1155:1177:1258:1267:1268:1297:1303:1310:1395:1411:1429:1433:1479:1481:1554:1607:1625:1627:1670:1673:1679:1762:1846:2040:2053:2064:2116:2121:2147:2176:2258:2303:2311:2354:2388:2476:2483:2526:2617:2661:2677:2692:2698:2721:2797:2817:2836:2862:2890:2907:2920:2968:2970:2985:3002:3035:3139:3189:3226:3234:3253:3342:72:103:135:150:223:260:289:308:309:313:372:405:445:448:454:484:589:666:696:733:782:816:897:945:955:966:1006:1008:1053:1140:1182:1227:1255:1325:1340:1410:1416:1448:1483:1634:1645:1743:1802:1854:1870:1984:2082:2090:2137:2155:2156:2168:2172:2173:2220:2276:2299:2335:2380:2400:2449:2480:2646:2670:2678:2685:2732:2741:2742:2769:2771:2811:2872:2917:2944:3050:3202:3260:3307:50:125:203:263:268:276:348:349:356:477:569:621:660:752:800:867:869:899:950:1003:1029:1044:1094:1115:1173:1187:1188:1190:1196:1228:1256:1306:1348:1378:1390:1406:1434:1440:1468:1473:1484:1517:1521:1579:1596:1597:1614:1624:1647:1649:1700:1702:1748:1777:1800:1815:1882:1883:1896:1905:1909:1934:1960:1993:2019:2023:2079:2113:2193:2200:2216:2297:2300:2326:2356:2418:2481:2484:2504:2512:2534:2559:2703:2794:2858:3043:3056:3064:3078:3082:3106:3123:3174:3196:3210:3:141:157:159:163:166:224:292:315:353:354:358:369:425:450:457:465:483:513:550:595:603:607:652:669:689:691:699:725:738:772:794:889:974:1039:1066:1087:1093:1107:1208:1214:1218:1278:1302:1311:1314:1317:1338:1349:1355:1456:1460:1524:1525:1532:1565:1736:1761:1791:1895:1912:1958:1962:1989:2022:2046:2083:2097:2158:2185:2187:2202:2228:2245:2248:2262:2274:2298:2352:2366:2434:2468:2502:2511:2565:2576:2657:2683:2748:2751:2770:2787:2814:2820:2824:2891:2909:3001:3021:3041:3063:3067:3070:3136:3169:3208:3222:3266:3271:3335:3344:5:21:48:76:220:228:244:288:299:323:325:345:387:424:428:437:473:476:482:561:566:596:598:606:611:629:672:726:729:732:808:824:855:941:957:958:970:1016:1027:1100:1109:1215:1248:1316:1322:1336:1412:1430:1438:1510:1560:1584:1610:1626:1654:1746:1747:1790:1797:1801:1803:1818:1865:1879:1898:1927:1950:1963:1965:1994:2018:2026:2035:2060:2069:2089:2095:2133:2214:2241:2301:2312:2345:2398:2399:2415:2462:2489:2628:2648:2658:2689:2716:2774:2806:2844:2863:2894:2930:2975:2989:3020:3023:3034:3075:3149:3186:3227:3251:3334:128:173:175:191:215:270:272:286:306:312:343:404:444:463:509:518:524:525:533:541:643:658:662:690:722:761:781:795:932:954:971:977:1002:1040:1042:1068:1149:1157:1167:1169:1216:1276:1285:1344:1363:1379:1398:1413:1446:1461:1469:1470:1488:1496:1498:1499:1514:1606:1643:1667:1684:1695:1949:1969:1975:1991:2003:2004:2013:2020:2058:2098:2151:2165:2206:2217:2223:2243:2257:2282:2304:2339:2348:2353:2376:2393:2413:2424:2441:2509:2597:2641:2651:2672:2684:2687:2691:2702:2734:2752:2766:2840:2897:2910:2997:3028:3107:3138:3188:3209:3282:3328:3348:9:27:40:77:115:180:202:232:240:247:256:271:277:284:301:310:337:402:420:429:430:433:438:439:453:507:521:535:540:546:568:609:610:625:633:655:667:692:713:718:799:863:878:891:896:940:952:972:1005:1018:1038:1063:1069:1078:1079:1088:1101:1146:1147:1181:1199:1221:1225:1250:1300:1305:1307:1312:1335:1360:1370:1388:1420:1421:1423:1441:1459:1462:1489:1500:1512:1644:1699:1784:1787:1788:1789:1827:1916:1918:1941:1943:1966:1974:1983:1990:1995:2011:2024:2036:2074:2078:2106:2148:2152:2170:2232:2239:2271:2288:2295:2306:2318:2360:2372:2396:2414:2438:2439:2456:2473:2486:2515:2518:2544:2546:2582:2586:2606:2656:2758:2762:2781:2847:2883:2889:2895:2913:2983:2993:2995:3057:3060:3137:3146:3173:3184:3191:3242:3283:3287:3296:3363:11:82:92:178:181:209:219:237:255:262:274:279:283:287:295:346:351:364:383:414:441:455:475:493:499:501:511:536:564:572:580:582:649:650:653:663:673:745:746:749:758:766:775:784:802:818:819:845:860:861:862:873:906:917:922:934:943:965:991:1014:1067:1071:1075:1098:1102:1103:1108:1110:1133:1166:1183:1184:1202:1222:1233:1236:1246:1271:1274:1291:1292:1319:1343:1380:1383:1385:1400:1447:1451:1478:1486:1538:1547:1552:1561:1578:1611:1615:1665:1690:1692:1705:1729:1742:1754:1759:1766:1819:1835:1872:1881:1885:1906:1968:1976:1978:1996:1999:2000:2007:2014:2029:2038:2054:2059:2107:2115:2130:2134:2162:2221:2253:2275:2346:2375:2432:2436:2442:2474:2533:2537:2607:2612:2705:2728:2749:2799:2819:2838:2864:2902:2903:2918:2932:2947:2967:3017:3052:3077:3085:3093:3118:3163:3177:3182:3183:3185:3197:3262:3270:3278:3319:3325:3330:3331:3338:62:104:162:190:248:280:303:316:332:340:342:418:422:458:466:469:486:497:527:530:537:555:558:624:661:664:671:678:683:687:707:717:719:721:730:741:811:846:856:904:908:935:959:964:980:990:1012:1013:1025:1028:1049:1057:1090:1092:1125:1150:1158:1185:1194:1231:1239:1241:1244:1249:1265:1277:1281:1284:1293:1320:1364:1376:1391:1402:1419:1426:1442:1452:1491:1495:1502:1520:1522:1577:1580:1581:1652:1680:1713:1722:1773:1780:1808:1826:1832:1842:1874:1913:1920:1948:1959:1979:2010:2093:2160:2175:2186:2190:2195:2197:2205:2209:2227:2234:2252:2268:2292:2325:2349:2362:2364:2370:2383:2384:2392:2409:2410:2422:2430:2466:2469:2517:2530:2539:2566:2573:2583:2587:2602:2604:2627:2642:2654:2668:2699:2711:2750:2777:2818:2848:2904:2934:2935:2936:2937:2943:2946:2958:3007:3033:3038:3040:3047:3066:3097:3143:3158:3164:3194:3216:3238:3247:3267:3359:3360:2:6:53:55:81:85:106:129:155:168:169:171:172:189:195:197:206:214:216:217:233:246:265:267:273:293:294:298:304:318:326:327:362:368:371:379:406:416:431:492:502:512:526:544:548:549:556:557:565:579:608:630:642:684:739 [1:2280] [0:31391] [1266580973:1743094306] [0:1] [0:1] [0:3569] [0:3690] [0.070000000000000007:1] -1:48:40:54:28:94:53:93:49:23:46:67:47:26:70:92:86:36:33:27:97:41:80:38:29:63:85:14:12:37:83:50:30:88:32:35:73:66:18:16:15:21:52:72:22:39:17:74:90:24:9:82:10:13:44:78:98:68:64:75:69:59:84:76:34:11:58:99:55:81:89:45:71:96:0:3:42:51:31:56:62:79:87:8:20:77 -1:649:648:659:133:34:266:650:643:667:50:653:657:114:286:129:642:113:655:279:660:239:646:31:663:30:237:126:390:541:644:284:273:38:249:116:46:127:658:277:285:716:706:389:645:563:53:531:542:111:299:569:272:276:762:55:567:48:275:307:566:45:32:132:300:35:551:319:315:118:477:254:674:392:120:572:246:309:183:252:487:268:774:564:671:488:552:485:310:752:54:187:238:112:647:405:549:767:56:306:289:385:191:778:271:661:393:669:295:41:522:489:455:130:725:117:730:749:311:673:121:656:408:49:244:52:119:718:242:545:692:33:556:420:760:769:288:387:768:394:404:406:548:662:539:761:765:512:758:110:265:57:240:293:617:248:546:775:478:386:773:670:184:624:186:630:44:625:641:200:510:258:51:709:651:47:29:410:535:668:666:384:713:664:422:772:40:776:308:562:652:380:303:472:665:267:543:401:58:305:397:294:728:751:484:729:459:627:559:727:402:735:253:724:27:561:128:264:558:378:628:400:414:474:550:37:547:573:705:407:269:571:544:245:476:763:261:530:243:257:755:333:297:726:123:635:290:36:235:318:723:260:291:636:721:486:513:568:608:13:526:537:20:115:540:779:626:296:717:22:770:509:623:516:712:754:131:292:201:417:771:777:241:606:720:39:353:554:97:672:283:409:339:419:192:514:570:28:527:416:125:224:263:42:707:452:612:391:411:504:750:287:316:21:453:788:398:492:746:89:43:122:403:475:764:715:377:766:528:639:759:301:501:350:753:565:490:415:507:697:202:538:614:383:473:317:188:654:262:613:638:457:722:412:682:278:326:185:332:521:282:719:349:502:605:95:221:421:515:747:259:679:280:345:506:0:194:225:466:190:479:511:555:250:483:610:637:75:553:524:344:226:687:688:270:325:463:471:622:710:11:369:336:678:19:399:388:413:462:587:790:195:352:4:503:557:302:379:529:343:9:464:227:358:616:620:382:189:519:621:734:251:480:634:731:15:178:255:328:23:525:711:732:92:229:196:25:694:80:611:100:633:135:298:313:609:793:143:458:629:677:180:560:615:366:680:76:18:304:334:518:78:247:74:321:532:85:223:520:695:696:12:236:456:508:79:84:689:24:81:324:381:756:787:14:87:281:708:425:523:256:534:748:794:362:757:337:446:228:418:451:533:233:354:601:800:232:314:454:808:96:517:536:72:607:789:8:335:443:693:619:685:690:351:447:86:136:395:448:137:147:181:199:230:338:500:93:312:431:449:791:69:139:740:140:222:686:94:204:342:370:461:71:146:274:323:83:346:320:481:632:193:423:88:341:355:631:684:782:470:10:124:429:491:784:179:182:340:733:62:148:327:359:371:2:90:331:467:804:3:219:357:691:145:460:505:102:172:424:600:683:134:198:348:360:374:676:714:584:786:792:99:208:218:428:444:798:795:138:376:582:7:367:577:347:681:810:216:426:805:161:234:329:781:82:783:91:142:63:77:167:197:590:596:65:151:168:797:160:175:364:373:736:372:231:432:445:703:1:322:604:807:61:203:618:702:745:141:365:450:356:396 [0:3233] [0:1821] [0:3789] [1:7908]
tree_sizes=3597 3756 4069 4094 4278 4592 4920 4475 4900 4665 4979 5216 5041 5366 4977 5222 4900 5316 5213 5262 5602 5808 6180 5463 5808 5985 6006 5625 6595 6293 5684 6920 5923 6336 6684 6351 6654 6801 6673 6476 6674 6459 7079 6377 7008 7136 7131 6969 7190 7153 7471 7506 6739 7471 7349 7018 7107 7108 6934 7110 7312 7351 6982 7721 7160 6988 7402 6983 8010 7458 6977 7991 7217 8048 6899 8043 7348 8091 7108 6955 6774 7751 7175 7748 7487 8419 8048 7473 7117 6592 8153 7857 7570 8126 7997 7948 7307 7624 7522 8015

Tree=0
num_leaves=31
num_cat=2
split_feature=3 6 2 9 2 12 9 2 0 7 2 2 0 2 11 2 2 2 4 0 14 0 15 15 7 2 15 11 14 14
split_gain=221115 134758 71802.8 25155.2 16311.5 12136.8 11786.9 4735.35 2997.98 2651.76 2086.67 1942.84 1093.32 1051.73 955.316 725.379 666.624 660.34 543.261 512.832 564.148 381.397 379.729 368.04 366.707 340.212 281.66 258.212 220.384 217.989
threshold=1.0000000180025095e-35 1.0000000180025095e-35 1.5000000000000002 0.19500000000000003 2.5000000000000004 2643.0000000000005 0.19500000000000003 4.5000000000000009 1050.0000000000002 1348.5000000000002 1.5000000000000002 1.5000000000000002 1.0000000180025095e-35 5.5000000000000009 0 7.5000000000000009 2.5000000000000004 1.5000000000000002 1461516522.5000002 1550.0000000000002 297.50000000000006 1950.0000000000002 6.5000000000000009 608.50000000000011 1331.5000000000002 8.5000000000000018 32.500000000000007 1 192.50000000000003 161.50000000000003
decision_type=2 2 2 2 2 2 2 2 2 2 2 2 2 2 9 2 2 2 2 2 2 2 2 2 2 2 2 9 2 2
left_child=1 2 5 4 10 14 7 16 12 -7 -3 -10 -5 -6 23 19 -4 18 -14 20 -13 26 -8 -1 -19 -9 -16 -28 -21 -23
right_child=-2 3 6 8 13 9 22 25 11 -11 -12 15 17 -15 21 -17 -18 24 -20 28 -22 29 -24 -25 -26 -27 27 -29 -30 -31
leaf_value=2.2159959152039566 2.332583827985216 1.7414755390537802 1.9042875872007734 1.7797367300967446 2.1764851369874352 1.995927476074469 2.1064949215879132 2.1916469455762955 1.7578621836415436 2.3173348906198257 1.9874427005105866 1.8493381765403978 2.0505897798051649 2.3083508211386761 2.2288956088436844 1.9074513816015648 2.048511420274072 1.9692209639668952 1.8333807433749918 1.7946300916362872 2.0044320587206532 1.9696005282319096 1.8642168710101066 2.0135786133738112 2.1245159897777488 2.28888568599969 2.2412789385987248 2.3039033869010477 1.8350379418735494 2.2186414346327661
leaf_weight=194.27400145679712 44877.378693446517 217.21908543258905 150.83018437027931 65.20790409296751 241.51388023048639 430.55775225162506 16.365243718028069 165.6770034134388 1114.0175697952509 75.415092185139656 142.98499021679163 410.14337606728077 46.986807994544506 404.40710507333279 132.60908827185631 328.4858713299036 170.90713284909725 58.206279203295708 74.318452142179012 808.89856707304716 68.413467295467854 10.882043503224848 1375.5240415781736 25.391434840857983 109.57964736968279 196.80470924824476 161.96529865264893 6876.2704970687628 578.94158575683832 45.637097172439098
leaf_count=2303 531994 2575 1788 773 2863 5104 194 1964 13206 894 1695 4862 557 4794 1572 3894 2026 690 881 9589 811 129 16306 301 1299 2333 1920 81514 6863 541
internal_value=2.27746 2.10914 2.21244 1.88726 2.10871 2.2808 1.9506 2.12052 1.82644 2.04383 1.83911 1.81164 1.96467 2.25905 2.2969 1.83894 1.9809 2.00639 1.91752 1.82688 1.87151 2.30004 1.86707 2.19629 2.07064 2.24444 2.30109 2.30245 1.81149 2.17069
internal_weight=59575.8 14698.4 10029.1 4669.32 1006.13 7953 2076.11 684.219 3663.2 505.973 360.204 3308.9 354.299 645.921 7447.03 2194.88 321.737 289.091 121.305 1866.4 478.557 7227.36 1391.89 219.665 167.786 362.482 7170.84 7038.24 1387.84 56.5191
internal_count=706235 174241 118889 55352 11927 94278 24611 8111 43425 5998 4270 39225 4200 7657 88280 26019 3814 3427 1438 22125 5673 85676 16500 2604 1989 4297 85006 83434 16452 670
cat_boundaries=0 25 49
cat_threshold=671088644 536870928 131072 16 0 0 5120 536870912 4 0 16908288 33685505 34603008 32776 512 64 16384 536875010 0 0 0 2147483696 0 0 16777216 0 0 536879104 64 557064 262146 0 2048 0 262144 2151682080 537133184 2097152 1342177280 67109888 4194304 0 67072 0 268435456 268435456 64 640 1024
is_linear=0
shrinkage=1


Tree=1
num_leaves=31
num_cat=2
split_feature=3 6 2 4 12 2 9 2 7 0 2 2 9 11 12 2 13 0 0 2 2 4 15 7 14 11 2 12 12 2
split_gain=178858 71384.7 46536.8 10224.2 9154.3 6119.58 5039.09 2832.4 1632.89 1170.36 945.343 874.155 999.695 840.812 678.399 422.129 419.739 329.386 295.965 280.624 275.787 266.454 263.242 252.664 226.774 218.405 174.785 169.662 166.268 161.559
threshold=1.0000000180025095e-35 1.0000000180025095e-35 1.5000000000000002 1719311168.0000002 2643.0000000000005 3.5000000000000004 0.19500000000000003 4.5000000000000009 1348.5000000000002 1150.0000000000002 1.5000000000000002 3.5000000000000004 0.23500000000000001 0 2643.0000000000005 1.5000000000000002 673.50000000000011 1950.0000000000002 1.0000000180025095e-35 8.5000000000000018 2.5000000000000004 1360776473.0000002 274.00000000000006 1691.5000000000002 191.50000000000003 1 5.5000000000000009 35.500000000000007 101.50000000000001 1.5000000000000002
decision_type=2 2 2 2 2 2 2 2 2 2 2 2 2 9 2 2 2 2 2 2 2 2 2 2 2 9 2 2 2 2
left_child=1 2 4 9 13 10 7 20 -6 15 -5 29 -13 24 -7 21 18 22 -17 -9 -4 -3 -15 -20 -1 -24 -16 -23 -21 -11
right_child=-2 3 6 5 8 14 -8 19 -10 11 -12 12 -14 17 26 16 -18 -19 23 28 -22 27 25 -25 -26 -27 -28 -29 -30 -31
leaf_value=-0.057318694097819436 0.054852233753816308 -0.1531934511155959 -0.26279148385946749 -0.33579556630289531 -0.21285444223437927 -0.20779659873595202 -0.28088456745175983 -0.07592563574506421 0.039172661379647762 -0.32897902859366379 -0.18371067969043764 -0.089491503655661275 -0.28130535690482306 0.0066507637379862638 -0.032440486428688638 -0.32144844665868033 -0.069713090439552733 -0.093061461291828351 -0.23130106991128865 -0.28079964757784653 -0.18043916250159447 -0.13984872633503154 -0.004727734032300963 -0.12956597342296602 -0.20229801300075403 0.031763071046779376 0.038716768917234835 -0.31126987545282725 0.018268778428032841 -0.30681914747784378
leaf_weight=195.9749922528863 42897.286654978991 35.437311068177223 201.72502318024635 196.31745506823063 537.55103206634521 34.896009601652622 1913.5069454312325 177.5499809384346 72.996708646416664 1704.5401093959808 213.0809897556901 71.350995399057865 1415.8570052012801 1846.3526713773608 115.16841357201338 60.027678295969963 53.239745013415813 61.809616349637508 193.41953917592764 4.7637675181031218 204.95134699344635 15.435481511056421 453.50205216556787 89.163711428642273 31.277329109609127 4742.4021339043975 344.2735387980938 222.5474766343832 190.2164012491703 1589.4873617738485
leaf_count=2211 531994 332 1788 1553 5104 322 16500 1964 894 13576 2097 804 12051 22194 1256 490 556 671 1826 57 2026 134 5458 875 301 57445 4180 1868 2276 13432
internal_value=0.000473684 -0.136834 -0.0576087 -0.269426 0.00329471 -0.113668 -0.237237 -0.13005 -0.182722 -0.295252 -0.256639 -0.303921 -0.272103 0.0187861 0.00473718 -0.233325 -0.200323 0.0218282 -0.220619 -0.0304492 -0.221289 -0.281105 0.0228676 -0.199201 -0.0740156 0.0286302 0.0208798 -0.300152 0.0109619 -0.318286
internal_weight=59886.1 16988.8 10634.6 6354.24 7941.87 903.736 2692.71 779.207 610.548 5450.51 409.398 4781.24 1487.21 7331.32 494.338 669.271 395.851 7104.07 342.611 372.53 406.676 273.42 7042.26 282.583 227.252 5195.9 459.442 237.983 194.98 3294.03
internal_count=706235 174241 118889 55352 94278 9408 24611 8111 5998 45944 3650 39863 12855 88280 5758 6081 3747 85768 3191 4297 3814 2334 85097 2701 2512 62903 5436 2002 2333 27008
cat_boundaries=0 25 50
cat_threshold=671088644 536870928 131072 16 0 0 5120 536870912 4 0 21102592 33685505 34603008 32776 512 64 16384 536870914 0 0 0 2147483696 0 0 16777216 0 1048580 0 33554432 0 2147483648 0 1048584 131344 43008 4096 536870912 8388608 64 268435472 512 8389633 4096 0 268435456 8388608 1048576 131584 150994944 144
is_linear=0
shrinkage=0.05


Tree=2
num_leaves=31
num_cat=5
split_feature=3 6 2 12 7 2 9 2 7 11 2 0 2 11 2 2 4 0 14 12 13 15 11 15 11 11 14 15 0 4
split_gain=151600 45996.8 33719.6 7282.47 5731.56 5630.56 2857.56 1953.32 1126.75 753.762 728.558 498.973 406.992 420.941 343.11 312.034 295.685 287.843 263.751 189.234 177.406 169.514 164.942 159.828 136.922 135.276 128.284 127.391 117.357 119.904
threshold=1.0000000180025095e-35 1.0000000180025095e-35 1.5000000000000002 2643.0000000000005 1.0000000180025095e-35 2.5000000000000004 0.19500000000000003 5.5000000000000009 1348.5000000000002 0 5.5000000000000009 1050.0000000000002 3.5000000000000004 1 1.5000000000000002 3.5000000000000004 1444119107.0000002 1950.0000000000002 27.500000000000004 2915.0000000000005 1695.5000000000002 96.500000000000014 2 608.50000000000011 3 4 185.50000000000003 6.5000000000000009 1950.0000000000002 1481961348.0000002
decision_type=2 2 2 2 2 2 2 2 2 9 2 2 2 9 2 2 2 2 2 2 2 2 9 2 9 9 2 2 2 2
left_child=1 2 3 9 5 14 7 15 -5 23 -7 16 -13 -14 -3 -4 -6 18 24 -18 21 -9 -20 -1 -11 -24 -19 -8 29 -29
right_child=-2 4 6 8 11 10 27 20 -10 17 -12 12 13 -15 -16 -17 19 26 22 -21 -22 -23 25 -25 -26 -27 -28 28 -30 -31
leaf_value=-0.051400679019651653 0.054593247608632801 -0.24984594637859392 -0.19468961643103777 -0.17208910622118204 -0.1173650351642983 -0.073456703324994488 -0.10153421110345494 -0.35074682437898036 0.038466729063482363 0.030554002416705663 0.032638571207752341 -0.24387905721000513 -0.049480917277210115 -0.21957567543818179 -0.17117647326551186 -0.11227628155833243 -0.21056637026981639 -0.19803509997530871 0.040188867140603511 0.0078844475534505087 -0.25551315014453452 -0.0037590728392257588 -0.023507796312112878 -0.1646913792741172 -0.019153092242766741 0.022441969625707294 -0.040580231057678051 -0.22695345526343325 -0.27994948399386915 -0.20338931228201781
leaf_weight=217.03600911796093 40993.839990645647 408.49253256618977 374.67825043201447 628.86356365680695 125.46348387002945 284.61154077202082 23.184383988380432 3.5604147762060157 70.678763598203659 176.6419989913702 375.03321202844381 4020.0164607465267 60.816192142665386 1755.7926634475589 209.77465476095676 165.62528823316097 398.16032221913338 17.617599658668041 1484.6655651330948 10.166724897921084 7.3943247795104972 308.44474676996469 160.43097221106291 36.345098167657852 532.78994969278574 4545.7068625539541 48.680221818387508 1307.7176865637302 77.157321900129318 919.38742908835411
leaf_count=2356 531994 2599 2924 5104 1070 2816 194 35 894 2163 4636 26617 489 12367 1683 1541 2979 158 18451 96 83 3528 1905 301 6356 56079 511 9254 546 6506
internal_value=0.000722413 -0.117026 -0.0520481 0.00321997 -0.211386 -0.114746 -0.189379 -0.11148 -0.150815 0.0181446 -0.0131375 -0.230772 -0.235003 -0.215362 -0.223154 -0.169427 -0.184499 0.0212346 0.0222613 -0.205127 -0.0134553 -0.00771869 0.0255704 -0.0650826 -0.00661578 0.020829 -0.0824214 -0.218153 -0.219326 -0.217226
internal_weight=59748.8 18754.9 11106.6 7919.46 7648.33 1277.91 3187.15 859.703 699.542 7219.91 659.645 6370.42 5836.63 1816.61 618.267 540.304 533.791 6966.53 6900.24 408.327 319.399 312.005 6190.8 253.381 709.432 4706.14 66.2978 2327.45 2304.26 2227.11
internal_count=706235 174241 118889 94278 55352 11734 24611 8111 5998 88280 7452 43618 39473 12856 4282 4465 4145 85623 84954 3075 3646 3563 76435 2657 8519 57984 669 16500 16306 15760
cat_boundaries=0 25 50 75 101 124
cat_threshold=671088644 536870928 131072 16 8 0 5120 536870912 4 0 16908288 33685504 34603008 8 1536 64 16384 536871938 0 0 0 2147483696 128 1024 16777216 536870912 2097169 0 2147483648 0 0 0 16908288 33555456 512 0 0 262152 40 0 4481 603979776 0 0 0 0 0 2148008064 1024 32768 1073741824 19005441 0 3440640 0 134217728 0 268476416 270532642 0 33554432 0 0 0 536870912 256 0 16 0 0 38338952 0 4 67108864 258 8388633 1073741824 4096 1 4096 2147516416 536936448 2 1 4 8945664 16777220 16641 134217728 0 8388608 32768 0 1048576 0 0 33685504 0 0 0 256 0 0 0 0 0 0 48 0 0 395264 4214880 0 0 0 67379456 512 1032 1052672 0 268437508 1342181376 8388672 528
is_linear=0
shrinkage=0.05


Tree=3
num_leaves=31
num_cat=5
split_feature=3 6 2 12 4 2 9 2 7 11 12 0 2 15 2 9 2 11 0 7 11 2 11 2 12 13 12 15 2 11
split_gain=131717 32651.2 25901.8 5981.27 3744.32 3385.14 1875.04 1430.57 831.286 674.225 451.921 451.464 398.837 266.767 265.111 266.748 247.986 272.581 215.727 212.114 209.204 206.297 173.842 166.889 158.127 127.475 132.399 109.97 107.087 103.338
threshold=1.0000000180025095e-35 1.0000000180025095e-35 1.5000000000000002 2643.0000000000005 1717512628.5000002 3.5000000000000004 0.19500000000000003 5.5000000000000009 1348.5000000000002 0 2643.0000000000005 1350.0000000000002 1.5000000000000002 35.500000000000007 2.5000000000000004 0.26500000000000007 1.5000000000000002 1 1950.0000000000002 1.0000000180025095e-35 2 3.5000000000000004 3 6.5000000000000009 71.500000000000014 1695.5000000000002 101.50000000000001 608.50000000000011 9.5000000000000018 4
decision_type=2 2 2 2 2 2 2 2 2 9 2 2 2 2 2 2 2 9 2 2 9 2 9 2 2 2 2 2 2 9
left_child=1 2 3 9 11 12 7 21 -5 27 -7 16 -6 -11 -13 -16 24 -18 20 -19 -15 -4 -22 -12 -3 26 -9 -1 -28 -24
right_child=-2 4 6 8 5 10 -8 25 -10 13 23 14 -14 18 15 -17 17 19 -20 -21 22 -23 29 -25 -26 -27 28 -29 -30 -31
leaf_value=-0.049324463287337125 0.054349203557269458 -0.12460797660730145 -0.16176753739748842 -0.14470129201697157 -0.20947795057470581 -0.14328291199908291 -0.18003798131436233 -0.20262535138387736 0.037760140894998795 -0.044889277590255877 -0.020024374866195717 -0.20397400946879102 -0.12860113733254092 0.041523314784983612 -0.10988501587877669 -0.18635098219400748 -0.025820148383811345 -0.068333512392284121 -0.067869009559191756 -0.1633861135454833 -0.02975113538897152 -0.097939389320225348 0.032816621255397443 0.042003035800814319 -0.19820231380733283 -0.19793900416722393 -0.032793058837148496 -0.13901535616303004 0.026465903834545931 0.016149791155089622
leaf_weight=211.15367676317692 39165.211451262236 84.568291269242764 426.8283559679985 708.15840935707092 314.79560159146786 47.261884152889252 2668.7977688312531 8.4389224052429181 68.458059847354889 152.46942469477654 172.36210304498672 3390.9087389707565 295.5544838309288 1231.0448057055473 119.33630323410034 2575.8635842502117 63.184135973453522 63.750355593860149 66.12556080520153 739.74519620090723 173.18653503060341 179.9691374450922 1252.5115926489234 292.42230559885502 533.05784499645233 9.016649052500723 146.05953099578619 40.775098383426666 159.48100002110004 3985.624294154346
leaf_count=2194 531994 536 2924 5104 1736 335 16500 72 894 1730 1835 19281 2277 15801 1000 15549 470 566 634 4867 1961 1541 15906 3758 3142 83 1560 301 1931 49753
internal_value=0.000878544 -0.102892 -0.0475694 0.00313583 -0.176005 -0.0907808 -0.158735 -0.097588 -0.128617 0.0175212 0.00402183 -0.18864 -0.170314 0.0204789 -0.19467 -0.182965 -0.163916 -0.146663 0.0219951 -0.153929 0.0228898 -0.142837 0.0185397 0.0190006 -0.188125 -0.012581 -0.00725802 -0.0614037 -0.00186204 0.02019
internal_weight=59346.1 20180.9 11488.1 7889.51 8692.81 1122.4 3598.59 929.794 776.616 7112.89 512.046 7570.41 610.35 6860.96 6086.11 2695.2 1484.31 866.68 6708.49 803.496 6642.37 606.797 5411.32 464.784 617.626 322.996 313.979 251.929 305.541 5238.14
internal_count=706235 174241 118889 94278 55352 9941 24611 8111 5998 88280 5928 45411 4013 85785 35830 16549 9581 5903 84055 5433 83421 4465 67620 5593 3678 3646 3563 2495 3491 65659
cat_boundaries=0 25 49 74 96 121
cat_threshold=671088644 536870928 131072 16 0 0 5120 536870912 4 0 21102608 33685504 34603008 1073774600 512 64 16384 536870914 0 0 0 2147483680 128 1024 16777216 1744830464 21 0 2147483648 0 0 0 16777216 0 786432 0 0 32 40 268435456 0 0 1048576 0 32768 2420113688 33554432 2097152 8388608 1073741824 27394049 0 3440640 0 134217728 0 40960 270532642 0 33554432 0 0 0 536870912 256 0 8388624 0 0 38338696 0 4 67108864 258 0 0 536870912 64 557064 262146 0 2048 0 262144 2147487776 537133184 2105344 268435456 67109888 4194304 0 71168 0 268435456 1342177280 80 0 278528 0 2151677952 32 0 0 268500992 1114120 1073741824 524288 0 66048 16 1073743872 16 0 540672 0 0 135570726 0 65536 0 1
is_linear=0
shrinkage=0.05


Tree=4
num_leaves=31
num_cat=6
split_feature=3 6 2 12 4 2 9 2 7 11 0 12 2 9 1 2 7 13 2 11 11 2 15 2 4 11 0 14 11 2
split_gain=116271 24596.2 20654.7 5018.22 2649.86 2364.18 1345.3 1093.18 640.981 602.618 369.278 341.074 263.666 267.793 261.603 272.625 259.924 250.195 247.862 216.716 169.659 148.726 137.369 128.798 116.261 110.848 104.063 146.191 102.341 101.334
threshold=1.0000000180025095e-35 1.0000000180025095e-35 1.5000000000000002 2643.0000000000005 1720427265.0000002 3.5000000000000004 0.19500000000000003 5.5000000000000009 1348.5000000000002 0 1250.0000000000002 2643.0000000000005 5.5000000000000009 0.19500000000000003 1 1.5000000000000002 1865.5000000000002 673.50000000000011 1.5000000000000002 2 3 3.5000000000000004 18.500000000000004 6.5000000000000009 1737846973.0000002 4 1.0000000180025095e-35 78.500000000000014 5 1.5000000000000002
decision_type=2 2 2 2 2 2 2 2 2 9 2 2 2 2 9 2 2 2 2 9 9 2 2 2 2 9 2 2 9 2
left_child=1 2 3 9 10 18 7 21 -5 -1 14 -7 29 -14 -3 -16 19 26 -6 24 -18 -4 -21 -13 -11 -24 -17 -28 -8 -12
right_child=-2 4 6 8 5 11 28 -9 -10 16 12 23 13 -15 15 17 20 -19 -20 22 -22 -23 25 -25 -26 -27 27 -29 -30 -31
leaf_value=-0.063021389240330225 0.054119138136127565 -0.015470486318986435 -0.13868492225604642 -0.12487044967695995 -0.17912192130465651 -0.12191304708968101 -0.034730433316248241 -0.01178226608258161 0.03705263193516687 0.03420057760860553 -0.1769787971311983 -0.015854209544761591 -0.019370301273935773 -0.14820624087723777 -0.16981990219402515 -0.18284189065703843 -0.019316278294561395 -0.042935412540122904 -0.11199281789236276 -0.072172222447503528 0.029252405087035405 -0.086583763955604243 -0.028716072676908157 0.04131796885681966 -0.10992627843426479 0.0058480646220408737 -0.14331990227008259 -0.08873458262096863 -0.15513018697828959 -0.16390886475961036
leaf_weight=219.23724231868982 37409.470732375979 58.521266236901283 471.67238128185272 777.58896732330322 279.80623456835747 46.669134423136711 41.068931370973587 326.06659782677889 66.331393539905548 671.19560619443655 2595.2725737094879 155.0063184723258 41.824267245829105 1131.566775046289 513.19500213861465 90.207158625125885 184.94045131653547 87.530055239796638 270.38725662231445 67.192895300686359 4060.6155161485076 193.02682689577341 263.12669242918491 270.2788325548172 14.290048539638518 1529.381905272603 363.31894636154175 185.18220803886652 2912.7240039408207 3460.428253993392
leaf_count=2068 531994 372 2924 5104 1394 306 230 3646 894 8697 13077 1629 447 6341 2785 484 2226 770 1921 726 52390 1541 2972 3604 188 19013 2233 1211 16270 18778
internal_value=0.000986703 -0.0921222 -0.0438386 0.00304524 -0.151779 -0.0757039 -0.137188 -0.0867699 -0.112143 0.0169126 -0.160898 0.00639955 -0.165307 -0.143614 -0.136342 -0.140788 0.0195573 -0.122212 -0.146132 0.00695204 0.0271601 -0.123555 -0.00197367 0.0204801 0.0307475 0.000646735 -0.133076 -0.124891 -0.154099 -0.16951
internal_weight=58757.1 21347.7 11798.5 7853.9 9549.19 1022.15 3944.56 990.766 843.92 7009.98 8527.05 471.954 7229.09 1173.39 1297.95 1239.43 6790.74 726.238 550.193 2545.19 4245.56 664.699 1859.7 425.285 685.486 1792.51 638.708 548.501 2953.79 6055.7
internal_count=706235 174241 118889 94278 55352 8854 24611 8111 5998 88280 46498 5539 38643 6788 7855 7483 86212 4698 3315 31596 54616 4465 22711 5233 8885 21985 3928 3444 16500 31855
cat_boundaries=0 25 131 155 180 204 227
cat_threshold=671088644 536870928 0 16 0 0 5120 0 4 0 21102608 33685505 33554434 8 1536 64 16384 536870914 0 0 0 2147483680 128 1024 16777216 0 0 0 0 0 0 0 0 0 0 0 0 0 0 0 0 0 0 0 0 0 0 0 0 0 0 32 0 0 0 0 0 0 0 0 0 0 0 0 0 0 0 0 0 0 0 0 0 0 0 0 0 0 524288 0 0 0 0 0 0 0 0 0 0 0 0 0 0 0 0 0 0 0 0 0 0 0 0 0 0 0 0 0 0 0 0 2048 0 0 0 0 0 0 0 0 0 0 536870913 0 1024 0 0 1 0 33554432 256 0 1075839488 4096 3221356547 32 0 0 0 10 268435584 33554432 64 786496 0 2048 8388608 268468224 33554432 0 4194304 2148532482 0 524288 131072 0 1024 0 25296896 64 0 32 83886592 0 131072 0 0 8388608 0 8448 512 8397896 1060864 0 1 1342177280 9437248 512 16384 1073742848 0 4 537001984 64 557064 262144 0 1610612736 0 2115584 4096 537133186 3153920 1073774592 20971520 0 0 134218752 0 268435456 4 16 0 65536 269484032 1073741824 0 0 256 0 0 64 0 513 0 0 16 0 0 0 268435456 0 0 32768 0 0 2048
is_linear=0
shrinkage=0.05


Tree=5
num_leaves=31
num_cat=9
split_feature=3 6 2 11 12 2 9 10 2 2 7 0 1 7 2 2 11 11 0 11 2 4 15 10 4 8 11 0 1 4
split_gain=103823 19317.4 16914.6 4286.42 2016.09 2476.56 1029.95 898.126 875.11 375.619 261.138 247.86 306.497 238.263 226.871 216.913 206.023 192.768 161.478 156.134 154.067 132.495 118.182 101.719 100.807 100.407 99.9481 93.5725 86.2446 86.1174
threshold=1.0000000180025095e-35 1.0000000180025095e-35 1.5000000000000002 0 2643.0000000000005 2.5000000000000004 0.19500000000000003 1 6.5000000000000009 5.5000000000000009 1906.5000000000002 1050.0000000000002 2 1348.5000000000002 5.5000000000000009 1.5000000000000002 3 4 1950.0000000000002 5 3.5000000000000004 1440349036.5000002 11.500000000000002 6 1737846973.0000002 1780.5000000000002 7 1950.0000000000002 8 1687474380.0000002
decision_type=2 2 2 9 2 2 2 9 2 2 2 2 9 2 2 2 9 9 2 9 2 2 2 9 2 2 9 2 9 2
left_child=1 2 3 7 11 15 8 -1 20 29 16 12 -3 -11 28 -6 24 -16 22 -12 -4 -14 -18 -10 -5 -9 -24 -21 -13 -7
right_child=-2 4 6 10 5 9 -8 25 23 13 19 14 21 -15 17 -17 18 -19 -20 27 -22 -23 26 -25 -26 -27 -28 -29 -30 -31
leaf_value=0.0094819238288954416 0.053902139458095667 0.0011480081855280092 -0.12148539965574479 0.034105505416683633 -0.1589476513978213 -0.14411310290673068 -0.13523775010908684 -0.10892762491933855 0.0078267219820724373 0.034929562918347278 -0.018434468994397685 -0.05712057370799211 -0.08269722096479773 -0.11663328984138575 -0.026357232389347431 -0.10491449983518064 -0.084417609494173346 -0.13099159687543027 -0.16033256578206814 0.030371361099861965 -0.073947720553732263 -0.13770657495211805 -0.02806688451286652 -0.089290750277314201 -0.093663955509333499 -0.033921186262552624 0.0061265790285299614 -0.040992592575743655 -0.15021465677320683 -0.043150360113732418
leaf_weight=216.57086015492678 35724.624110907316 62.007283553481102 510.42135238647461 668.17589973658323 535.77988499403 22.592462994158268 3191.3272209018469 932.60119188576937 258.21059914678335 333.01504541188478 176.1583438962698 67.253735043108463 138.22241231799126 28.120071180164814 67.474572211503983 284.29785979539156 40.208452515304089 1234.4913825020194 15.7292622923851 3608.2855044454336 255.8869825899601 526.09666662663221 232.16108298301697 19.985371530056 15.802652031183241 46.859545826911926 1814.7561268359423 46.525864906609058 6626.1121565625072 324.22083842009306
leaf_count=2626 531994 395 2924 8906 2485 117 16500 5857 2977 4467 2088 328 884 156 449 1725 415 6478 125 47946 2044 2882 2520 166 190 446 22710 449 32250 2736
internal_value=0.00106065 -0.0835939 -0.0406733 0.00294315 -0.134052 -0.081073 -0.121133 -0.0837683 -0.0780363 -0.0125628 0.0187128 -0.143334 -0.115368 0.023128 -0.145874 -0.140216 0.00709584 -0.126777 -0.000725752 0.0272123 -0.105612 -0.124389 0.00047362 -0.00207841 0.0307046 -0.104275 0.00214117 0.0293825 -0.149589 -0.0497274
internal_weight=58024 22299.4 12049.7 7813.83 10249.7 1528.03 4235.83 1196.03 1044.5 707.948 6617.8 8721.66 726.326 361.135 7995.33 820.078 2786.83 1301.97 2102.85 3830.97 766.308 664.319 2087.13 278.196 683.979 979.461 2046.92 3654.81 6693.37 346.813
internal_count=706235 174241 118889 94278 55352 11686 24611 8929 8111 7476 85349 43666 4161 4623 39505 4210 34866 6927 25770 50483 4968 3766 25645 3143 9096 6303 25230 48395 32578 2853
cat_boundaries=0 25 29 135 159 180 205 208 232 338
cat_threshold=671088644 536870928 4194304 16 32 0 4096 0 1028 0 21102608 33685504 33554432 8 512 64 16384 536870914 0 0 1536 2147483680 128 1024 16777216 335544320 12582912 5505544 4 0 0 0 0 0 0 0 0 0 0 0 0 0 0 0 0 0 0 0 0 0 0 0 0 0 0 32 0 0 0 0 0 0 0 0 0 0 0 0 0 0 0 0 0 0 0 0 0 0 0 0 0 0 524544 0 0 0 0 0 0 0 0 0 0 0 0 0 0 0 0 0 0 0 0 0 0 0 0 0 0 0 0 0 0 0 0 0 0 0 0 0 0 0 0 0 0 0 536870912 0 1024 0 0 1 0 33554432 256 0 1075839488 4096 3221356547 0 134217728 0 0 522 524296 33554432 64 262144 0 2048 8388624 268468224 33554432 0 4194304 2148532482 0 17301504 131072 939524096 67637264 0 2147516416 32 2147483648 256 131073 65536 0 0 0 128 8 0 0 0 524304 1073741824 8 2164293632 0 1280 0 16908288 64 0 32 576 0 655360 0 0 8388610 0 256 512 8389704 1060864 0 1 1342177280 9437248 512 16384 1073742848 0 256 1342177280 0 0 537001984 0 557064 262144 1024 1610612736 0 2361344 4128 262274 3153920 1073774592 20972544 32 0 134218752 0 268435456 4 16 0 65536 0 0 0 0 0 0 0 0 0 0 0 0 0 0 0 0 0 0 0 0 0 0 8388608 0 0 0 0 0 0 0 0 0 0 0 0 0 0 256 0 0 0 0 0 0 0 0 9216 0 0 0 268435456 0 0 0 0 0 0 0 0 0 0 0 0 0 0 0 0 0 0 0 0 0 0 0 0 0 0 0 134218880 0 0 0 4 256 0 0 512 524288 0 4096 2 0 8192 0 0 805306400 0 0 8388608 0 0 0 0 0 8912896 2048
is_linear=0
shrinkage=0.05


Tree=6
num_leaves=31
num_cat=12
split_feature=3 6 2 11 7 2 9 10 2 2 11 0 0 2 2 11 11 1 11 2 2 15 11 0 14 1 4 11 10 11
split_gain=93506.3 15670 14117.4 3736.55 1573.83 2190.08 819.777 712.199 705.316 292.263 252.592 229.009 208.75 189.022 183.411 227.022 174.651 167.09 159.632 134.944 134.398 132.766 129.664 126.948 196.875 110.901 109.623 99.4315 97.2745 80.945
threshold=1.0000000180025095e-35 1.0000000180025095e-35 1.5000000000000002 0 1.0000000180025095e-35 3.5000000000000004 0.19500000000000003 1 6.5000000000000009 1.5000000000000002 2 1950.0000000000002 1150.0000000000002 8.5000000000000018 2.5000000000000004 3 4 5 6 2.5000000000000004 1.5000000000000002 19.500000000000004 7 1.0000000180025095e-35 81.500000000000014 8 1730804283.5000002 9 10 11
decision_type=2 2 2 9 2 2 2 9 2 2 9 2 2 2 2 9 9 9 9 2 2 2 9 2 2 9 2 9 9 9
left_child=1 2 3 7 5 9 8 -1 19 -3 -5 18 17 -7 -14 -16 -8 -6 26 -4 -19 -20 -23 -22 -25 -17 -12 -9 -10 -24
right_child=-2 4 6 10 12 13 16 27 28 -11 11 -13 14 -15 15 25 -18 20 21 -21 23 22 29 24 -26 -27 -28 -29 -30 -31
leaf_value=-0.095009187068789497 0.053697372999000847 -0.13948456970696552 -0.1179661059725278 0.039547603881025462 0.0015804784088657997 -0.017616543152970811 -0.043656068669014315 0.026109350768364226 0.0076585661876925979 -0.086267323950433739 0.034677678615131206 -0.08693381266977436 -0.13779638502870634 0.042672049459166771 -0.030624561012615199 -0.038175042913690199 -0.12279641498144765 -0.13399264847024503 -0.049822147188147696 -0.076793167251653666 -0.14455634233750533 -0.023880707818374647 -0.021760917292208304 -0.10875519368083522 -0.041409950961572302 -0.12620924500959707 -0.046183322144387869 -0.033835137693417901 -0.086793010081079966 0.015047888435336214
leaf_weight=998.51122918725014 34108.622372478247 589.34176102280617 347.48318034410477 1132.4572518914938 43.464122012257576 298.9161065518856 110.20963196456432 144.98038040101528 257.48617658764124 458.87316079437733 1083.3614724576473 56.103969253599644 4527.8798080086708 230.08527182787657 90.852022290229797 67.550345711410046 3280.6444296240807 414.46053542196751 90.541804723441601 465.74914868175983 113.23255222290754 237.68284495174885 148.5451078414917 317.36984248459339 164.91155072301626 3500.0276133492589 43.601457640528679 114.95948606729507 20.364518724381924 3719.6676921024919
leaf_count=5934 531994 2599 1788 15747 275 3112 548 1930 2987 2851 14884 480 20439 3172 457 328 15952 2012 927 3180 536 2472 1749 1732 1031 16808 560 1110 156 48485
internal_value=0.00111242 -0.0766359 -0.0379164 0.00284505 -0.120493 -0.0743319 -0.108585 -0.0756824 -0.0708878 -0.116188 0.0181091 0.013531 -0.128373 0.00860554 -0.131069 -0.122743 -0.120715 -0.107423 0.0146152 -0.0943858 -0.11103 0.0100436 0.0113882 -0.0969131 -0.0857271 -0.124654 0.0312717 -0.000672684 -0.00211217 0.0135819
internal_weight=57177.9 23069.3 12252.3 7770.41 10817 1577.22 4481.94 1258.45 1091.08 1048.21 6511.96 5379.5 9239.75 529.001 8186.31 3658.43 3390.85 1053.44 5323.4 813.232 1009.97 4196.44 4105.9 595.514 482.281 3567.58 1126.96 259.94 277.851 3868.21
internal_count=706235 174241 118889 94278 55352 11734 24611 8974 8111 5450 85304 69557 43618 6284 38032 17593 16500 5586 69077 4968 5311 53633 52706 3299 2763 17136 15444 3040 3143 50234
cat_boundaries=0 25 28 53 79 102 208 233 255 361 382 385 410
cat_threshold=671088644 16 541065216 16 32 0 4096 0 1028 0 131088 33685505 33554432 1073774600 0 64 16384 536870914 0 0 1536 2147483744 128 1024 16777216 0 82178 1342177280 3221225472 16908289 0 7634944 0 134217728 0 40960 270532642 0 33554432 0 0 0 1610612736 256 0 16 0 0 34144392 0 65540 67108864 258 1 2621440 8388608 2147483648 0 0 536870920 86114304 1024 256 0 134217728 0 40 2147483648 2097281 335577088 0 0 0 0 0 2148008064 1024 1073741824 16 1343225856 1073741824 0 68157440 256 0 0 67125312 0 66057 0 1140867072 16 4 262400 0 268435456 2097152 0 32896 0 0 2048 0 0 0 0 0 0 0 0 0 0 0 0 0 0 0 0 0 0 0 0 0 0 0 0 0 0 32 0 0 0 0 0 0 0 0 0 0 0 0 0 0 0 0 0 0 0 0 0 0 0 0 0 0 0 0 0 0 0 0 0 0 0 0 0 0 0 0 0 0 0 0 0 0 0 0 0 0 0 0 0 0 0 0 0 0 0 0 0 0 0 0 0 0 0 0 0 0 536870912 0 1024 0 0 1 0 33554432 256 0 10764288 0 2147483648 0 0 0 268500992 1074855944 1073741832 524288 0 66048 0 2048 16 0 8929280 0 0 141861156 0 0 0 1 0 0 131072 64 557064 262144 1024 536872960 0 262144 2168459296 537133184 3153920 0 71304832 0 0 134284288 0 268435456 0 16 0 0 0 0 0 0 0 0 0 0 0 0 0 0 0 0 0 0 0 0 32 268435456 8388608 0 0 33554432 0 0 0 0 134217728 0 0 0 0 0 0 0 0 0 0 0 8388608 0 0 0 1024 0 0 0 268435456 0 0 0 32 0 0 0 0 0 0 0 4194304 0 0 0 1073741824 0 0 536870912 0 0 0 0 0 67108864 262144 0 128 0 0 0 524290 8192 0 128 512 0 0 0 2 0 0 0 0 536870912 0 0 0 0 0 0 0 0 524288 2176 0 0 0 0 32 0 0 0 0 0 0 0 0 0 0 0 0 0 0 0 1536 0 2147483904 1342177280 128 0 8320 131072 0 2097154 16 0 0 18432 1073741824 0 67108880 268435456 8452 4194816 1024 4608 0 4 1342181376 8388608 512 0 8454144
is_linear=0
shrinkage=0.05


Tree=7
num_leaves=31
num_cat=11
split_feature=3 6 2 11 4 2 9 10 2 11 12 2 11 0 11 2 0 11 11 12 2 15 11 2 9 7 4 11 10 11
split_gain=84772.2 13012.7 11965.3 3272.32 1286.05 1505.5 676.8 603.585 578.099 243.081 237.907 229.802 287.832 222.398 214.836 202.663 188.699 151.105 134.611 127.632 125.862 118.204 118.202 112.409 109.157 105.797 104.341 95.3762 87.2202 80.6603
threshold=1.0000000180025095e-35 1.0000000180025095e-35 1.5000000000000002 0 1717512628.5000002 3.5000000000000004 0.19500000000000003 1 6.5000000000000009 2 2643.0000000000005 1.5000000000000002 3 1450.0000000000002 4 1.5000000000000002 1950.0000000000002 5 6 35.500000000000007 6.5000000000000009 19.500000000000004 7 2.5000000000000004 0.24500000000000002 1.0000000180025095e-35 1729582671.0000002 8 9 10
decision_type=2 2 2 9 2 2 2 9 2 9 2 2 9 2 9 2 2 9 9 2 2 2 9 2 2 2 2 9 9 9
left_child=1 2 3 7 11 15 8 -1 23 -5 -7 19 -13 14 -14 -6 17 26 -8 -3 -12 -19 -23 -4 -15 -16 -11 -9 -10 -24
right_child=-2 4 6 9 5 10 18 27 28 16 20 12 13 24 25 -17 -18 21 -20 -21 -22 22 29 -25 -26 -27 -28 -29 -30 -31
leaf_value=-0.086704968852159864 0.053504074824106018 -0.077061111225920798 -0.10613944674591572 0.03893198578943742 -0.13034154516528473 -0.087154186134026826 -0.037280436134603946 0.025415935803892981 0.0073346488224541699 0.034887509638868351 -0.014236619086537314 -0.018483360236946376 -0.0092409174797569767 -0.080999141717707085 -0.04622506572783356 -0.079818733068130102 -0.075539780743905049 -0.045720214396483411 -0.11087381459332338 -0.12763616840670899 0.039770187666180082 -0.02225503197380365 -0.021270270924106768 -0.069498012494094083 -0.11826235760373226 -0.10322469458442413 -0.037947702344551512 -0.031128885396600123 -0.080575363694684959 0.014623660464550181
leaf_weight=1031.9501005187631 32559.380629733205 129.35241784155369 366.36249929666519 1091.7470169737935 409.85536532104015 62.165442645549774 99.293568104505539 141.84267970919609 255.89771506935358 993.76763066649437 184.84072288870811 103.40904599428177 85.124200269579887 205.27741798013449 87.096473932266235 384.8911307156086 59.466142937541008 93.894273832440376 3456.6439836323261 3502.9922751486301 259.09775228053331 243.48578224331141 156.28053409606218 488.28501164168119 4612.7918598651886 1246.4809447228909 51.730936832726002 136.6973018348217 21.578255482017994 3723.5498979017138
leaf_count=5772 531994 589 1788 15698 1736 335 485 1930 2987 14028 1835 500 499 1228 644 2277 481 925 16015 15138 3758 2472 1786 3180 20735 6078 653 1299 156 49234
internal_value=0.00114883 -0.0708205 -0.0355017 0.0027427 -0.109708 -0.0629495 -0.098516 -0.0689513 -0.0648467 0.0174715 0.00445537 -0.115807 -0.110062 -0.111373 -0.0941514 -0.105874 0.0130045 0.0140297 -0.109235 -0.125835 0.0172836 0.00972914 0.0110154 -0.0852051 -0.116675 -0.0987615 0.0309873 -0.00245131 -0.00214131 0.0131269
internal_weight=56245.2 23685.8 12412.5 7724.41 11273.4 1300.85 4688.06 1310.49 1132.12 6413.92 506.104 9972.52 6340.18 6236.77 1418.7 794.746 5322.18 5262.71 3555.94 3632.34 443.938 4217.21 4123.32 854.648 4818.07 1333.58 1045.5 278.54 277.476 3879.83
internal_count=706235 174241 118889 94278 55352 9941 24611 9001 8111 85277 5928 45411 29684 29184 7221 4013 69579 69098 16500 15727 5593 54417 53492 4968 21963 6722 14681 3229 3143 51020
cat_boundaries=0 25 28 53 76 100 125 148 170 191 194 219
cat_threshold=671088644 16 4194304 80 32 0 4096 0 1024 0 16908304 33685504 33554434 1073741824 1536 64 16384 536870914 0 0 1536 2147483680 128 1024 16777216 0 33026 1879048192 3221225472 19005441 0 7634944 0 134217728 0 40960 270532642 0 33554432 0 0 0 1610612736 256 0 16 0 0 589960 0 65540 67108864 258 33575938 0 0 2147500097 0 0 536870912 19005696 67109440 67108928 0 0 262144 0 0 2097280 2097152 16 0 16777216 4194304 0 524416 1744830464 1044 0 8388608 0 0 0 0 536870912 524288 0 0 16416 40 0 0 0 0 1073741824 131072 2415919128 33554432 2097152 8388608 0 8667136 0 2147483648 0 0 0 268500992 1074790408 0 524288 0 66048 16 2048 16 0 42483712 0 0 174367012 0 32 131072 1 1343225856 1073741824 0 1048576 256 0 0 0 0 66057 0 1140867072 0 4 262400 0 268435456 2097152 0 32896 0 0 2048 0 0 537001984 0 557064 262144 1024 536872960 4 262144 2151682080 537133184 3153920 32768 71303296 0 0 134284288 0 268435456 0 80 0 0 0 0 32 0 0 0 0 0 0 0 0 0 0 0 0 0 0 0 1536 0 2147483904 1342177280 130 0 8320 131072 0 2097154 16 0 0 18432 0 1 67108880 268435464 260 4194816 1024 4608 0 2052 1342181376 8388608 528 0 8454144
is_linear=0
shrinkage=0.05


Tree=8
num_leaves=31
num_cat=10
split_feature=3 6 2 11 12 2 4 10 2 2 11 0 1 2 1 0 2 7 11 11 12 11 4 15 15 11 4 2 2 11
split_gain=77245.2 11005.2 10260.9 2896.97 1067.35 1522.23 585.464 512.906 345.967 257.765 234.161 196.219 257.239 193.995 167.11 166.305 154.305 146.107 144.15 142.822 122.055 108.788 94.7054 91.7579 86.3984 85.3274 85.1245 83.2029 79.6808 186.388
threshold=1.0000000180025095e-35 1.0000000180025095e-35 1.5000000000000002 0 2643.0000000000005 2.5000000000000004 1720427265.0000002 1 8.5000000000000018 6.5000000000000009 2 1050.0000000000002 3 8.5000000000000018 4 1850.0000000000002 1.5000000000000002 1348.5000000000002 5 6 2643.0000000000005 7 1729582671.0000002 786.50000000000011 9.5000000000000018 8 1440349036.5000002 2.5000000000000004 2.5000000000000004 9
decision_type=2 2 2 9 2 2 2 9 2 2 9 2 9 2 9 2 2 2 9 9 2 9 2 2 2 9 2 2 2 9
left_child=1 2 3 7 11 16 19 -1 27 -7 -5 12 -3 14 -13 18 -6 -11 22 -4 -10 -20 -12 -21 -23 -26 -14 -8 -16 -30
right_child=-2 4 6 10 5 9 8 -9 20 17 15 13 26 -15 28 -17 -18 -19 21 23 -22 24 -24 -25 25 -27 -28 -29 29 -31
leaf_value=-0.078500662379607095 0.053321518156475269 0.0010196183280181902 -0.036039243944448962 0.038407035090781236 -0.12105709274242511 -0.033544470868198173 -0.091563185660771151 0.0018407622255444374 -0.091013057513100529 0.038054409425072266 0.033821034796042822 -0.034180043530868912 -0.060775364466683225 -0.083497827979587436 -0.11610744331866643 -0.064194626785914435 -0.078417677326168278 -0.091780376205020595 0.028412647136471927 -0.10478944135317242 0.027436734252104342 -0.064945846244136365 -0.032764911241123615 -0.086907571634508129 -0.02243721773316076 0.0087701054112505148 -0.10261802703013219 -0.05591725057657973 -0.026199677764023155 -0.10809757101774141
leaf_weight=1097.0256106704473 31074.796158827841 90.129382885992527 128.74370916187763 1046.1927423030138 602.40035472810268 438.20316959917545 256.62617926299572 250.99775973707438 25.502841338515282 263.78056479245424 999.98841346055269 101.23492739349604 152.43745236098766 681.2709498628974 5018.3662280589342 69.712138585746288 327.54257955402136 23.607750684022903 622.62645368278027 2896.1217976659536 147.73145940899849 42.577181674540043 56.413622856140137 953.61139734834433 225.79150093346834 3265.1579771488905 599.88738257437944 452.10376526415348 96.224446147680283 3242.1643363684416
leaf_count=5940 531994 512 618 15556 2485 3460 1196 2977 130 3903 14521 444 827 3195 21135 574 1725 113 8636 13027 1833 389 696 4851 2237 42752 2822 2956 473 14258
internal_value=0.00117619 -0.0658543 -0.0333512 0.00264221 -0.10087 -0.0636882 -0.0901986 -0.0636379 -0.053342 -0.00941026 0.0168345 -0.107037 -0.0839471 -0.109165 -0.111233 0.0124974 -0.106039 0.027389 0.013547 -0.0983691 0.00999904 0.00927531 0.0299814 -0.1001 0.00583254 0.00671249 -0.0929049 -0.0688244 -0.111991 -0.106139
internal_weight=55249 24174.2 12536.9 7676.48 11637.2 1655.53 4860.44 1348.02 881.964 725.591 6328.46 9981.72 842.454 9139.26 8457.99 5282.27 929.943 287.388 5212.56 3978.48 173.234 4156.15 1056.4 3849.73 3533.53 3490.95 752.325 708.73 8356.76 3338.39
internal_count=706235 174241 118889 94278 55352 11686 24611 8917 6115 7476 85361 43666 4161 39505 36310 69805 4210 4016 69231 18496 1963 54014 15217 17878 45378 44989 3649 4152 35866 14731
cat_boundaries=0 25 28 53 159 265 290 314 339 361 387
cat_threshold=671088644 536870928 4194304 16 32 0 4096 0 1024 0 16973840 33685504 33554434 1073741824 0 64 16384 536936450 0 0 1536 2147483680 128 1024 16777216 0 114946 1879048192 3221225472 16908289 0 7634944 0 134217728 0 40960 1344274466 0 33554432 0 0 0 536870912 256 0 16 0 0 34144392 0 65540 67108864 258 0 0 0 0 2097152 0 0 0 0 0 0 0 0 0 0 0 0 0 0 0 0 0 0 0 0 0 32 0 0 0 0 0 0 0 0 0 0 0 0 0 0 0 0 0 0 0 0 0 0 0 0 0 0 134742272 0 0 0 0 0 0 0 0 0 0 0 0 0 0 0 0 0 0 0 0 0 0 0 0 0 0 0 0 0 0 0 0 0 0 0 0 0 0 0 0 0 0 0 536870912 0 1024 0 0 1 0 33554432 260 0 0 0 0 0 0 0 0 0 0 0 0 0 0 0 0 0 0 0 0 0 0 8388608 0 0 0 36 0 0 0 0 0 268435456 0 0 0 0 0 0 0 0 0 64 32 0 0 1024 0 0 0 0 0 131072 0 0 0 0 0 0 0 0 0 0 0 0 0 0 0 0 0 0 0 0 0 4160 0 0 0 134217856 0 0 0 524292 0 0 0 512 0 0 4096 2 0 8192 0 0 805306400 0 0 8388608 0 0 1048576 0 0 1082654720 2048 0 10764288 0 2147483648 0 0 0 268500992 1114120 1073741832 524288 0 66048 0 1073743872 16 268435456 8929280 0 0 139755812 0 0 32768 1 1343225856 1073741824 0 69206016 256 0 0 67125312 0 66057 4 1140867072 16 4 0 0 268435584 2097152 0 32896 0 0 2304 16384 0 1073807936 0 1073741824 16 8388608 0 524288 12582912 2147483968 0 268435456 96 16 0 8388608 1140850688 33554432 0 0 2149589058 131072 40 393216 512 0 0 537001984 0 557064 2359296 1024 536872960 4 262144 2151677984 262273 3153920 32768 71304320 0 0 134218752 0 268435456 4096 80 134217728 69206017 0 2147483648 0 0 0 19267584 536871936 66048 0 0 8 40 2147483648 1 67108864 16 0 0 1074003968 0 134742144 1024 1073741824 16
is_linear=0
shrinkage=0.05


Tree=9
num_leaves=31
num_cat=10
split_feature=3 6 2 11 4 2 9 10 2 2 4 11 11 15 0 2 11 0 11 11 1 12 11 2 10 9 0 4 0 15
split_gain=70679.2 9467.72 8871.34 2574.68 915.651 1024.14 512.008 456.402 431.099 253.185 266.604 234.519 225.832 165.328 148.005 141.499 136.608 135.781 135.759 124.7 115.175 108.931 106.285 103.503 96.6424 94.244 93.2697 92.3247 86.1394 80.9057
threshold=1.0000000180025095e-35 1.0000000180025095e-35 1.5000000000000002 0 1720427265.0000002 3.5000000000000004 0.19500000000000003 1 5.5000000000000009 1.5000000000000002 1656494717.0000002 2 3 900.00000000000011 1950.0000000000002 1.5000000000000002 4 1150.0000000000002 5 6 7 98.500000000000014 8 8.5000000000000018 9 0.23500000000000001 1.0000000180025095e-35 1729582671.0000002 850.00000000000011 35.500000000000007
decision_type=2 2 2 9 2 2 2 9 2 2 2 9 9 2 2 2 9 2 9 9 9 2 9 2 9 2 2 2 2 2
left_child=1 2 3 7 9 15 8 -1 -4 21 11 -11 -5 -7 18 -6 -8 26 27 -12 -19 -3 -20 -15 -10 -21 -13 -14 -28 -24
right_child=-2 4 6 12 5 13 16 -9 24 10 19 17 14 23 -16 -17 -18 20 22 25 -22 -23 29 -25 -26 -27 28 -29 -30 -31
leaf_value=0.022833968898638979 0.053149048992818283 -0.086580591275553884 -0.073621024562790002 0.037939434825264892 -0.11236964187122739 -0.079556145307110693 -0.032568068464433698 -0.069272137462612099 0.0018120962518644902 -0.020477882046527743 0.0017331677058649245 -0.11693438508109746 0.03408154264878472 -0.0061562204820803622 -0.062749296448831357 -0.067158866863766237 -0.0938867486055011 -0.034222778942297485 0.026775306952898932 -0.05060252898209721 -0.10066853600664645 -0.11145540219113087 -0.028505379163127884 0.04418781601283138 -0.082508286581112977 -0.088251527468396984 -0.024956750571383815 -0.032975184511447951 -0.076158987729626593 0.0071818984921233568
leaf_weight=151.33904208987951 29652.756326757371 505.683603733778 860.61507783830166 999.31149473041296 343.84975323081017 49.681607969105244 130.91633643209934 1226.8342706412077 316.15578455477953 123.96385576575994 74.698818266391754 102.64510259032249 899.17766211926937 221.86385004222393 65.359052047133446 348.44321586191654 3671.4219460338354 102.36487203091383 697.43206204473972 300.64413311332464 5328.062355838716 3394.5462716370821 166.67531752586365 189.11835078895092 28.116146266460419 371.76379500329494 107.13390809297562 54.437834933400154 352.11733183264732 3367.7388883605599
leaf_count=2061 531994 2135 4465 15348 1394 242 607 6748 3464 593 402 437 13470 2372 477 1921 15893 446 9938 1965 22646 13934 1695 2925 182 1620 574 648 1746 43893
internal_value=0.0011963 -0.0615495 -0.0313967 0.00254643 -0.0935215 -0.0511736 -0.0831078 -0.0590662 -0.0547049 -0.0980576 -0.0922768 -0.095721 0.0162008 0.00659571 0.0119993 -0.0896143 -0.0921081 -0.0970814 0.0129646 -0.0640809 -0.0996644 -0.10823 0.00904732 0.0170102 -0.00741818 -0.0703715 -0.0738452 0.0299396 -0.0642146 0.00548345
internal_weight=54204.9 24552.1 12635.5 7628.31 11916.6 1152.96 5007.23 1378.17 1204.89 10763.6 6863.39 6116.29 6250.13 460.664 5250.82 692.293 3802.34 5992.32 5185.46 747.107 5430.43 3900.23 4231.85 410.982 344.272 672.408 561.896 953.615 459.251 3534.41
internal_count=706235 174241 118889 94278 55352 8854 24611 8809 8111 46498 30429 26442 85469 5539 70121 3315 16500 25849 69644 3987 23092 16069 55526 5297 3646 3585 2757 14118 2320 45588
cat_boundaries=0 25 28 51 76 100 125 146 252 277 280
cat_threshold=671088644 16 541065216 16 32 0 0 0 1024 16384 4390928 33685504 33554432 1073741832 1024 64 16384 536870914 0 0 1536 2147483744 128 0 16777216 335544320 0 5505032 167789568 0 0 536870977 1 2147483650 536870912 2228480 67110464 64 0 524288 0 288 0 2097280 2097152 16 0 16777216 1077936128 0 540800 3221225472 19005441 0 3440640 0 134217728 0 40960 1344274466 0 33554432 0 0 0 1610612736 256 0 16 0 0 34144392 0 65536 67108864 258 1343225857 1073741824 128 1048576 256 0 0 67108864 0 521 0 67387392 0 4 262144 67108864 268435456 2097152 0 32768 0 0 2304 16384 0 8667136 0 2151677952 0 0 0 268500992 5242888 1073741832 524288 0 66048 0 2048 16 268435456 8929280 0 0 140804388 0 4 131072 1 134217728 2097172 0 3221520384 0 0 0 16777216 0 0 0 0 0 0 0 0 0 0 0 0 268468224 0 0 0 0 0 0 536870912 0 0 0 0 0 0 0 0 0 0 0 0 0 32 0 8388608 16777216 0 33554432 0 0 0 0 0 0 0 1 0 4194304 0 0 0 0 0 0 0 0 0 0 1024 0 0 0 268435456 0 0 0 0 0 0 0 0 0 0 0 262144 0 0 0 0 0 0 0 0 0 0 0 4096 67108864 0 0 0 1048592 8 0 524288 8192 0 0 512 0 0 536870912 2 2048 0 0 4194304 536870944 0 0 0 8 0 0 8192 0 524288 2176 0 1073807936 0 1073741824 16 8388608 1 0 8454144 2147483968 0 268435456 96 16 2147483648 8388608 1140850688 33554432 0 0 2148540482 131072 32 4227072 512 0 2147483904 1342177280
is_linear=0
shrinkage=0.05


Tree=10
num_leaves=31
num_cat=11
split_feature=3 6 2 11 4 2 9 10 2 2 11 11 0 2 12 0 14 11 1 11 1 11 2 14 11 11 2 12 15 4
split_gain=64901 8244.04 7740.45 2287.17 790.279 987.385 451.438 393.796 373.415 217.228 216.712 215.465 183.995 168.944 164.754 136.122 131.97 131.342 128.331 118.259 114.631 111.378 101.539 99.1761 118.034 98.9734 96.1648 95.8115 79.1462 67.2883
threshold=1.0000000180025095e-35 1.0000000180025095e-35 1.5000000000000002 0 1717512628.5000002 3.5000000000000004 0.19500000000000003 1 4.5000000000000009 1.5000000000000002 2 3 1350.0000000000002 1.5000000000000002 2643.0000000000005 1850.0000000000002 37.500000000000007 4 5 6 7 8 7.5000000000000009 191.50000000000003 9 10 10.500000000000002 19.500000000000004 6.5000000000000009 1301487821.0000002
decision_type=2 2 2 9 2 2 2 9 2 2 9 9 2 2 2 2 2 9 9 9 9 9 2 2 9 9 2 2 2 2
left_child=1 2 3 7 9 13 8 -1 -4 20 -11 -5 19 -6 -7 16 25 -8 -14 -12 -3 -18 -16 -20 -25 -13 -10 -22 -19 -29
right_child=-2 4 6 11 5 14 17 -9 26 10 12 15 18 -15 22 -17 21 28 23 -21 27 -23 -24 24 -26 -27 -28 29 -30 -31
leaf_value=-0.066908422852044527 0.052986048862745119 -0.017346291339453725 -0.071393308662337576 0.037452101537330619 -0.10582695419682991 -0.067278787264286363 -0.032161126942728678 0.0018983965576940228 -0.030655530639641566 -0.013635049117831782 -0.011856150584043343 0.028101029485850217 -0.02581427055097206 -0.061532748806164654 -0.0073099873094332945 -0.054527821080788887 -0.016044691312480552 -0.018395997715496628 -0.098501225908844497 -0.074568393985373183 -0.03703589962072789 0.018595159202551861 0.041316880510589189 -0.10196975507781612 -0.073473059886548814 -0.011346764665379866 0.018550441162482872 -0.056552083417167991 -0.088300544611462861 -0.1044637661502323
leaf_weight=1164.9073767513037 28291.152464181185 59.256648525595665 788.98369312286377 955.82953989505768 432.38567319512367 68.668109059333801 152.52796131372452 261.34526135772467 295.22957091778517 118.64747150242329 99.462198168039322 187.76084891706705 101.618417493999 428.72140464186668 222.76127283275127 76.571922242641449 241.90527446568012 40.939263939857483 3171.8887440860271 1121.8323127552867 55.001837104558945 3886.3261949717999 207.21921553462744 849.82684367895126 1435.311725102365 805.95372316241264 149.61181539297104 74.771247863769531 3698.5557835400105 3679.1178359091282
leaf_count=5861 531994 265 3814 15161 1736 335 691 3054 2509 545 534 2547 443 2277 2265 583 2808 193 13099 5242 235 54881 3328 3552 6269 9383 1788 311 15616 14916
internal_value=0.00120883 -0.0577788 -0.0296351 0.00245507 -0.0872686 -0.0513512 -0.0770932 -0.0543749 -0.0507391 -0.0918046 -0.0864865 0.0156881 -0.0876121 -0.0837741 0.00463926 0.0116222 0.0126339 -0.0854478 -0.0916022 -0.0701688 -0.101289 0.0165715 0.0161246 -0.0926102 -0.0848385 -0.00372456 -0.0141063 -0.102281 -0.0873018 -0.103509
internal_weight=53124.1 24832.9 12706.4 7580.6 12126.5 1359.76 5125.85 1426.25 1233.83 10766.7 6898.59 6154.35 6779.94 861.107 498.649 5198.52 5121.95 3892.02 5558.65 1221.29 3868.15 4128.23 429.98 5457.03 2285.14 993.715 444.841 3808.89 3739.5 3753.89
internal_count=706235 174241 118889 94278 55352 9941 24611 8915 8111 45411 29684 85363 29139 4013 5928 70202 69619 16500 23363 5776 15727 57689 5593 22920 9821 11930 4297 15462 15809 15227
cat_boundaries=0 25 28 51 76 100 206 230 336 361 385 411
cat_threshold=671088644 536870928 4194304 16 40 0 0 0 1024 16384 196624 33685633 33554432 0 0 64 16384 536936450 0 0 1536 2147483696 128 1024 16777216 0 114946 1879048192 33575936 2097152 0 2147500097 0 2 536870912 86114560 67109440 67108928 0 0 262160 0 0 2097280 2097152 16 0 0 4194304 0 524416 3221225472 19005441 0 7634944 0 134217728 0 40960 1344274474 0 33554432 0 0 0 536870912 256 0 16 0 0 589960 0 65536 67108864 258 1343225857 1073741984 128 1048576 256 0 0 67125248 0 521 4 67108864 0 4 768 16 268435456 2097152 0 32768 33554432 0 2304 16384 0 0 0 0 0 0 0 0 0 0 0 0 0 0 0 0 0 0 0 0 32 0 8388608 0 0 33554432 0 0 0 0 0 32 0 1 0 4194304 0 256 0 0 0 0 0 0 0 0 1024 0 0 0 268435456 0 0 0 32 0 0 0 0 0 0 0 0 0 0 0 0 0 0 0 0 0 0 0 4096 67108864 32768 0 128 1048576 0 0 524288 8192 0 0 512 0 0 536870912 2 0 0 0 0 536870944 0 0 0 8 0 0 0 0 524288 2176 671088640 33554452 0 8388608 0 0 0 33554432 256 786432 65536 0 1048608 40 268439552 2147483648 0 34603008 0 0 2415923464 33554432 10518528 8388608 0 0 0 0 0 0 0 0 0 0 0 0 0 0 0 0 0 0 0 0 0 0 0 0 0 0 32 0 0 0 0 0 0 0 0 0 0 0 0 0 0 0 0 0 0 0 0 0 0 0 0 0 0 0 32 0 0 0 0 0 0 0 0 0 0 0 0 0 0 0 0 0 0 0 0 0 0 0 0 0 0 0 0 0 0 0 0 0 0 0 0 0 0 0 0 0 16384 0 0 0 0 0 0 0 1074266112 8450 0 8192 0 131072 0 0 16 1064960 2147483652 395264 20480 0 1048576 0 67379456 0 8 1052672 0 268437508 1342181376 8388672 528 134217728 128 0 270596 0 1073807360 2 0 0 98304 8912896 659456 0 0 2097152 0 0 0 0 344981536 0 0 538585476 4 0 65536 8388633 1073741824 4096 1 0 32768 2684420096 34 0 0 8912896 16452 16640 134217728 0 8388608 201359360 0 0 0 0 33685632 0 0 1048576 256
is_linear=0
shrinkage=0.05


Tree=11
num_leaves=31
num_cat=11
split_feature=3 0 2 11 1 12 2 9 2 10 7 6 2 0 2 11 2 11 11 0 11 0 7 1 4 11 6 1 11 4
split_gain=59770.7 7273.37 5557.1 2122.92 1069.79 615.621 475.289 469.964 779.522 326.16 220.375 190.857 303.067 181.526 180.469 168.366 159.435 141.529 120.548 111.915 108.468 98.1264 90.7969 83.5134 83.3643 81.5337 79.4242 73.8148 73.0496 71.4096
threshold=1.0000000180025095e-35 1050.0000000000002 1.5000000000000002 0 1 2643.0000000000005 5.5000000000000009 0.26500000000000007 2.5000000000000004 2 1865.5000000000002 1.0000000180025095e-35 1.5000000000000002 1.0000000180025095e-35 5.5000000000000009 3 3.5000000000000004 4 5 1.0000000180025095e-35 6 2850.0000000000005 1461.5000000000002 7 1522773497.5000002 8 1.0000000180025095e-35 9 10 1732341326.5000002
decision_type=2 2 2 9 9 2 2 2 2 9 2 2 2 2 2 9 2 9 9 2 9 2 2 9 2 9 2 9 9 2
left_child=1 2 3 9 10 13 19 8 -3 22 15 12 21 20 -10 29 -13 -18 -12 -7 -4 -9 -1 -19 -16 -17 -11 -15 -20 -5
right_child=-2 7 5 4 -6 6 -8 11 14 26 18 16 -14 27 24 25 17 23 28 -21 -22 -23 -24 -25 -26 -27 -28 -29 -30 -31
leaf_value=-0.11010977888548533 0.052831950544168942 -0.087787958034615587 -0.021824819831372758 0.032847830634783408 -0.080319540426492267 -0.062004962332719474 0.012333991020270333 -0.0027761169422136339 -0.040112357164265589 -0.060258958999945558 -0.016469033470450405 -0.093552243061929607 -0.10246745618413672 -0.0050624482453944814 -0.065542579614660576 0.02232669465355552 -0.015163689389308605 -0.026722532630406737 0.037366375602629419 -0.0085958455720492131 -0.079923452356861352 -0.15858112291701465 0.024516521872132293 -0.083441301709599278 0.021245337309410514 -0.0073068349414187302 -0.1041289594654578 -0.055777853762248433 0.020607494322281327 -0.043035380249636816
leaf_weight=13.681173518300055 26987.887792751193 967.32016774266958 110.28540830314159 525.34317704662681 296.69818672537804 794.01662018150091 362.5632336512208 190.00286485627294 390.77418155968189 1222.9636457785964 176.26668304204941 6502.2672939002514 165.45786754786968 110.75323086977005 30.983049809932709 260.48045618087053 103.04127551615238 100.46022319793701 976.6962713599205 111.90722339600325 3985.8971009254456 10.673298120498655 148.10368630290031 2785.5971991568804 258.72296005487442 1637.8859254866838 112.67652919888496 282.28521943092346 2363.0257309935987 32.947494238615036
leaf_count=96 531994 4137 497 7948 1253 3878 4336 2106 2578 6299 2102 26283 683 569 162 3528 458 422 15952 750 16972 76 2034 11537 3494 19582 457 1381 34301 370
internal_value=0.00121612 -0.0544377 -0.0295778 -0.00198234 0.0108143 -0.0668024 -0.0360453 -0.0836604 -0.058944 -0.0552617 0.0154681 -0.087792 -0.0523691 -0.0754932 -0.0179416 0.00400405 -0.0891585 -0.0796006 0.0235222 -0.0554074 -0.0786076 -0.0110629 0.0123675 -0.0815661 0.0119637 -0.00314504 -0.0634846 -0.0430348 0.0256055 0.0278704
internal_weight=52017.7 25029.8 13524.5 7766.77 6269.34 5757.71 1268.49 11505.3 1647.8 1497.43 5972.65 9857.5 366.134 4489.22 680.48 2456.66 9491.37 2989.1 3515.99 905.924 4096.18 200.676 161.785 2886.06 289.706 1898.37 1335.64 393.038 3339.72 558.291
internal_count=706235 174241 122305 93922 85036 28383 8964 51936 10371 8886 83783 41565 2865 19419 6234 31428 38700 12417 52355 4628 17469 2182 2130 11959 3656 23110 6756 1950 50253 8318
cat_boundaries=0 24 130 134 158 183 208 232 338 364 470 495
cat_threshold=687865860 16 524288 131088 32 268435456 0 2147483648 5120 0 268566528 2359296 35652608 0 512 0 16384 134217730 256 33554496 1536 2147483648 0 4096 0 0 0 0 0 0 0 0 0 0 0 0 0 0 0 0 0 0 0 0 0 0 0 0 0 0 32 0 0 0 0 0 0 0 0 0 0 0 0 0 0 0 0 0 0 0 0 0 0 0 0 16777216 0 524288 0 0 0 0 0 0 0 0 0 0 0 0 0 0 0 0 0 0 0 0 0 0 0 0 0 0 0 0 0 0 0 0 0 0 0 0 0 0 0 0 0 0 0 545259521 0 1024 0 0 1 0 50331904 260 335544320 8388608 541065224 4 8388608 1075839552 4096 3221225475 0 0 0 0 10 2147483648 33554432 16448 786496 0 2048 8388608 268468224 33554432 0 4194304 2148532482 1 524288 131072 268435456 2625537 0 2147483648 1 0 0 18874369 33555456 134218240 134217728 268435456 8 40 0 4481 2751463424 0 0 0 2147483648 0 2147483776 1024 32768 0 1024 0 0 65 0 32 512 0 134348804 0 33554432 8388610 0 8464 512 8397824 1060864 0 1 1342177280 9437248 640 1024 1073742848 1343225856 1073741952 0 0 8388864 0 0 64 0 1073742337 0 262144 0 0 0 0 268435456 2097152 0 32768 33556480 0 2304 16384 0 0 0 0 4096 0 4 0 0 0 0 0 0 0 0 0 0 0 0 0 32 0 0 0 1610612736 0 0 0 0 0 0 0 0 1073741824 0 0 0 0 0 0 0 0 0 0 0 0 0 0 0 2097153 268435456 0 0 537395200 32 0 0 0 0 0 0 0 262144 0 0 0 0 0 0 0 0 0 1024 1 2097152 67108864 262144 0 536870912 0 0 0 557058 8388608 0 2048 2048 32 0 0 0 0 0 1048576 0 0 0 0 8388608 8 16777216 0 0 0 0 2176 24 0 0 0 0 0 536936704 8388640 0 268435616 75497472 67108868 268435712 134217728 0 0 0 320 0 524288 0 16908416 8192 0 1051716 257 0 0 0 0 2097152 0 0 0 0 0 0 0 0 0 0 0 0 0 0 0 0 0 0 0 0 0 32 0 0 0 0 0 0 0 0 0 0 65536 0 0 0 0 0 0 0 0 0 0 0 0 0 16777216 0 256 0 0 0 0 0 0 0 0 0 0 0 0 0 0 0 0 0 2048 0 0 0 0 0 0 0 0 0 0 0 0 0 0 0 0 0 0 0 0 131072 0 0 0 0 536870912 0 0 0 0 0 1073775104 16777232 260 3221225472 16908289 0 3440640 0 134217728 0 40960 270532608 0 0 0 512 0 536870912 256 0 276824080 0 0 38371468 0 65536 67108864 258
is_linear=0
shrinkage=0.05


Tree=12
num_leaves=31
num_cat=11
split_feature=3 0 2 11 1 12 9 2 2 10 11 6 2 0 2 2 11 11 11 11 2 1 0 2 4 11 7 15 11 15
split_gain=55176 6461.73 4895.5 1903.86 974.599 544.219 425.669 693.768 415.658 289.527 204.944 173.334 267.922 161.777 160.887 160.348 156.13 133.86 127.786 104.765 103.106 96.3969 93.3133 81.7173 80.9945 80.242 78.6992 74.1987 103.951 82.897
threshold=1.0000000180025095e-35 1050.0000000000002 1.5000000000000002 0 1 2643.0000000000005 0.26500000000000007 2.5000000000000004 4.5000000000000009 2 3 1.0000000180025095e-35 1.5000000000000002 1.0000000180025095e-35 2.5000000000000004 8.5000000000000018 4 5 6 7 11.500000000000002 8 1550.0000000000002 1.5000000000000002 1729582671.0000002 9 1461.5000000000002 732.00000000000011 10 25.500000000000004
decision_type=2 2 2 9 9 2 2 2 2 9 9 2 2 2 2 2 9 9 9 9 2 9 2 2 2 9 2 2 9 2
left_child=1 2 3 9 10 13 7 23 -7 26 -5 12 22 17 -13 -9 -16 -4 24 -20 -10 -18 -8 -3 -12 -21 -1 29 -29 -19
right_child=-2 6 5 4 -6 8 11 15 20 -11 18 14 -14 -15 16 -17 21 27 19 25 -22 -23 -24 -25 -26 -27 -28 28 -30 -31
leaf_value=-0.098191218238310687 0.052686213600395618 -0.093226467847355221 -0.024165958671815969 0.036329392716553659 -0.075764174392450451 -0.055162627093663409 0.036255965614934688 -0.030826139116171547 -0.012352094802060122 -0.059946991545080222 0.033658206788106777 -0.089940395236971241 -0.095860285268502279 -0.040262483138776027 -0.012640851963859563 0.025036927248060004 -0.022037952642211145 -0.044942944792765449 -0.024557688260622879 0.025068784045500128 0.03795159635468847 -0.079734900775309578 -0.035139247639871515 -0.063040103654635943 -0.031294964202965125 0.0059776733973670726 0.023782633075897494 -0.084508941890040462 -0.045809686438742142 -0.081235797091079753
leaf_weight=14.550392068922518 25740.889316104352 629.65162970870733 166.11401142179966 930.48456287756562 302.66312502324581 821.08252330124378 70.016341615468264 514.85705825686455 311.97349747642875 1339.4408937990665 742.33237068355083 5248.5366946011782 167.9487631469965 399.63072068244219 110.91608364880085 171.15997981280088 102.29455643892288 166.32409125566483 235.02021443843842 656.7101856097579 151.25156000629067 4100.607987433672 132.13931794092059 348.17043729126453 51.312427639961243 3303.9244816750288 145.11736488342285 372.25770716369152 539.61174233257771 2912.5793642997742
leaf_count=96 531994 2556 726 15731 1260 3951 920 3857 2866 6509 11902 21072 683 1950 484 2377 429 702 2099 9962 2147 16715 1262 1581 594 43735 2034 1575 2462 12004
internal_value=0.00122025 -0.0514367 -0.0280056 -0.0018789 0.0103273 -0.0625451 -0.0788404 -0.0554348 -0.0337975 -0.0522642 0.0148493 -0.0827612 -0.0491872 -0.0706479 -0.0840606 -0.0168884 -0.0769068 -0.0735691 0.0107787 0.00725358 0.00407299 -0.0783863 -0.0104116 -0.0824781 0.0290922 0.00919832 0.0119207 -0.0753761 -0.0630372 -0.0792752
internal_weight=50899.6 25158.7 13562.4 7721.56 6222.45 5840.83 11596.3 1663.84 1284.31 1499.11 5919.78 9932.46 370.104 4556.52 9562.36 686.017 4313.82 4156.89 4989.3 4195.65 463.225 4202.9 202.156 977.822 793.645 3960.63 159.668 3990.77 911.869 3078.9
internal_count=706235 174241 122305 93922 85283 28383 51936 10371 8964 8639 84023 41565 2865 19419 38700 6234 17628 17469 68292 55796 5013 17144 2182 4137 12496 53697 2130 16743 4037 12706
cat_boundaries=0 24 130 134 159 185 209 234 259 365 390 414
cat_threshold=687865860 16 524288 16 32 268435456 0 2147483648 5120 0 268566528 2359296 102769664 0 512 0 16384 134217728 268435712 33554496 1536 2147483648 0 4096 0 0 0 0 0 0 0 0 0 0 0 0 0 0 0 0 0 0 0 0 0 0 0 0 0 0 32 0 0 0 0 0 0 0 0 0 0 0 0 0 0 0 0 0 0 0 0 0 32768 0 0 16777216 0 524288 0 0 0 0 0 0 0 0 0 0 0 0 0 0 0 0 0 0 0 0 0 0 0 0 0 0 0 0 0 0 0 0 0 0 0 0 0 0 0 0 0 0 0 545259521 0 1024 0 0 1 0 50331904 260 335544320 8388608 541065224 4 3221225472 27394049 0 3440640 0 0 0 40960 270532640 0 33554432 0 0 0 536870912 256 0 8388624 0 0 38371464 0 65536 67108864 258 268435457 524288 0 2147483648 0 0 536871936 85984256 1024 768 0 0 8 40 0 1 335577088 0 0 0 268697600 0 2282225792 1024 0 16 1343225857 1073741952 0 0 256 0 65536 64 0 1073742337 4 1141129216 0 0 0 0 268435458 2097152 0 32768 33556480 0 2304 4341760 0 278528 0 2151677952 0 134217728 0 268500992 1078984714 2147483656 524288 0 66048 16 1073743872 16 268435456 34095104 0 0 270624 0 4 131072 1 0 0 541065216 64 32776 2359296 5120 0 4 262144 2168520752 33685633 0 32768 1024 0 0 536876034 0 0 0 48 128 1024 16777216 0 0 0 0 0 0 2147483652 0 0 0 0 0 0 0 0 0 0 0 0 0 32 0 0 0 1073741824 35651584 0 0 0 0 134217728 0 0 1073741824 0 0 0 0 0 0 0 0 0 0 0 0 1024 0 0 0 268435968 0 0 0 32 0 0 0 0 0 0 0 4194304 0 0 0 1073741824 0 0 536870912 0 0 0 0 0 67108864 262144 0 128 0 0 0 524290 8192 0 128 512 32 0 0 0 0 0 0 0 536870944 0 0 0 8 0 0 0 0 655360 2176 0 1073741888 0 1073741824 16 8388608 1 524288 8454144 1074266432 0 268435456 32 0 0 8388608 1140850688 0 0 0 2284847174 131072 8232 294912 512 0 8388612 0 262144 34 0 0 32768 1114112 0 0 0 65536 0 1073741824 0 0 8388608 0 0 1057540 0 4 2214592512
is_linear=0
shrinkage=0.05


Tree=13
num_leaves=31
num_cat=13
split_feature=3 0 2 11 1 12 4 2 2 10 11 1 1 6 2 2 11 2 11 14 0 11 0 11 0 11 4 11 15 11
split_gain=51045.6 5787.34 4332.61 1704.45 900.972 485.951 395.13 547.675 367.026 260.21 200.062 175.244 149.713 144.568 241.158 175.48 211.486 134.56 122.151 102.668 113.308 99.1709 95.8029 95.1941 88.2844 86.6433 76.2724 75.665 74.0987 74.7544
threshold=1.0000000180025095e-35 1050.0000000000002 1.5000000000000002 0 1 2643.0000000000005 1714401491.5000002 2.5000000000000004 5.5000000000000009 2 3 4 5 1.0000000180025095e-35 1.5000000000000002 1.5000000000000002 6 7.5000000000000009 7 195.50000000000003 1650.0000000000002 8 1.0000000180025095e-35 9 1550.0000000000002 10 1729582671.0000002 11 732.00000000000011 12
decision_type=2 2 2 9 9 2 2 2 2 9 9 9 9 2 2 2 9 2 9 2 2 9 2 9 2 9 2 9 2 9
left_child=1 2 3 9 10 12 11 -8 22 -1 -5 -3 -4 14 24 -15 -17 -9 26 -18 25 -14 -7 -20 -13 -21 -12 -25 29 -23
right_child=-2 6 5 4 -6 8 7 17 -10 -11 18 13 21 15 -16 16 19 -19 23 20 -22 28 -24 27 -26 -27 -28 -29 -30 -31
leaf_value=0.015732618553936508 0.052548352360927621 -0.017066472054752573 -0.0060212380258678443 0.036039710315356285 -0.074398838819805788 -0.054045335126019979 -0.076897076246858376 -0.027604772521010408 0.011497365556275379 -0.056253096392972102 0.03306078298667272 0.035514871762835312 -0.08899435614920162 -0.089212206273257044 -0.090801348230690082 -0.0099564460912133761 -0.081598168399255155 0.026093789992553313 0.024354141112598461 0.0061646370389636983 -0.073878986123804377 -0.02352940577059015 -0.005467871069335533 -0.024437565517239978 -0.034549153750702749 -0.054996208521497628 -0.028957182224035025 0.0054810734751739284 -0.050251291641351239 -0.069266405525352404
leaf_weight=139.77166877686977 24548.105838030577 139.40869610011578 114.63437142968178 880.10160801932216 292.38749727606773 826.55267158150673 778.91129852458835 430.16844256967306 356.23813803121448 1357.0472178012133 718.81055829674006 67.545243490487337 626.9012408182025 3361.8467819541693 179.20480977743864 138.64877030998468 3845.2358254045248 160.07522778958082 647.20855228602886 72.723581425845623 1921.7327308878303 129.01661840081215 115.70381253957748 215.74512967467308 134.46783700957894 412.05898793041706 53.248668260872364 3371.5003103092313 760.45951991528273 2976.7329016402364
leaf_count=1987 531994 575 576 15370 1202 3878 3319 3127 4336 6414 11855 913 2602 13498 726 633 15485 2445 10046 347 7864 570 750 1877 1247 1757 606 44565 3359 12312
internal_value=0.00122035 -0.0487321 -0.0265587 -0.00178701 0.00982833 -0.0587522 -0.0746006 -0.0493689 -0.0317353 -0.0494713 0.014131 -0.0779634 -0.0663657 -0.0787067 -0.0485783 -0.0799651 -0.0751004 -0.0130416 0.0102154 -0.076407 -0.0684298 -0.0677412 -0.0480803 0.00683794 -0.0111225 -0.0468286 0.0284154 0.00361877 -0.0640743 -0.0676652
internal_weight=49772.2 25224.1 13582.1 7675.82 6179 5906.24 11642 1369.15 1298.49 1496.82 5886.61 10272.9 4607.74 10133.5 381.218 9752.25 6390.4 590.244 5006.51 6251.75 2406.52 4493.11 942.256 4234.45 202.013 484.783 772.059 3587.25 3866.21 3105.75
internal_count=706235 174241 122305 93922 85521 28383 51936 8891 8964 8401 84319 43045 19419 42470 2886 39584 26086 5572 68949 25453 9968 18843 4628 56488 2160 2104 12461 46442 16241 12882
cat_boundaries=0 24 130 133 158 264 370 393 418 443 468 492 517 542
cat_threshold=687898624 16 524288 16 32 0 0 2147483648 5120 0 285343744 2359296 33563648 0 512 0 16384 134217728 268435712 33554500 1536 2147483648 128 4096 0 0 0 0 2097152 0 0 0 0 0 0 0 0 0 0 0 0 0 0 0 0 0 0 0 0 0 32 0 0 0 0 0 0 0 0 0 0 65536 0 0 0 0 0 0 0 0 0 0 32768 0 0 16777216 0 134742016 0 0 0 0 0 0 0 0 0 0 0 0 0 0 0 1 5 2048 0 0 0 0 0 0 0 0 0 0 0 0 0 0 0 0 0 0 0 0 0 0 0 0 0 545259521 0 1024 0 0 1 0 50331904 260 268435456 0 4194312 3221225472 19005441 0 3440640 0 0 0 40960 270532648 0 33554432 0 0 0 536870912 256 0 8388624 0 0 38371464 0 65536 67108864 258 0 0 0 0 0 0 0 0 0 0 0 0 0 0 0 2048 0 0 0 0 64 0 0 0 0 0 36 0 0 2048 0 0 268435456 0 0 0 0 256 0 0 0 0 0 0 0 0 0 0 0 0 0 0 131072 0 32 0 0 0 0 0 0 0 0 0 0 0 0 0 0 0 0 0 0 0 64 2147483648 0 0 134217856 0 0 0 524292 0 0 0 512 0 0 537137152 2 0 8192 0 0 805306400 0 0 0 10 0 1048576 0 0 8912896 2048 0 0 0 0 2097152 0 0 0 0 0 0 0 0 0 0 0 0 0 0 0 0 0 0 0 0 0 32 0 0 0 0 0 0 0 0 0 0 65536 0 0 0 0 0 0 0 0 0 0 0 0 0 16777216 0 256 0 0 0 0 0 0 0 0 0 0 0 0 0 0 0 0 0 2048 0 0 0 0 0 0 0 0 0 0 0 0 0 0 0 0 0 0 0 0 131072 0 0 0 0 536870912 0 0 0 0 0 1073775104 16 260 167789568 32 262144 2684354560 0 2 536870912 86114304 67109440 321 0 524288 0 32 0 136315009 538972160 16 0 0 0 0 524416 0 8667136 0 2151677952 0 134217728 0 268500992 1078984706 2147483656 524288 0 66048 16 1073743872 16 268435456 34095104 0 0 262432 0 4 163840 1 0 1048580 0 262144 2 0 0 537919488 9437184 6291460 0 0 1048580 64 0 4194304 8388609 536871046 0 0 9437444 1048576 32 0 16 0 1073742400 0 1073741824 0 8388608 0 524288 8454144 1074266432 0 268435456 32 0 2147483648 8388608 1140850688 64 0 0 2284855366 131072 8232 0 512 536870912 528 0 262144 0 0 0 0 539100160 0 0 0 32 0 0 512 0 0 0 0 134217752 0 2097152 8192 4 0 541065216 0 32776 2359296 5120 0 4 262144 4259888 33685633 0 1073782784 1152 64 0 536871936 0 0 0 48 0 1024 16777216 1343229952 1073741824 269485056 0 256 256 0 64 0 1073742337 0 0 262144 4 0 16 268435456 2048 0 2147516544 33556480 0 34816 16384 25165824
is_linear=0
shrinkage=0.05


Tree=14
num_leaves=31
num_cat=10
split_feature=3 0 2 11 1 12 9 2 2 10 11 6 2 2 11 0 11 2 11 2 2 1 11 4 0 0 11 6 4 15
split_gain=47307.2 5216.81 3848.49 1513.22 827.212 436.004 367.96 577.594 332.672 223.116 192.2 148.06 216.022 165.472 164.239 143.167 142.35 133.998 115.83 109.879 92.0438 90.2222 89.7845 80.1306 75.2452 74.9658 71.982 68.391 67.3622 66.165
threshold=1.0000000180025095e-35 1050.0000000000002 1.5000000000000002 0 1 2643.0000000000005 0.26500000000000007 2.5000000000000004 7.5000000000000009 2 3 1.0000000180025095e-35 1.5000000000000002 2.5000000000000004 4 1.0000000180025095e-35 5 5.5000000000000009 6 2.5000000000000004 1.5000000000000002 7 8 1737846973.0000002 1550.0000000000002 1.0000000180025095e-35 9 1.0000000180025095e-35 1522773497.5000002 7.5000000000000009
decision_type=2 2 2 9 9 2 2 2 2 9 9 2 2 2 9 2 9 2 9 2 2 9 9 2 2 2 9 2 2 2
left_child=1 2 3 9 10 15 7 20 19 -1 -5 12 24 -13 -15 16 -4 -9 23 -7 -3 -16 -20 -12 -8 -21 -24 -11 -19 -18
right_child=-2 6 5 4 -6 8 11 17 -10 27 18 13 -14 14 21 -17 29 28 22 25 -22 -23 26 -25 -26 -27 -28 -29 -30 -31
leaf_value=0.013736904261693939 0.052417895776456891 -0.085537819882351943 -0.020552484216976752 0.03586466023327628 -0.069044341518944646 -0.061532184806908523 0.034838527659246735 -0.032638660131270134 0.022783511404345654 -0.050077833758221772 0.031032231618181735 -0.081676308905853007 -0.085275968388670853 -0.010621661884807718 -0.017076428893223701 -0.034425556429897301 -0.012921015122154276 -0.055820422527320605 0.023702843417359898 -0.035567042894336119 -0.053851188233816842 -0.071447917290252516 -0.022075771196167833 -0.060295247883238534 -0.029975786214000474 0.014453752486675523 0.0054208649716888414 -0.092773711588981359 0.020587775383958961 -0.068196376607803227
leaf_weight=140.38508281856775 23407.527780793607 622.5444113984704 202.43583799898624 825.40055653825402 309.63972766697407 427.47815315425396 66.083993297070265 414.04347310960293 244.22134655714035 1255.8312324509025 738.31908558681607 5224.3961702436209 170.30433002114296 137.04365386068821 102.59441159665585 413.46118840575218 54.885471820831299 32.55588310956955 640.29643004760146 552.18332522362471 362.71107912063599 4127.4103087186813 246.54949095100164 24.825509756803513 138.89846557378769 86.658738814294338 3347.0203216522932 101.36262913048267 253.08910671621561 3977.0512337088585
leaf_count=1999 531994 2556 863 14922 1267 1831 920 2578 3331 5812 12389 21072 683 584 425 1950 238 162 10158 3081 1581 16619 2162 248 1262 721 44555 410 3494 16368
internal_value=0.00121803 -0.0462652 -0.0252155 -0.00170023 0.00932183 -0.0553265 -0.0708131 -0.0492029 -0.0298552 -0.0465828 0.0136006 -0.0744665 -0.0436578 -0.0756719 -0.0684888 -0.0625086 -0.0652507 -0.0144644 0.0098588 -0.0419111 -0.0738727 -0.0701726 0.00658558 0.0276983 -0.00908039 -0.0287817 0.00347834 -0.052877 0.0118793 -0.0672771
internal_weight=48647.2 25239.7 13588 7629.63 6132.05 5958.38 11651.7 1684.94 1310.54 1497.58 5822.41 9966.73 375.287 9591.44 4367.05 4647.83 4234.37 699.688 4997.01 1066.32 985.255 4230 4233.87 763.145 204.982 638.842 3593.57 1357.19 285.645 4031.94
internal_count=706235 174241 122305 93922 85701 28383 51936 10371 8964 8221 84434 41565 2865 38700 17628 19419 17469 6234 69512 5633 4137 17044 56875 12637 2182 3802 46717 6222 3656 16606
cat_boundaries=0 24 130 133 158 184 209 233 339 364 389
cat_threshold=687865856 16 524288 16 32 0 0 2147483648 5120 0 268566544 2097152 33555456 0 512 0 16384 134217728 268435712 33554500 1536 2147484672 128 4096 0 0 0 0 2097152 0 0 0 0 0 0 0 0 0 0 0 0 0 0 0 0 0 0 0 0 0 32 0 0 0 0 0 0 0 0 0 0 0 0 0 0 0 0 0 0 0 0 0 32768 0 0 16777216 0 524288 0 0 0 0 0 0 0 0 0 0 0 0 0 0 0 0 4 0 0 0 0 0 0 0 0 0 0 0 0 0 0 0 0 0 0 0 0 0 0 0 0 0 0 545259521 1073741824 1024 0 0 1 0 50331904 260 268435456 0 4194312 3221225472 19005441 0 3440640 0 0 0 40960 1344274472 0 33554432 0 0 0 536870912 256 0 8388624 0 0 38338696 0 65536 67108864 258 268435457 524289 0 2147483648 32 0 1024 18875392 536871936 768 0 0 8 40 0 1 335577088 0 0 0 1342439424 0 2282225792 1024 0 16 1343225857 1073741952 128 1048576 256 0 536936448 64 0 1073742337 4 67371008 0 0 0 0 268435458 2621440 0 32768 33556480 0 2304 4341760 2 0 8667136 0 2151677952 0 134217728 0 268500992 5242882 1073741832 524288 0 66048 16 1073743872 16 268435456 34095104 0 0 2392352 0 4 163840 0 0 0 0 0 0 2147483652 0 0 0 0 0 0 0 0 0 0 0 0 0 32 0 0 0 1610612736 33554432 0 0 0 0 134217728 0 0 1073741824 0 0 0 0 0 0 0 0 0 0 0 0 0 0 0 0 268435968 0 0 0 32 0 0 0 0 0 0 0 0 0 0 0 1073741824 0 0 536870912 0 0 0 0 0 67108864 262144 0 128 0 8 0 524290 8192 0 128 512 32 0 0 0 0 0 0 0 536870944 0 0 0 8 0 0 0 0 524288 2176 0 1073742400 0 1073741824 0 8388608 1 524289 8454144 2148008256 0 268435456 262144 0 2147483648 8388608 1140850688 0 0 0 135274566 131072 40 262144 513 4 536870912 541065216 0 524296 2097152 5120 2048 4 0 2168520800 570556544 1056768 32768 71304192 0 0 536870912 0 0 0 48 0 1024 16777216
is_linear=0
shrinkage=0.05


Tree=15
num_leaves=31
num_cat=12
split_feature=3 0 2 11 1 4 2 11 2 6 2 12 10 0 7 2 11 11 11 11 12 15 11 0 11 0 1 6 11 15
split_gain=43914.2 4732.16 3429.89 1354.98 755.139 397.139 344.977 718.382 217.96 205.344 193.23 242.235 191.801 184.836 183.097 179.578 160.479 139.539 110.946 110.082 81.1067 74.1302 71.8308 71.1769 71.1135 70.001 69.9363 68.5184 60.8623 58.4805
threshold=1.0000000180025095e-35 1050.0000000000002 1.5000000000000002 0 1 1720427265.0000002 4.5000000000000009 2 8.5000000000000018 1.0000000180025095e-35 1.5000000000000002 2643.0000000000005 3 1.0000000180025095e-35 1906.5000000000002 1.5000000000000002 4 5 6 7 2643.0000000000005 136.50000000000003 8 1.0000000180025095e-35 9 1850.0000000000002 10 1.0000000180025095e-35 11 786.50000000000011
decision_type=2 2 2 9 9 2 2 9 2 2 2 2 9 2 2 2 9 9 9 9 2 2 9 2 9 2 9 2 9 2
left_child=1 2 3 12 14 13 9 -8 23 15 -11 16 -1 19 17 25 -12 -5 -16 -4 -10 -15 -19 -7 -9 -3 -18 -14 -24 -21
right_child=-2 6 5 4 -6 8 7 24 20 10 11 -13 27 21 18 -17 26 22 -20 29 -22 -23 28 -25 -26 -27 -28 -29 -30 -31
leaf_value=0.013236635077143422 0.052294420836167255 0.021159811934442413 -0.01842726210874859 0.026922156291846317 -0.066923109604061545 -0.040983334619141276 0.01194639713442092 -0.020629264273112576 -0.053483218353698105 -0.082076554018954237 -0.0055655788189286496 -0.038209930820727371 -0.045979926194463026 -0.04730765860095415 -0.014300070663651479 -0.081883738180447946 -0.02383384753388279 0.021013579714973911 0.024060160211508131 -0.066778049685190341 0.032019625545139478 -0.0074909786018663967 0.019309166736786162 0.0052645209013740778 -0.0645850198523574 -0.034524781437748009 -0.074075066539793274 -0.088744994547644909 -0.0087395184512155076 -0.053287552998981448
leaf_weight=138.8247931227088 22317.175294138491 107.7323693819344 172.68257638812065 509.92909869924188 300.05294305086136 818.64501459896564 385.11434935033321 130.65335288643837 32.588587388396263 3799.6296528279781 104.10933312773705 634.53485333919525 1313.4974855259061 248.7785616517067 198.9721557572484 129.27001233398914 104.51469284296036 285.27380649000406 2859.9421453475952 3144.6480428799987 186.24331505596638 220.51384550705552 209.65247882157564 92.605818018317223 2136.8155119642615 118.53698838502169 3975.5577482432127 100.85501004755497 1664.1651478484273 1078.9638635218143
leaf_count=1999 531994 1423 737 8252 1221 4137 4288 537 143 15530 426 3248 6159 1131 2451 521 425 4131 46698 12697 2759 1220 2899 705 8651 866 16021 410 19702 4854
internal_value=0.00121554 -0.0440141 -0.023965 -0.00161577 0.00912978 -0.0522242 -0.0674265 -0.051585 -0.0255227 -0.0721091 -0.0736453 -0.0669972 -0.0431013 -0.0584259 0.0132234 -0.0348709 -0.0713628 0.00367636 0.0215969 -0.0616099 0.0192865 -0.0285984 -0.00192953 -0.0362834 -0.062154 -0.00801199 -0.0728495 -0.0486852 -0.00551544 -0.0631822
internal_weight=47520.5 25203.3 13576.8 7581.17 6027.99 5995.67 11626.5 2652.58 1130.08 8973.89 8618.35 4818.72 1553.18 4865.59 5727.93 355.539 4184.18 2669.02 3058.91 4396.29 218.832 469.292 2159.09 911.251 2267.47 226.269 4080.07 1414.35 1873.82 4223.61
internal_count=706235 174241 122305 93922 85354 28383 51936 13476 7744 38460 35650 20120 8568 20639 84133 2810 16872 34984 49149 18288 2902 2351 26732 4842 9188 2289 16446 6569 22601 17551
cat_boundaries=0 24 130 154 157 181 205 230 254 280 304 410 435
cat_threshold=687865856 16 524288 131088 32 0 0 0 5120 0 285343760 128 33555456 0 512 0 16384 134217730 268435712 33554496 1536 2147484672 128 4096 0 0 0 0 2097152 0 0 0 0 0 0 0 0 0 0 0 0 0 0 0 0 0 0 0 0 0 32 0 0 0 0 0 0 0 0 0 0 65536 0 0 0 0 0 0 0 0 0 0 32768 0 0 16777216 0 524288 0 0 0 0 0 0 0 0 0 0 0 0 0 0 0 1 5 2048 0 0 0 0 0 0 0 0 0 0 0 0 0 0 0 0 0 0 0 0 0 0 0 0 0 545259521 1073741824 1024 0 0 1 0 50331648 260 672137216 17 0 2147483648 37 0 0 19005440 33555456 512 0 268435456 8 8 2147483648 67108992 2214592512 524288 0 0 1536 0 8320 1024 268435456 0 4194312 17408 6815776 0 2684354561 0 2 0 19136512 1024 65537 524288 0 0 0 16384 4352 536870912 0 0 131072 4456448 0 262336 1074003968 8388608 1075839488 4096 3221225475 0 134217728 0 0 522 524296 33554432 16448 786432 0 2048 8388624 268435456 33554432 0 0 2147483906 1 17301504 131072 0 1049600 0 16777216 65 0 32 512 0 134348800 0 33554432 8388610 2 256 512 8389633 5255168 0 1 1342177280 9437248 512 1024 1073742848 3490709505 1073741952 128 0 256 0 536870912 64 0 1073742337 4 278528 0 4 262144 0 268435456 0 0 32768 33556480 0 2304 4341760 24 64 0 0 0 0 536936704 8388640 0 2415919232 67108864 4 268435712 134217728 0 0 425988 256 0 4718592 1048576 16908416 0 0 3072 257 268435456 71307264 2147483648 8421376 0 2147483648 512 1 0 403701760 134283328 0 128 0 285212672 4096 0 8208 1073741824 67108872 2415923208 0 0 25169920 0 0 524288 0 0 0 0 0 0 0 0 0 0 0 0 0 0 0 0 0 32 0 1024 16777216 1073741826 32 0 0 0 0 0 0 0 1 0 4194304 0 0 0 0 0 0 8388608 0 0 0 0 0 0 0 0 0 0 4096 32 0 0 0 0 4 0 0 0 2 0 1048576 0 0 0 4194304 64 0 0 0 0 0 262144 0 0 0 0 0 0 8192 0 0 2560 0 0 0 0 0 0 0 16384 536870944 0 0 0 8 0 2048 0 0 1074397184 2048 268435457 0 256 0 6 32768 2147483648 131074 1 33554464 8912896 67108864 16384 0 134283264 1024 128 64 1048576 0 16777216 33558528 1056768 0 1065060
is_linear=0
shrinkage=0.05


Tree=16
num_leaves=31
num_cat=10
split_feature=3 0 2 11 1 9 2 11 2 14 2 11 10 1 6 0 11 0 6 0 11 2 11 0 11 4 15 15 2 6
split_gain=40821.7 4317.13 3064.85 1224 680.383 364.341 332.865 319.876 315.254 193.853 296.795 179.591 172.163 166.532 164.015 150.541 122.453 112.051 109.875 152.418 103.882 87.5697 182.798 78.8703 78.4851 73.2359 70.5703 69.1182 66.6934 64.6992
threshold=1.0000000180025095e-35 1050.0000000000002 1.5000000000000002 0 1 0.19500000000000003 8.5000000000000018 2 3.5000000000000004 664.50000000000011 1.5000000000000002 3 4 5 1.0000000180025095e-35 1.0000000180025095e-35 6 1.0000000180025095e-35 1.0000000180025095e-35 1950.0000000000002 7 1.5000000000000002 8 1750.0000000000002 9 1729582671.0000002 13.500000000000002 234.50000000000003 11.500000000000002 1.0000000180025095e-35
decision_type=2 2 2 9 9 2 2 9 2 2 2 9 9 9 2 2 9 2 2 2 9 2 9 2 9 2 2 2 2 2
left_child=1 2 3 12 11 8 9 -8 -4 13 14 -5 -1 -3 -11 16 -7 28 19 -15 25 -20 -23 -12 -22 -13 -18 -17 -10 -14
right_child=-2 6 5 4 -6 15 7 -9 17 10 23 20 29 18 -16 27 26 -19 21 -21 24 22 -24 -25 -26 -27 -28 -29 -30 -31
leaf_value=0.012750250753909878 0.052177521086487155 -0.0070627610126251924 -0.051166693266928 0.034926841231851878 -0.063528323456387578 -0.016619697454413256 0.02310979299786442 -0.049918514484206769 -0.02173083519135079 0.010612029143972752 -0.01929389494278139 0.030979751173596994 -0.043531796990117361 -0.0022298459799451101 -0.083074997786560648 -0.041820786644203259 -0.019014319237472963 0.039197105463654014 -0.078825958761808368 -0.071230552799109295 0.02239041369921576 -0.007049338768933839 -0.069578094822740688 -0.046402648850708557 0.0031088295608401413 -0.030895420991237141 -0.06266459792141045 0.0016466541993161833 0.018556523535240576 -0.084781112724478691
leaf_weight=137.33472417294979 21275.114109948277 118.46116595715284 764.29246878623962 775.11610914766788 299.20112499594688 187.11009953916073 185.1449906155467 733.41640692204237 530.02891625463963 50.027535174041986 419.48805989325047 684.87516039609909 1313.3630931824446 136.90407604724169 705.69972209632397 296.09697143733501 94.924034148454666 116.93376039341092 3001.6623601764441 192.66229738295078 612.05677764490247 134.47321224212646 5150.0719868838787 744.49334739148617 3557.4658670648932 51.41234990209341 3774.1078169792891 132.32498195767403 127.42369998991489 102.4790938347578
leaf_count=1999 531994 484 3297 14703 1215 791 2432 2989 3605 450 2589 12271 6034 1482 2943 1332 392 1612 12420 971 10036 564 20819 3793 46657 586 15114 670 1570 421
internal_value=0.00121054 -0.0419399 -0.0227921 -0.00153407 0.0087521 -0.0493796 -0.0643704 -0.0354908 -0.0283856 -0.0668604 -0.0524742 0.0126639 -0.0409313 -0.0700223 -0.0768731 -0.0565827 -0.05956 -0.0059014 -0.0707976 -0.0425672 0.00908245 -0.0720058 -0.068132 -0.0366329 0.00598603 0.026302 -0.0614349 -0.0283952 -0.0139226 -0.0461912
internal_weight=46404.2 25129.1 13556.5 7533.3 5980.13 6023.24 11572.5 918.561 1538.68 10653.9 1919.71 5680.93 1553.18 8734.24 755.727 4484.56 4056.14 774.386 8615.77 329.566 4905.81 8286.21 5284.55 1163.98 4169.52 736.288 3869.03 428.422 657.453 1415.84
internal_count=706235 174241 122305 93922 85468 28383 51936 5421 10084 46515 9775 84253 8454 36740 3393 18299 16297 6787 36256 2453 69550 33803 21383 6382 56693 12857 15506 2002 5175 6455
cat_boundaries=0 24 130 153 178 181 287 313 337 360 385
cat_threshold=687865856 16 524288 16 2080 2097152 0 4194304 5120 0 268566544 0 102761472 0 512 0 16384 134217728 268435712 33554496 1536 2147484672 128 4096 0 0 0 0 2097152 0 0 0 0 0 0 0 0 0 0 0 0 0 0 0 0 0 0 0 0 0 32 0 0 0 0 0 0 0 0 0 0 65536 0 0 0 0 0 0 0 0 0 0 32768 0 0 16777216 0 134742016 0 0 0 0 0 0 0 0 0 0 0 0 0 0 0 0 0 2048 0 0 0 0 0 0 0 0 0 0 0 0 0 0 0 0 0 0 0 0 0 0 0 0 0 545259521 1073741824 1024 0 0 1 0 50331904 260 939524096 4718609 0 0 40 0 0 1073872896 5120 134217728 0 0 160 0 0 0 0 0 0 0 138413592 0 262144 2147483648 19005440 0 3440640 0 0 0 40960 1344274474 0 33554432 0 0 0 536870912 256 0 8912912 0 0 38338696 0 65536 67108864 258 268435456 0 4194312 0 0 0 0 0 0 0 0 0 0 0 0 0 0 0 0 0 0 0 0 0 0 8388608 0 0 0 32 0 0 0 0 0 268435456 0 0 0 0 0 0 0 0 0 0 32 0 0 1024 0 0 0 0 0 0 0 32 0 0 0 0 0 0 0 0 0 0 0 0 0 0 0 0 0 0 0 64 0 0 0 128 0 0 0 524292 0 0 0 512 0 0 4096 2 0 8192 0 2 805306400 0 0 0 8 0 1048576 0 0 1082654720 2048 1343225857 1073741952 0 1048576 256 0 536870912 0 0 1073742337 4 0 0 4 0 0 268435458 524288 0 32768 33556480 0 2304 21102592 0 256 1073741824 8667137 0 2151677952 0 134217728 0 268500992 5242880 1073741832 524288 0 66048 16 1073743872 16 268435456 33570816 0 0 2392352 0 4 163840 17408 6291488 0 2684354560 0 0 536870912 86376448 67108928 65 524288 16384 16 32 0 384 538972416 16 0 0 4194304 0 526464 0 1073741888 4096 1073741824 0 8388608 0 524289 65536 2148008256 0 268435456 262208 0 2147483648 8388608 67108864 64 0 0 2282758214 131072 8232 0 513
is_linear=0
shrinkage=0.05


Tree=17
num_leaves=31
num_cat=13
split_feature=3 0 2 7 1 9 2 11 11 2 6 2 12 2 11 11 0 11 11 0 11 11 11 10 1 6 14 11 0 2
split_gain=37991.8 3946.94 2748.69 1105.57 500.849 333.775 318.496 611.978 308.915 279.262 182.939 201.387 224.446 158.24 150.13 142.063 139.108 129.065 123.195 103.009 75.2249 75.0596 74.1876 69.6176 67.5846 64.4326 63.8224 61.647 60.043 59.8697
threshold=1.0000000180025095e-35 1050.0000000000002 1.5000000000000002 1378.0000000000002 0 0.19500000000000003 4.5000000000000009 1 2 3.5000000000000004 1.0000000180025095e-35 1.5000000000000002 2643.0000000000005 1.5000000000000002 3 4 1.0000000180025095e-35 5 6 1.0000000180025095e-35 7 8 9 10 11 1.0000000180025095e-35 161.50000000000003 12 1450.0000000000002 15.500000000000002
decision_type=2 2 2 2 9 2 2 9 9 2 2 2 2 2 9 9 2 9 9 2 9 9 9 9 9 2 2 9 2 2
left_child=1 2 3 8 14 9 10 -8 -1 -4 13 -12 15 28 -5 -13 17 -7 -16 29 -9 -19 -20 25 -17 -10 -18 -24 -3 -11
right_child=-2 6 5 4 -6 16 7 20 23 19 11 12 -14 -15 18 24 26 21 22 -21 -22 -23 27 -25 -26 -27 -28 -29 -30 -31
leaf_value=0.014677279483963079 0.05206681395942922 0.042408110512044649 -0.04805847594836523 0.033826892697160237 -0.064971025195740079 -0.015035624001641636 0.012371838938159511 -0.015731835691101221 -0.040581876511911891 -0.018674354123792852 -0.07636737731039013 -0.0045158419447988594 -0.033557582917420108 -0.075536252032012655 -0.02611988080509943 -0.012193413880580099 -0.037238055944764099 -0.077287753805811252 -0.014484505829154707 0.038473119585411553 -0.058569276982420537 -0.054935968669639706 -0.011085370653230382 -0.013999583232778929 -0.067561006758665151 -0.073808526895429258 0.0084361988916104563 0.015239453182224437 -0.019694384187453978 0.027608103686694193
leaf_weight=305.33269306644797 20279.457524076104 49.620834056288004 772.80718418955803 781.170454736799 200.91632516682148 204.89464929699898 383.49951223284006 136.0794395506382 1399.7153679132462 582.78959322720766 3688.8462878614664 107.52043110132217 651.89833749830723 128.6881877630949 215.17230908572674 75.828781500458717 332.74398095905781 598.82600277662277 243.28107851743698 113.27117106691003 2134.632196046412 3252.4522358477116 232.74402090162039 261.90658388286829 3964.1812774986029 162.88478709757328 99.311397984623909 3682.4748254194856 180.49854128435254 79.39262592792511
leaf_count=4553 531994 700 3297 15101 818 858 4286 556 7107 4186 15530 440 3248 521 1798 309 1483 2400 2953 1612 8634 13039 2987 2256 16123 676 519 55673 1589 989
internal_value=0.00120442 -0.0400155 -0.0217017 -0.00145801 0.0106595 -0.046805 -0.0615471 -0.0463563 -0.031929 -0.0267871 -0.0661045 -0.0675827 -0.0608308 -0.031134 0.0137067 -0.0651175 -0.0537105 -0.0565833 0.0100442 -0.00558827 -0.0560823 -0.0586026 0.0119735 -0.0395921 -0.0665545 -0.0437653 -0.0267395 0.0136503 -0.00630317 -0.0131253
internal_weight=45302.8 25023.4 13522.1 7485.6 5355.76 6036.49 11501.3 2654.21 2129.84 1548.26 8847.08 8488.28 4799.43 358.808 5154.84 4147.53 4488.23 4056.17 4373.67 775.453 2270.71 3851.28 4158.5 1824.51 4040.01 1562.6 432.055 3915.22 230.119 662.182
internal_count=706235 174241 122305 93922 79330 28383 51936 13476 14592 10084 38460 35650 20120 2810 78512 16872 18299 16297 63411 6787 9190 15439 61613 10039 16432 7783 2002 58660 2289 5175
cat_boundaries=0 106 130 156 181 205 230 254 278 303 328 331 437 462
cat_threshold=0 0 0 0 2097152 0 0 0 0 0 0 0 0 0 0 0 0 0 0 0 0 0 0 0 0 0 32 0 0 0 0 0 0 0 0 0 0 65536 0 0 0 0 0 0 0 0 0 0 0 0 0 0 0 134742016 0 0 0 0 0 0 0 0 0 0 0 0 0 0 0 0 0 2048 524288 0 0 0 0 0 0 0 0 0 0 0 0 0 0 0 8192 0 0 0 131072 0 0 0 0 536870912 524288 1024 1048576 0 3 512 50331648 260 672137216 17 0 2147483648 37 0 0 19005440 33555456 512 0 268435456 8 8 0 67108993 2214592512 0 0 0 2147485184 0 8320 1024 8390656 4 0 16777216 260 256 83886080 0 0 0 2056 8 540673 1073742728 268436480 0 0 0 1073741824 512 1048832 4096 1073758208 131072 16384 1 2147483648 19005440 0 3440640 32 0 0 40960 1344274472 0 33554432 0 0 0 536870912 256 0 8388624 0 0 38339720 0 65536 67108864 258 17408 6815776 0 2147483649 0 2 0 19136512 1024 65537 524288 0 0 0 16384 4352 536870912 0 2147483648 131072 4456448 0 2147745984 1074003968 1343225857 128 0 2148532224 256 0 536936704 64 0 1073742337 0 67108864 0 0 0 0 268435456 2621440 0 32768 33556480 0 256 4341760 2 536870912 16 0 16 557064 0 1024 0 4 280576 2168586336 33685504 0 1073741824 83886336 0 32 5120 0 268435456 4096 48 128 1024 268435456 71307776 2147483648 8421376 0 2147483648 512 1 0 403701760 134283328 0 128 0 0 4096 0 524288 1073741824 335544328 268439560 0 0 12587008 0 1048580 0 33816576 2 0 0 537919488 9502720 6291460 0 0 1114116 0 268435456 4194304 8389121 166 0 0 9437188 1048576 8388640 0 16 128 1048580 0 0 1 4194304 0 536871424 2147485696 134217728 0 0 8208 8256 9216 4194816 512 1049088 0 65537 1342177280 8388672 528 0 65664 268435456 82178 1677787136 0 0 524288 0 0 0 0 0 0 0 0 0 0 0 0 0 0 0 0 0 0 0 1024 0 1073741824 0 0 0 0 0 0 0 0 1 0 4194304 0 0 0 0 0 0 0 0 0 0 0 0 0 0 0 0 0 4096 32 0 0 0 0 0 0 0 0 2 0 0 0 0 0 0 0 0 0 0 0 0 262144 0 0 0 0 0 0 8192 0 0 2560 0 0 0 0 0 0 0 16384 536870944 0 0 0 8 0 2048 0 0 1074266112 2048 4194304 0 16777216 131072 576 16777216 16 16384 256 2098176 4096 0 8388608 536870912 262160 33554434 8389633 75776 0 2099200 8388608 0 131072 65536 1610612752
is_linear=0
shrinkage=0.05


Tree=18
num_leaves=31
num_cat=10
split_feature=3 0 2 11 1 4 2 9 6 2 11 11 0 7 11 2 1 11 2 0 4 12 11 6 11 1 13 2 12 2
split_gain=35403.5 3625.66 2471.2 1001.64 580.366 309.835 307.071 572.073 266.814 163.019 162.438 158.125 143.653 141.289 100.512 98.7451 95.507 93.9852 92.578 89.574 73.87 71.9868 70.2142 67.4551 63.3683 60.7291 66.2287 60.4988 58.7249 56.9541
threshold=1.0000000180025095e-35 1050.0000000000002 1.5000000000000002 0 1 1720427265.0000002 2.5000000000000004 0.19500000000000003 1.0000000180025095e-35 10.500000000000002 2 3 1.0000000180025095e-35 1676.5000000000002 4 1.5000000000000002 5 6 8.5000000000000018 1850.0000000000002 1729582671.0000002 2563.0000000000005 7 1.0000000180025095e-35 8 9 127.50000000000001 2.5000000000000004 2643.0000000000005 8.5000000000000018
decision_type=2 2 2 9 9 2 2 2 2 2 9 9 2 2 9 2 9 9 2 2 2 2 9 2 9 9 2 2 2 2
