tree
version=v4
num_class=1
num_tree_per_iteration=1
label_index=0
max_feature_idx=13
objective=binary sigmoid:1
feature_names=rating topics topicsSkill problem_ratingAvailable problem_topicsAvailable user_currentRating user_maxRating user_successRate user_strongTopics user_weakTopics user_easy user_medium user_hard user_ratingNotAvailable
feature_infos=[0:3500] -1:3352:3288:3291:3326:1685:3220:3314:3230:2888:3249:2278:3265:3332:1200:1955:2305:2238:3311:3239:1704:2323:2638:1687:0:2254:2961:3232:1698:1657:3362:149:1935:3269:3368:3133:1656:815:3155:2800:2240:2999:1706:2283:3254:1551:2595:2307:1875:3294:494:1354:3250:793:2829:2317:3353:2452:1668:2265:1592:1844:3178:2681:3039:2964:3127:2242:2972:3305:754:3244:1261:2319:2616:3147:1631:2759:1659:3214:1637:1122:2982:1733:2763:2599:780:3008:3111:2210:2679:3104:3272:2269:389:1366:1723:1675:3336:2314:1697:1689:769:542:3300:2737:3246:2478:2667:3233:1937:204:140:1331:2071:1341:3340:3019:3022:602:1715:3031:2644:3312:1465:805:3166:3015:832:1635:623:2224:2939:3148:1669:1567:3128:2912:998:2401:259:1878:2826:2006:2126:2987:3286:2603:2813:2256:796:2639:2652:395:1171:829:2017:2142:2842:3240:2959:1568:676:1720:798:911:3006:2525:3190:2289:3317:153:645:2965:837:1176:1601:3000:960:1519:1956:3112:806:1515:2746:1926:3268:100:838:1356:1511:65:836:1725:2264:1403:1752:322:3042:1664:3119:2626:2676:1367:1758:2246:2855:3199:3256:2208:396:2211:2290:3024:3284:3373:2832:3096:1374:1939:3224:3261:790:1048:1933:3274:1890:2237:685:716:2008:2261:2801:765:1880:2761:2996:2482:2859:2973:3025:759:797:987:1086:393:614:2188:2694:2978:3009:3074:641:785:381:1677:2496:618:1141:1359:1636:2402:2643:3005:139:1128:2266:2621:2731:1678:2112:2655:1732:2015:774:2727:2828:3003:3086:366:2991:3358:801:821:1372:640:876:1572:2236:2294:2547:194:1612:1694:2072:2192:3364:1711:2782:2815:3243:3141:3361:12:390:2247:2780:2809:154:1869:1929:1031:1574:2181:2321:2506:2720:3072:2128:2177:2592:2623:2680:3004:3235:3316:432:576:2143:3367:698:1474:1681:2091:2550:2600:2663:2803:2810:3229:102:731:1192:1362:2524:90:712:1333:1823:1985:2230:35:47:701:1609:1712:3180:3264:3315:488:1942:2447:2717:2928:1513:1576:2505:3062:52:1653:2450:2490:3193:165:622:714:822:825:849:1454:1831:205:1435:1599:2666:2767:3343:236:388:543:1318:2389:2789:158:474:919:1825:2263:3365:427:491:700:1337:1708:1952:2196:2391:2812:3030:3345:152:320:443:1046:1237:1794:2039:2382:2755:2830:2990:3204:3277:378:736:778:1035:1056:1205:1213:1230:1947:2605:2704:2788:43:551:1118:1475:1603:1691:1701:2426:2528:78:1142:1254:1467:1628:1919:1923:2092:2725:3301:10:36:686:1466:1482:1930:2180:2357:2594:2714:2849:3115:89:144:341:826:997:1485:2021:2099:2201:2285:2497:2543:2608:2664:2669:2773:2908:2923:251:583:590:631:1017:1342:1674:2012:2087:2625:3088:3098:116:727:823:853:1145:1928:1938:2031:2273:2730:151:479:1189:1449:1531:1633:1641:1893:2131:2718:2745:2816:2867:834:1589:1783:2061:2969:3045:3095:107:480:831:1226:1642:1650:1676:2028:2100:2404:2465:2485:2535:2647:2697:2807:3037:3044:3121:3295:3347:3372:67:83:225:344:367:760:871:989:1251:1313:1505:1508:1662:2493:2548:2611:3211:3275:3292:57:147:753:864:1154:1408:1587:1760:1997:2632:2636:2881:3058:3293:193:374:504:554:567:1350:1443:1571:1646:1696:2088:2136:2212:2284:2487:2779:2940:3036:3054:3069:3073:3252:29:338:472:571:743:892:1444:1619:2359:2374:2503:2551:2624:2861:2945:3053:3303:3327:339:365:481:636:1151:1175:1219:1518:1575:1671:1718:2009:2472:2570:2622:2696:2764:2854:3366:632:903:1393:1407:1569:1632:1703:1750:1977:2030:2250:2571:2629:2726:3151:3228:80:235:296:330:573:600:851:894:1476:1998:2308:2310:2577:2765:2948:3309:3371:28:38:779:981:1052:1598:1716:1721:1987:2686:2701:2710:3010:3117:3236:3258:161:417:468:517:560:635:1197:1417:1534:1751:1944:2016:2025:2032:2293:2336:2385:2521:2649:2827:2976:3279:3302:112:132:245:290:409:994:1032:1315:1345:1464:1724:1829:1850:1862:1951:2270:2358:2395:2620:2695:2733:3116:3125:3171:3200:3201:3333:363:377:562:682:768:1030:1156:1381:1557:1593:1860:2120:2508:2563:2671:2835:2941:2988:3089:3168:3225:133:269:291:333:415:451:496:523:1243:1323:1672:1884:2344:2369:2453:2523:2776:3048:3144:3346:218:487:612:628:644:646:792:817:1195:1415:1795:2431:2598:2785:3131:3207:123:359:370:386:604:946:993:1050:1352:1553:1663:1830:2027:2199:2579:2653:2784:2831:2925:3059:3245:471:515:516:627:677:757:835:1124:1131:1371:1453:1536:1613:1655:1738:1899:1931:2222:2296:2408:2715:2775:2821:2853:3065:3255:3318:3351:360:397:401:638:767:931:1037:1117:1119:1174:1259:1326:1327:1535:1541:1588:1734:1915:2055:2127:2157:2249:2337:2475:2760:2852:3170:3320:110:156:227:398:531:619:715:756:763:777:788:925:948:1019:1172:1253:1283:1301:1501:1590:1608:1814:1925:1932:2002:2132:2153:2423:2529:2590:2619:2768:2893:2992:3071:3113:3129:3142:3198:3218:3241:3306:3341:16:99:109:254:275:605:693:804:902:915:929:961:1106:1223:1357:1373:1540:1623:1731:1820:1917:1982:2063:2109:2259:2272:2532:2640:2708:2856:2957:3016:3049:3068:3263:1:49:177:221:321:392:400:434:446:563:575:728:755:813:872:939:1024:1062:1089:1235:1242:1321:1361:1418:1455:1559:1604:1638:1666:1864:2144:2315:2322:2324:2451:2488:2541:2635:2659:2673:2743:2834:2843:2845:2860:2866:2915:2963:3055:3150:3299:179:210:285:357:503:510:704:740:771:786:803:812:870:996:1000:1022:1143:1148:1204:1334:1427:1432:1549:1573:1640:1658:1707:1737:1764:1921:2057:2080:2124:2161:2183:2291:2371:2477:2499:2568:2613:2736:2919:2929:3029:3051:3061:3134:3159:3162:3192:3217:3337:64:113:176:230:347:384:419:460:508:637:695:703:705:708:709:776:787:859:880:924:962:986:1168:1286:1289:1298:1537:1682:1683:1710:1813:1871:1946:2044:2050:2105:2171:2174:2207:2251:2381:2494:2501:2706:2791:2808:2833:2868:2877:2892:2905:3103:3231:3289:79:108:238:242:380:449:467:478:552:559:616:617:639:651:694:770:789:833:893:947:1130:1135:1257:1309:1339:1457:1591:1739:1767:1900:1992:2042:2077:2086:2096:2189:2255:2279:2492:2498:2630:2674:2700:2709:2740:2778:2786:2839:2922:2926:3099:3221:3323:127:186:199:208:252:399:421:539:574:593:613:710:748:783:907:918:953:988:999:1051:1065:1073:1132:1155:1177:1258:1267:1268:1297:1303:1310:1395:1411:1429:1433:1479:1481:1554:1607:1625:1627:1670:1673:1679:1762:1846:2040:2053:2064:2116:2121:2147:2176:2258:2303:2311:2354:2388:2476:2483:2526:2617:2661:2677:2692:2698:2721:2797:2817:2836:2862:2890:2907:2920:2968:2970:2985:3002:3035:3139:3189:3226:3234:3253:3342:72:103:135:150:223:260:289:308:309:313:372:405:445:448:454:484:589:666:696:733:782:816:897:945:955:966:1006:1008:1053:1140:1182:1227:1255:1325:1340:1410:1416:1448:1483:1634:1645:1743:1802:1854:1870:1984:2082:2090:2137:2155:2156:2168:2172:2173:2220:2276:2299:2335:2380:2400:2449:2480:2646:2670:2678:2685:2732:2741:2742:2769:2771:2811:2872:2917:2944:3050:3202:3260:3307:50:125:203:263:268:276:348:349:356:477:569:621:660:752:800:867:869:899:950:1003:1029:1044:1094:1115:1173:1187:1188:1190:1196:1228:1256:1306:1348:1378:1390:1406:1434:1440:1468:1473:1484:1517:1521:1579:1596:1597:1614:1624:1647:1649:1700:1702:1748:1777:1800:1815:1882:1883:1896:1905:1909:1934:1960:1993:2019:2023:2079:2113:2193:2200:2216:2297:2300:2326:2356:2418:2481:2484:2504:2512:2534:2559:2703:2794:2858:3043:3056:3064:3078:3082:3106:3123:3174:3196:3210:3:141:157:159:163:166:224:292:315:353:354:358:369:425:450:457:465:483:513:550:595:603:607:652:669:689:691:699:725:738:772:794:889:974:1039:1066:1087:1093:1107:1208:1214:1218:1278:1302:1311:1314:1317:1338:1349:1355:1456:1460:1524:1525:1532:1565:1736:1761:1791:1895:1912:1958:1962:1989:2022:2046:2083:2097:2158:2185:2187:2202:2228:2245:2248:2262:2274:2298:2352:2366:2434:2468:2502:2511:2565:2576:2657:2683:2748:2751:2770:2787:2814:2820:2824:2891:2909:3001:3021:3041:3063:3067:3070:3136:3169:3208:3222:3266:3271:3335:3344:5:21:48:76:220:228:244:288:299:323:325:345:387:424:428:437:473:476:482:561:566:596:598:606:611:629:672:726:729:732:808:824:855:941:957:958:970:1016:1027:1100:1109:1215:1248:1316:1322:1336:1412:1430:1438:1510:1560:1584:1610:1626:1654:1746:1747:1790:1797:1801:1803:1818:1865:1879:1898:1927:1950:1963:1965:1994:2018:2026:2035:2060:2069:2089:2095:2133:2214:2241:2301:2312:2345:2398:2399:2415:2462:2489:2628:2648:2658:2689:2716:2774:2806:2844:2863:2894:2930:2975:2989:3020:3023:3034:3075:3149:3186:3227:3251:3334:128:173:175:191:215:270:272:286:306:312:343:404:444:463:509:518:524:525:533:541:643:658:662:690:722:761:781:795:932:954:971:977:1002:1040:1042:1068:1149:1157:1167:1169:1216:1276:1285:1344:1363:1379:1398:1413:1446:1461:1469:1470:1488:1496:1498:1499:1514:1606:1643:1667:1684:1695:1949:1969:1975:1991:2003:2004:2013:2020:2058:2098:2151:2165:2206:2217:2223:2243:2257:2282:2304:2339:2348:2353:2376:2393:2413:2424:2441:2509:2597:2641:2651:2672:2684:2687:2691:2702:2734:2752:2766:2840:2897:2910:2997:3028:3107:3138:3188:3209:3282:3328:3348:9:27:40:77:115:180:202:232:240:247:256:271:277:284:301:310:337:402:420:429:430:433:438:439:453:507:521:535:540:546:568:609:610:625:633:655:667:692:713:718:799:863:878:891:896:940:952:972:1005:1018:1038:1063:1069:1078:1079:1088:1101:1146:1147:1181:1199:1221:1225:1250:1300:1305:1307:1312:1335:1360:1370:1388:1420:1421:1423:1441:1459:1462:1489:1500:1512:1644:1699:1784:1787:1788:1789:1827:1916:1918:1941:1943:1966:1974:1983:1990:1995:2011:2024:2036:2074:2078:2106:2148:2152:2170:2232:2239:2271:2288:2295:2306:2318:2360:2372:2396:2414:2438:2439:2456:2473:2486:2515:2518:2544:2546:2582:2586:2606:2656:2758:2762:2781:2847:2883:2889:2895:2913:2983:2993:2995:3057:3060:3137:3146:3173:3184:3191:3242:3283:3287:3296:3363:11:82:92:178:181:209:219:237:255:262:274:279:283:287:295:346:351:364:383:414:441:455:475:493:499:501:511:536:564:572:580:582:649:650:653:663:673:745:746:749:758:766:775:784:802:818:819:845:860:861:862:873:906:917:922:934:943:965:991:1014:1067:1071:1075:1098:1102:1103:1108:1110:1133:1166:1183:1184:1202:1222:1233:1236:1246:1271:1274:1291:1292:1319:1343:1380:1383:1385:1400:1447:1451:1478:1486:1538:1547:1552:1561:1578:1611:1615:1665:1690:1692:1705:1729:1742:1754:1759:1766:1819:1835:1872:1881:1885:1906:1968:1976:1978:1996:1999:2000:2007:2014:2029:2038:2054:2059:2107:2115:2130:2134:2162:2221:2253:2275:2346:2375:2432:2436:2442:2474:2533:2537:2607:2612:2705:2728:2749:2799:2819:2838:2864:2902:2903:2918:2932:2947:2967:3017:3052:3077:3085:3093:3118:3163:3177:3182:3183:3185:3197:3262:3270:3278:3319:3325:3330:3331:3338:62:104:162:190:248:280:303:316:332:340:342:418:422:458:466:469:486:497:527:530:537:555:558:624:661:664:671:678:683:687:707:717:719:721:730:741:811:846:856:904:908:935:959:964:980:990:1012:1013:1025:1028:1049:1057:1090:1092:1125:1150:1158:1185:1194:1231:1239:1241:1244:1249:1265:1277:1281:1284:1293:1320:1364:1376:1391:1402:1419:1426:1442:1452:1491:1495:1502:1520:1522:1577:1580:1581:1652:1680:1713:1722:1773:1780:1808:1826:1832:1842:1874:1913:1920:1948:1959:1979:2010:2093:2160:2175:2186:2190:2195:2197:2205:2209:2227:2234:2252:2268:2292:2325:2349:2362:2364:2370:2383:2384:2392:2409:2410:2422:2430:2466:2469:2517:2530:2539:2566:2573:2583:2587:2602:2604:2627:2642:2654:2668:2699:2711:2750:2777:2818:2848:2904:2934:2935:2936:2937:2943:2946:2958:3007:3033:3038:3040:3047:3066:3097:3143:3158:3164:3194:3216:3238:3247:3267:3359:3360:2:6:53:55:81:85:106:129:155:168:169:171:172:189:195:197:206:214:216:217:233:246:265:267:273:293:294:298:304:318:326:327:362:368:371:379:406:416:431:492:502:512:526:544:548:549:556:557:565:579:608:630:642:684:739 [0:31391] [0:1] [0:1] [0:3569] [0:3690] [0.070000000000000007:1] -1:49:41:55:29:95:54:94:50:24:47:68:48:27:71:93:87:37:34:28:98:42:81:39:30:64:86:15:13:38:84:51:31:89:33:36:74:67:19:17:16:22:53:73:23:40:18:75:91:25:10:83:11:14:45:79:99:69:65:76:70:60:85:77:35:12:59:100:56:82:90:46:72:97:1:4:43:52:32:57:63:80:88:9:21:78 -1:650:649:660:134:35:267:651:644:668:51:654:658:115:287:130:643:114:656:280:661:240:647:32:664:31:238:127:391:542:645:285:274:39:250:117:47:128:659:278:286:717:707:390:646:564:54:532:543:112:300:570:273:277:763:56:568:49:276:308:567:46:33:133:301:36:552:320:316:119:478:255:675:393:121:573:247:310:184:253:488:269:775:565:672:489:553:486:311:753:55:188:239:113:648:406:550:768:57:307:290:386:192:779:272:662:394:670:296:42:523:490:456:131:726:118:731:750:312:674:122:657:409:50:245:53:120:719:243:546:693:34:557:421:761:770:289:388:769:395:405:407:549:663:540:762:766:513:759:111:266:58:241:294:618:249:547:776:479:387:774:671:185:625:187:631:45:626:642:201:511:259:52:710:652:48:30:411:536:669:667:385:714:665:423:773:41:777:309:563:653:381:304:473:666:268:544:402:59:306:398:295:729:752:485:730:460:628:560:728:403:736:254:725:28:562:129:265:559:379:629:401:415:475:551:38:548:574:706:408:270:572:545:246:477:764:262:531:244:258:756:334:298:727:124:636:291:37:236:319:724:261:292:637:722:487:514:569:609:14:527:538:21:116:541:780:627:297:718:23:771:510:624:517:713:755:132:293:202:418:772:778:242:607:721:40:354:555:98:673:284:410:340:420:193:515:571:29:528:417:126:225:264:43:708:453:613:392:412:505:751:288:317:22:454:789:399:493:747:90:44:123:404:476:765:716:378:767:529:640:760:302:502:351:754:566:491:416:508:698:203:539:615:384:474:318:189:655:263:614:639:458:723:413:683:279:327:186:333:522:283:720:350:503:606:96:222:422:516:748:260:680:281:346:507:1:195:226:467:191:480:512:556:251:484:611:638:76:554:525:345:227:688:689:271:326:464:472:623:711:12:370:337:679:20:400:389:414:463:588:791:196:353:5:504:558:303:380:530:344:10:465:228:359:617:621:383:190:520:622:735:252:481:635:732:16:179:256:329:24:526:712:733:93:230:197:26:695:81:612:101:634:136:299:314:610:794:144:459:630:678:181:561:616:367:681:77:19:305:335:519:79:248:75:322:533:86:224:521:696:697:13:237:457:509:80:85:690:25:82:325:382:757:788:15:88:282:709:426:524:257:535:749:795:363:758:338:447:229:419:452:534:234:355:602:801:233:315:455:809:97:518:537:73:608:790:9:336:444:694:620:686:691:352:448:87:137:396:449:138:148:182:200:231:339:501:94:313:432:450:792:70:140:741:141:223:687:95:205:343:371:462:72:147:275:324:84:347:321:482:633:194:424:89:342:356:632:685:783:471:11:125:430:492:785:180:183:341:734:63:149:328:360:372:3:91:332:468:805:4:220:358:692:146:461:506:103:173:425:601:684:135:199:349:361:375:677:715:585:787:793:100:209:219:429:445:799:796:139:377:583:8:368:578:348:682:811:217:427:806:162:235:330:782:83:784:92:143:64:78:168:198:591:597:66:152:169:798:161:176:365:374:737:373:232:433:446:704:2:323:605:808:62:204:619:703:746:142:366:451:357:397:145 [0:3233] [0:1821] [0:3789] [1:7908]
tree_sizes=4241 4630 5147 5359 5250 5522 5753 5706 5755 5905 5970 5854 6071 6002 6211 5522 5806 6036 6246 5892 5974 6649 6158 6048 6351 6544 6937 6975 6659 6564 6527 7048 6744 6737 7020 7177 6990 7161 7253 7447 6996 7237 7327 7048 7687 7395 7658 7531 7733 7733 7664 7990 7585 8459 7493 8075 8064 6813 8213 8447 8072 8468 8363 8111 8354 8417 9036 8595 8679 9114 8239 7842 8603 8733 7902 9550 8503 9284 7914 9374 8188 8816 8810 8350 8066 7271 7737 8659 8257 8178 8600 7842 7482 8000 8037 8497 8248 7905 7139 8398

Tree=0
num_leaves=31
num_cat=8
split_feature=2 4 7 9 0 0 0 13 8 9 0 9 9 0 13 7 0 9 5 9 0 11 12 0 11 5 9 5 12 0
split_gain=221115 134758 25155.2 9169.71 2997.98 2580.46 2541.66 2135.16 1807.97 1375.61 1093.32 745.26 673.757 567.735 507.603 462.812 406.376 377.358 368.243 366.947 363.261 400.459 340.355 294.21 270.185 229.197 215.606 207.05 195.668 190.636
threshold=1.0000000180025095e-35 1.0000000180025095e-35 0.19500000000000003 0 1050.0000000000002 1850.0000000000002 1950.0000000000002 268.00000000000006 1 2 1.0000000180025095e-35 3 4 3150.0000000000005 35.500000000000007 0.32500000000000007 1250.0000000000002 5 1255.0000000000002 6 1450.0000000000002 649.50000000000011 232.50000000000003 1.0000000180025095e-35 605.50000000000011 1843.5000000000002 7 1.0000000180025095e-35 298.50000000000006 2250.0000000000005
decision_type=2 2 2 9 2 2 2 2 9 9 2 9 9 2 2 2 2 9 2 9 2 2 2 2 2 2 9 2 2 2
left_child=1 3 5 8 10 16 7 11 -1 -9 -4 -5 -11 22 -13 -10 23 -16 27 -14 21 25 -8 -3 -20 -6 -19 -12 -22 -7
right_child=-2 2 4 6 20 29 13 9 15 12 18 14 19 -15 17 -17 -18 26 24 -21 28 -23 -24 -25 -26 -27 -28 -29 -30 -31
leaf_value=2.2576444457856031 2.332583827985216 1.860126203375106 1.7797367300967446 2.1070225949022592 1.8208808894346677 2.0347120055675338 1.9149859523484287 2.1880619827789811 2.0735196041760284 2.2995497008437775 2.1623345911092713 2.1339263491792329 2.2209174491613499 1.7643752220375135 2.2959482706217567 2.1397981986630121 2.1323503609462553 2.166210253082995 2.0286850683466509 2.2605871579307748 1.7954333289805537 2.115376036930698 2.128680301264017 2.2191804068837713 2.2767479268949304 1.8902961279529995 2.2175510044662659 1.8940361276690298 1.8252356611634575 1.9617510078413964
leaf_weight=193.51478911936283 44877.378693446517 5.8206279203295699 65.20790409296751 209.45824820548296 415.96400398761034 198.40749084949493 29.69363808631897 695.43850108981133 1197.1934992074966 990.51902957260609 7.9295510798692694 215.19451919943094 700.16248896718025 22.438942417502403 136.06772225350142 337.68077630549669 350.84045682102442 275.50972156226635 192.3337921500206 3478.3735024183989 1944.427153095603 13.581465147435663 50.023657344281673 287.91018974035978 11.64125584065914 166.52057267725468 1497.8415848314762 77.186587639153004 768.40724240988493 163.14629562199116
leaf_count=2294 531994 69 773 2483 4931 2352 352 8244 14192 11742 94 2551 8300 266 1613 4003 4159 3266 2280 41234 23050 161 593 3413 138 1974 17756 915 9109 1934
internal_value=2.27746 2.10914 1.88726 2.21244 1.82644 2.10871 2.23446 2.23749 2.10795 2.25359 1.96467 2.19705 2.26261 1.98655 2.20706 2.08933 2.16868 2.21493 2.00639 2.25382 1.81164 1.84698 2.04908 2.21207 2.04284 1.84073 2.209 1.91903 1.80387 2.00179
internal_weight=59575.8 14698.4 4669.32 10029.1 3663.2 1006.13 8300.72 8198.57 1728.39 5864.49 354.299 2334.07 5169.06 102.156 2124.61 1534.87 644.571 1909.42 289.091 4178.54 3308.9 596.066 79.7173 293.731 203.975 582.485 1773.35 85.1161 2712.83 361.554
internal_count=706235 174241 55352 118889 43425 11927 98400 97189 20489 69520 4200 27669 61276 1211 25186 18195 7641 22635 3427 49534 39225 7066 945 3482 2418 6905 21022 1009 32159 4286
cat_boundaries=0 25 28 53 78 103 129 154 178
cat_threshold=1342177288 32 16384 67108864 80 0 0 1075838976 2048 12599296 0 262400 73416712 0 8388608 8388608 268435456 1073741828 0 0 3072 2097152 16777216 268435456 32 671088640 0 77594640 0 2097160 0 0 0 0 0 16 262688 8 0 0 16777347 128 536870944 2147484672 17825792 8397072 0 537657344 1090519040 0 263168 1073872896 256 0 0 1073741824 262176 1114112 37748992 2048 33558528 8 4 1074004032 0 2147483648 4 135266568 0 33792 8 0 67108864 8 2147483712 1 2 131072 0 38010881 0 6619136 0 268435456 0 147456 2151678020 2147483664 68157440 0 1024 0 0 32 536870912 32800 0 0 72876480 0 0 0 4 16384 2147483648 8192 2 8 2684354560 0 16777217 34111506 67108864 134217728 268435456 536870912 0 0 16777217 0 33554433 2097152 0 285212672 8194 536903680 0 4227072 2 0 16384 67371008 268435460 0 134217728 1 67108928 16777216 536879108 8192 0 528 0 0 1073741824 2050 537198656 0 0 32 0 34603008 65536 2103361 4194304 8405504 0 34603137 256 0 8192 0 1 528416 49152 517 0 0 33556480 128 0 2100224 0 11 0 288 134217728 131072
is_linear=0
shrinkage=1


Tree=1
num_leaves=31
num_cat=10
split_feature=2 4 7 9 13 0 8 0 9 0 9 9 13 9 9 0 0 0 0 7 0 5 0 9 12 0 9 9 5 5
split_gain=180033 71085.8 9667.24 6553.9 1806.3 1502.91 1198.92 1146.7 1092.45 995.92 606.828 545.422 386.555 365.188 298.282 288.834 282.875 338.27 257.106 241.035 206.806 169.838 167.579 161.209 151.011 130.37 122.686 120.838 113.678 111.991
threshold=1.0000000180025095e-35 1.0000000180025095e-35 0.21500000000000002 0 268.00000000000006 1750.0000000000002 1 1950.0000000000002 2 1150.0000000000002 3 4 35.500000000000007 5 6 1950.0000000000002 1.0000000180025095e-35 850.00000000000011 2950.0000000000005 0.32500000000000007 1250.0000000000002 1751.5000000000002 1.0000000180025095e-35 7 664.50000000000011 2150.0000000000005 8 9 1576.5000000000002 1255.0000000000002
decision_type=2 2 2 9 2 2 9 2 9 2 9 9 2 9 9 2 2 2 2 2 2 2 2 9 2 2 9 9 2 2
left_child=1 3 5 6 11 20 -1 8 -6 16 -10 -5 -13 -14 -12 21 -4 29 -9 -8 22 26 -3 -16 28 -7 -15 -23 -19 -18
right_child=-2 2 9 4 7 25 19 18 10 -11 14 12 13 15 23 -17 17 24 -20 -21 -22 27 -24 -25 -26 -27 -28 -29 -30 -31
leaf_value=-0.018576020699813942 0.054852233753816308 -0.28418187691727187 -0.31918044715461158 -0.14560715380048825 -0.078237405797402224 -0.1776895049064906 -0.16420278608231798 -0.14201251821918043 0.020697017572195067 -0.30733328577374275 -0.051669716221504285 -0.12554442162220225 0.015212076997609018 -0.021028090171734119 -0.034211698357889612 -0.21928044962629284 -0.22126016393935313 -0.28118049178370658 -0.32382348332482813 -0.11857790990362847 -0.11576151554539438 -0.07938341083087086 -0.05291871944254653 -0.009667915548624624 -0.065600656466194188 -0.22792881901528231 -0.08575175754735534 -0.036937485409616527 -0.22523348089805584 -0.13058069716138096
leaf_weight=196.65431679785252 42897.286654978991 8.0417699664831144 95.467714980244637 249.62507630139589 745.69753620773554 257.81833989173174 1405.3262369334698 53.711615204811096 1018.2154901176691 4562.397394195199 709.15109626203775 246.81892548501492 155.32671445608139 107.80948500335217 905.61226485669613 30.048657529056072 52.224565848708153 203.74606163799763 30.479771941900253 364.57600060850382 330.2410596460104 250.88248890638351 302.24383479356766 2597.1295398250222 10.688902527093886 258.70820800215006 771.11182537674904 741.21210959553719 163.78096182644367 97.836010105907917
leaf_count=2294 531994 69 773 2589 8211 2570 14178 546 12264 37754 8054 2595 1840 1226 10551 284 470 1812 249 3877 3484 2786 3417 30377 113 2417 8607 8361 1505 968
internal_value=0.000371587 -0.137732 -0.270076 -0.0583812 -0.0394081 -0.139395 -0.140562 -0.0245923 -0.0220106 -0.299232 -0.0138179 -0.0747329 -0.0661321 -0.0593227 -0.0221911 -0.0651499 -0.239973 -0.225659 -0.207833 -0.153935 -0.0882225 -0.0630228 -0.0589124 -0.0160929 -0.250861 -0.202852 -0.0790276 -0.0488438 -0.256249 -0.162139
internal_weight=59819.9 16922.6 6343.19 10579.4 8612.83 1157.05 1966.56 6060 5975.81 5186.14 5230.11 2552.84 2303.21 2056.39 4211.89 1901.06 623.744 528.277 84.1914 1769.9 640.527 1871.02 310.286 3502.74 378.216 516.527 878.921 992.095 367.527 150.061
internal_count=706235 174241 55352 118889 98540 11957 20349 70252 69457 43395 61246 28288 25699 23104 48982 21264 5641 4868 795 18055 6970 20980 3486 40928 3430 4987 9833 11147 3317 1438
cat_boundaries=0 25 28 53 78 102 128 153 178 204 229
cat_threshold=1342177288 32 16384 67108864 80 0 0 1075838976 2560 8388608 0 262400 73416712 0 545259520 8388608 268435456 1073741828 0 0 3072 2097152 16777216 268435456 32 671088640 0 77594640 0 2097160 0 0 0 0 0 16 262176 16392 0 0 16777347 128 32 2147484672 17825792 8397072 0 537657344 1090519040 0 263168 1073872896 2304 0 38535169 0 6619136 0 268435456 0 147456 2151678020 2147483664 67108864 0 1024 0 0 32 536870912 32800 0 0 72876480 0 0 0 4 0 65536 1073741824 262176 1114112 37748992 2048 33558528 8 4194340 1074004032 0 2147483648 0 135266568 0 33792 0 0 67108864 8 2147483648 1 4098 0 2147487744 8192 2 8 2684354560 1 16777217 34112530 67108864 134217728 0 0 0 0 16777217 0 33554433 2097152 0 285212672 2 536903680 0 4227200 2 0 16384 67371008 268435460 0 134217728 1 67108928 16777216 536879364 8192 0 528 0 64 1073741824 2050 537199104 0 0 32 0 34603008 65536 2101312 0 132 0 131072 0 0 0 524290 1075904512 5312512 0 1073741824 64 0 0 0 2214658080 16777280 1073741824 2097152 304349184 8 71303232 536870912 1 17842182 0 0 1073741824 512 0 1073741824 640 0 2048 65552 1073741952 536875012 268435456 131136 0 1074790400 0 0 0 0 67264512 0 0 134217728 64 71303168 8915712 0 34603008 0 0 0 0 0 64 32776 0 0 12 16896 8192 540674 2113536 0 2 0 0 142606336 32800 2048
is_linear=0
shrinkage=0.05


Tree=2
num_leaves=31
num_cat=12
split_feature=2 4 5 9 12 0 0 8 9 9 13 0 9 9 1 0 9 7 0 9 1 10 9 0 0 9 13 7 0 0
split_gain=152611 45601.9 5418.84 4939.71 1396.11 1004.44 895.651 885.785 689.577 567.486 512.728 466.849 395.794 346.535 269.379 238.894 238.71 163.134 156.936 161.558 153.072 151.538 146.242 146.133 142.758 141.089 147.358 140.826 114.098 112.089
threshold=1.0000000180025095e-35 1.0000000180025095e-35 1.0000000180025095e-35 0 144.50000000000003 1550.0000000000002 2250.0000000000005 1 2 3 184.50000000000003 1050.0000000000002 4 5 6 1850.0000000000002 7 0.26500000000000007 1950.0000000000002 8 9 2915.0000000000005 10 2150.0000000000005 950.00000000000011 11 40.500000000000007 0.50500000000000012 2950.0000000000005 1.0000000180025095e-35
decision_type=2 2 2 9 2 2 2 9 9 9 2 2 9 9 9 2 9 2 2 9 9 2 9 2 2 9 2 2 2 2
left_child=1 3 5 7 9 20 8 -1 -6 -5 15 14 -10 -12 -4 16 -11 -13 19 -15 24 29 -14 -7 -3 -18 -27 -9 -8 -16
right_child=-2 2 11 4 6 23 28 27 12 10 13 17 22 18 21 -17 25 -19 -20 -21 -22 -23 -24 -25 -26 26 -28 -29 -30 -31
leaf_value=-0.016390230508560904 0.054593247608632801 -0.052102566595331738 -0.029714699460165389 0.019264048699634526 -0.062849110636984659 -0.1370392656528496 -0.12679033758421354 -0.13442954575681146 0.020345309804536558 -0.14131367776496656 -0.010662395792426699 -0.1778433691858432 -0.036624369405032012 -0.081851520277218731 -0.24536887637500571 -0.25129268672666488 -0.0047323893206514742 -0.23567544860110098 -0.24386870968494892 -0.046947141264590632 -0.035612278527855472 0.0023045574498962249 -0.01157216412156992 -0.18268640376691458 -0.12825440344981198 -0.11418408144443355 -0.070336250865358121 -0.038378192750725279 -0.24483416133157548 -0.18910926418324839
leaf_weight=198.50071477144957 40993.839990645647 104.17607162892818 44.239825360476971 217.54803972691298 693.3007896989584 435.62063897401094 42.658461764454842 1892.0436701998115 882.41702497750521 188.02926132082939 472.95616123080254 124.594517596066 742.8788415491581 563.03154734522104 117.28129068017006 22.25180096924305 78.675603196024895 5723.5301019996405 11.542147994041441 1189.8381880223751 283.59895820915699 9.1692680418491346 2754.4172915071249 293.43803751468658 150.3831782117486 252.34933849424124 796.06440829485655 38.946188949048519 39.357178673148155 361.18681842088699
leaf_count=2281 531994 1113 360 2607 7296 3911 389 17105 10746 1806 5395 941 8341 5683 768 177 866 38532 88 12911 2860 92 31671 2316 1534 2451 8435 377 264 2925
internal_value=0.000573671 -0.117695 -0.211606 -0.0528607 -0.0364249 -0.117166 -0.0195254 -0.121178 -0.0168754 -0.0594932 -0.0641605 -0.230364 -0.00943285 -0.0496998 -0.185516 -0.0888326 -0.0860838 -0.234443 -0.0597647 -0.0588934 -0.0653542 -0.195041 -0.0169829 -0.155412 -0.0934201 -0.0749511 -0.080126 -0.13181 -0.183437 -0.2029
internal_weight=59717.9 18724 7647.22 11076.8 8947.32 1267.22 5155.03 2129.49 5073.01 3792.29 3574.74 6380 4379.71 2237.37 531.877 1337.37 1315.12 5848.12 1764.41 1752.87 538.158 487.637 3497.3 729.059 254.559 1127.09 1048.41 1930.99 82.0156 478.468
internal_count=706235 174241 55352 118889 99126 11734 58707 19763 58054 40419 37812 43618 50758 24077 4145 13735 13558 39473 18682 18594 5507 3785 40012 6227 2647 11752 10886 17482 653 3693
cat_boundaries=0 25 28 53 79 104 130 236 261 286 391 416 442
cat_threshold=1342177288 65568 16384 67108864 80 0 0 1075838992 2048 0 0 262400 73416712 0 8388608 8388608 16777216 1073741828 0 0 3072 2097152 16777217 268435456 32 671088640 0 10485776 4194304 10502664 0 0 0 0 0 1048576 17039360 532484 262144 0 16777219 4 0 9216 1048576 2367760 0 0 1090519072 0 1049600 131072 8 16384 2181038080 8192 2 8 2684354560 2147483648 17825793 33555478 67108864 202375168 134217728 0 0 0 16781313 0 0 2097152 0 0 2 32768 0 4194304 2080 0 4456449 0 6356992 0 0 0 147456 2151677952 2147483664 0 0 1152 0 0 32 536870912 33587233 0 0 72876352 0 131072 67108864 516 0 0 0 0 512 268435456 1073873410 2147483652 64 576 0 32900 537395200 32 4096 0 134217728 2 0 17408 4 1 136339456 8650752 1024 512 0 0 0 0 0 0 0 0 0 0 0 0 0 0 0 0 0 0 0 0 0 0 0 0 0 0 32 0 0 0 0 0 0 0 0 0 0 0 0 0 0 0 0 0 0 0 0 0 0 0 0 0 16 134742016 0 0 0 0 0 0 0 0 0 0 0 0 0 0 0 0 0 0 32768 0 0 0 0 0 0 0 0 0 0 0 0 0 0 0 0 0 0 0 0 0 0 0 0 536870912 0 1024 0 4194304 1 0 33554432 260 0 0 1082130432 32 1114112 4194560 10240 33554432 8 4194304 1073872960 518 0 0 1048584 192 32768 0 0 67108873 8 2147483712 134217728 2 131072 0 0 0 1 0 33554432 0 4096 262657 12603404 32768 0 2 128 671088672 2147483648 268436482 536873216 0 536870914 0 0 0 1073872896 2304 0 0 0 0 2097152 0 0 0 0 0 0 0 0 0 0 0 0 0 0 0 0 0 0 0 0 0 0 0 0 0 0 0 0 0 0 0 0 0 0 8192 0 0 1024 0 0 0 0 0 0 0 0 0 10485760 256 0 0 0 0 0 0 0 8 0 0 0 0 0 0 0 1073741824 81921 64 0 0 0 0 0 0 0 0 0 0 0 0 0 0 0 0 0 0 256 0 268435456 0 0 0 0 0 0 0 1074790400 4329601 150994978 1074036736 16 0 132 0 33816576 0 0 0 201850880 1075904512 3149824 0 0 33554512 0 33554432 0 67108896 16777792 0 0 2183397376 8 12582912 6144 1 16777216 0 262144 1073741824 0 0 1 268436000 67665920 1048576 0 1073741824 4096 0 64 2 128 0 67108864 1073743872 0 67119104 1610614784 66560 8421376 2
is_linear=0
shrinkage=0.05


Tree=3
num_leaves=31
num_cat=13
split_feature=2 4 9 10 12 0 8 0 9 0 9 13 9 0 9 1 9 9 1 7 0 9 7 9 10 13 0 1 13 6
split_gain=132297 32330.2 3829.47 3594.62 1120.68 804.845 667.064 621.035 610.647 459.249 410.157 403.163 415.987 301.928 240.255 234.399 232.422 179.294 150.387 147.169 121.397 105.917 104.052 103.77 91.7761 88.4155 84.2063 80.3767 74.7381 79.2034
threshold=1.0000000180025095e-35 1.0000000180025095e-35 0 2643.0000000000005 220.50000000000003 1550.0000000000002 1 2250.0000000000005 2 1950.0000000000002 3 136.50000000000003 4 1150.0000000000002 5 6 7 8 9 0.26500000000000007 950.00000000000011 10 0.50500000000000012 11 28.500000000000004 40.500000000000007 1850.0000000000002 12 804.00000000000011 1761.5000000000002
decision_type=2 2 9 2 2 2 9 2 9 2 9 2 9 2 9 9 9 9 9 2 2 9 2 9 2 2 2 9 2 2
left_child=1 2 6 13 8 18 -1 10 -4 11 -6 17 -13 15 -12 -3 -14 -10 20 -15 -5 -19 -8 -18 -17 -23 -7 -21 29 -16
right_child=-2 3 4 5 7 26 22 -9 9 -11 14 12 16 19 28 24 23 21 -20 27 -22 25 -24 -25 -26 -27 -28 -29 -30 -31
leaf_value=-0.016302907492005966 0.054349203557269458 -0.011813044515046032 0.017537238893729233 -0.045521657465453502 -0.045472887695851234 -0.11031136950818184 -0.11670583630101515 -0.15175549452780621 -0.12899570552419012 -0.19590209845469528 0.016847965940966412 -0.0027030833708080824 -0.077760819704493597 -0.14953465988992462 -0.1157743657133006 -0.097460557355645183 -0.064006056348535831 0.0011678679834598879 -0.030001058067978943 -0.077411269585747428 -0.11706953678144905 -0.095907756745396491 -0.035380920748984128 -0.03704249419851946 -0.17257169688200225 -0.06234683507367686 -0.14467193560771821 -0.19533196497960365 -0.0045391786583774719 -0.020336486395133246
leaf_weight=205.97356764227152 39165.211451262236 38.553413905203342 320.06725145876408 98.838946990668774 728.5927257835865 263.13797001540661 2048.1394252181053 80.77207688242197 166.86425770819187 56.353547163307667 953.78179845958948 532.62451518326998 672.86017870157957 186.08500628173351 22.181156881153584 42.982972711324692 513.88336329907179 61.558523684740067 319.32231910526752 59.538704961538315 148.15289310365915 285.10350222885609 40.101971082389355 1837.0342680886388 755.35513476282358 629.6628330424428 553.0741288214922 6247.6574616879225 1285.0507537573576 1090.9196835160255
leaf_count=2320 531994 302 3919 1020 7628 2184 16754 577 1488 379 11612 6107 6328 1286 248 304 5077 670 3110 347 1376 2552 377 19534 4991 6357 3996 36436 14740 12222
internal_value=0.000705698 -0.103075 -0.0481517 -0.175768 -0.0336631 -0.101817 -0.10588 -0.0144648 -0.0494681 -0.053901 -0.0117472 -0.0523129 -0.0440099 -0.189715 -0.00426802 -0.161449 -0.051108 -0.078143 -0.0560175 -0.193358 -0.0849969 -0.0674398 -0.114595 -0.0431826 -0.166443 -0.0720194 -0.133594 -0.194651 -0.0127013 -0.0222383
internal_weight=59409.4 20244.2 11531.5 8712.7 9237.31 1382.53 2294.21 4161.3 5076.01 4755.94 4080.53 4699.59 3556.4 7330.17 3351.93 836.892 3023.78 1143.19 566.314 6493.28 246.992 976.325 2088.24 2350.92 798.338 914.766 816.212 6307.2 2398.15 1113.1
internal_count=706235 174241 118889 55352 99438 11686 19451 47027 52411 48492 46450 48113 37046 43666 38822 5597 30939 11067 5506 38069 2396 9579 17131 24611 5295 8909 6180 36783 27210 12470
cat_boundaries=0 25 28 54 79 102 126 232 256 281 385 411 436 542
cat_threshold=1342177288 65568 16384 67108864 80 0 0 1075843072 2048 16384 0 262400 73416704 0 545259528 8388608 0 1073741828 0 0 3072 2097152 16777217 0 32 671088640 0 11010064 0 2181038080 8192 2 8 2684354560 0 1 33555478 67108880 202375168 0 0 0 0 16777249 536870912 0 2097152 512 0 2 32768 0 4194820 32 0 10502784 0 33816576 0 0 0 0 18874368 2105348 0 0 50331728 0 0 1024 16777216 86245952 0 0 3221225504 8 0 137216 1 0 0 0 0 0 285212672 512 2148532228 142639168 2147484162 0 32768 538447872 32 36864 0 8 2 0 8406016 8388612 1 532496 2147483648 4456449 0 14745600 0 0 0 147456 2688548864 0 0 0 1152 0 0 64 0 34635809 0 0 89850176 0 131072 67108864 0 0 0 0 0 0 0 0 0 0 0 0 0 0 0 0 0 0 0 0 0 0 0 0 0 0 32 0 0 0 0 0 0 0 0 0 0 0 0 0 0 0 0 0 0 0 0 0 0 0 0 0 0 524288 0 0 0 0 0 0 0 0 0 0 0 0 0 0 0 0 0 0 0 0 0 0 0 0 0 0 0 0 0 0 0 0 0 0 0 0 0 0 0 0 0 0 0 536870912 0 1024 0 0 1 0 33554432 256 0 8 0 1 65536 33554432 0 16 262665 8388620 1073774656 0 2147483658 128 134217760 0 268436482 8208 0 536870912 16777224 0 0 1342308352 4194304 2048 1082130432 32 1048576 5767424 8192 33554432 0 4194336 393216 518 0 0 1050880 128 32768 1024 0 67108864 0 2147484224 0 2 131072 0 0 0 0 2097152 0 0 0 0 0 0 0 0 0 0 0 0 0 0 0 0 0 0 0 0 0 0 0 0 0 0 0 0 0 0 0 0 0 0 8192 0 0 1024 0 0 0 0 0 0 0 0 0 10485760 256 0 0 0 0 0 0 0 8 0 0 0 0 0 0 0 0 81921 64 0 0 0 0 0 0 0 0 0 0 0 0 0 0 0 0 0 0 256 0 268435456 0 0 0 0 0 0 0 1074790400 135297 150994978 1074036736 16793600 0 262144 0 0 2097152 2147483648 285213184 524288 0 0 1207959552 4096 0 268435456 4096 128 0 67108864 1073741824 0 67117056 1610612864 66560 8421376 2050 67108864 0 67141632 269484032 0 0 0 0 32 4722688 16384 1 1 4 33554432 2181038080 1048576 536873216 0 786443 32768 32 263168 0 6400 0 0 0 0 0 0 0 0 0 0 0 0 0 0 0 0 0 0 0 1073741824 64 0 0 0 0 0 36 0 0 2048 0 0 268435456 4194304 0 33554432 0 0 0 0 0 0 0 32 0 0 1024 0 0 0 0 0 0 0 0 0 0 0 0 0 0 0 0 0 0 0 0 0 0 0 0 0 0 0 0 0 0 0 134217856 0 0 0 4 0 0 0 512 0 0 537137152 2 0 8192 0 0 805306368 0 0 0 2 0 1048576 0 0 8388608 2048
is_linear=0
shrinkage=0.05


Tree=4
num_leaves=31
num_cat=14
split_feature=2 4 9 5 13 9 8 0 0 5 0 9 9 0 9 13 9 10 9 9 9 1 9 0 7 12 0 7 9 9
split_gain=116444 24445 3034.2 2649.67 967.644 559.627 524.543 523.555 411.82 418.076 358.166 309.526 249.495 248.779 171.08 167.134 266.662 138.583 133.384 105.113 103.272 94.6162 89.9816 84.2836 81.4568 79.7472 78.6586 77.4114 75.9775 74.0057
threshold=1.0000000180025095e-35 1.0000000180025095e-35 0 1.0000000180025095e-35 672.50000000000011 1 2 1550.0000000000002 1950.0000000000002 1773.0000000000002 2850.0000000000005 3 4 1250.0000000000002 5 72.500000000000014 6 2915.0000000000005 7 8 9 10 11 2250.0000000000005 0.50500000000000012 192.50000000000003 950.00000000000011 0.26500000000000007 12 13
decision_type=2 2 9 2 2 9 9 2 2 2 2 9 9 2 9 2 9 2 9 9 9 9 9 2 2 2 2 2 9 9
left_child=1 2 6 7 5 -4 -1 21 9 15 11 -6 -11 17 -14 18 -17 20 -7 -15 -5 26 -18 -9 -8 -21 -3 -27 -20 -13
right_child=-2 3 4 13 10 8 24 23 -10 12 -12 29 14 19 -16 16 22 -19 28 25 -22 -23 -24 -25 -26 27 -28 -29 -30 -31
leaf_value=-0.015328286495537339 0.054119138136127565 -0.043391524787377088 0.017268314127539285 -0.041567146505872794 -0.02405691570701457 -0.13877540440609512 -0.10369371530670289 -0.10314137749899706 -0.14270528942777669 0.0059470237981620374 -0.17712400339802872 0.022217817218057091 -0.061192935955310251 -0.060630169900117638 -0.030953525534346445 -0.0096605323426614716 -0.079366858747770025 0.0066097381465644103 -0.00086842626274050085 -0.17129186622830694 -0.14657451144877862 -0.029944877399250509 -0.051640379201251085 -0.13576812611637734 -0.032703635416611664 -0.11708077671590844 -0.096553983332400506 -0.16190542655352128 -0.074869694720236621 0.00015631229561560375
leaf_weight=208.68048014491796 37409.470732375979 113.08260132372379 370.9898404404521 53.449200063943863 1385.1880549788475 104.45493557304144 2139.2263884320855 593.1554319113493 108.27467981725931 377.26491221040487 31.133551195263863 573.91371185332537 620.54406011104584 62.943115681409836 2367.0392050594091 320.7059813439846 549.85337349772453 15.594420835375784 48.930685311555862 4211.9130444377661 1130.0626192912459 298.23907881230116 1252.1275260597467 297.07865938544273 41.186424799263477 100.12156760692596 180.86024244874716 2535.9826426059008 347.92277054488659 1100.0505267232656
leaf_count=2320 531994 1116 4576 322 14974 881 16081 4353 719 4391 167 7168 5789 331 24771 3525 4715 140 512 22095 6643 2850 12213 1874 377 636 1541 13451 3052 12658
internal_value=0.000795468 -0.0918142 -0.0440866 -0.151259 -0.0313742 -0.0424034 -0.0944204 -0.0897943 -0.0459871 -0.0443153 -0.00839133 -0.00667411 -0.0326492 -0.162494 -0.0374177 -0.0592751 -0.0531427 -0.141471 -0.0852415 -0.166142 -0.143422 -0.0533616 -0.0604921 -0.114029 -0.101885 -0.16678 -0.0735981 -0.160203 -0.0659912 0.00780706
internal_weight=58949.4 21540 11947.5 9592.48 9558.39 6468.11 2389.09 1482.42 6097.12 5988.84 3090.29 3059.15 3364.85 8110.07 2987.58 2624 2122.69 1199.11 501.308 6910.96 1183.51 592.182 1801.98 890.234 2180.41 6848.02 293.943 2636.1 396.853 1673.96
internal_count=706235 174241 118889 55352 100111 65144 18778 11734 60568 59849 34967 34800 34951 43618 30560 24898 20453 7105 4445 36513 6965 5507 16928 6227 16458 36182 2657 14087 3564 19826
cat_boundaries=0 25 48 51 76 101 126 152 174 197 223 328 353 379 404
cat_threshold=1342177288 65568 16384 67108864 80 0 0 1075843072 2048 0 0 262400 69222400 0 9437192 8388608 0 1073741828 0 536870912 3072 0 16777217 4096 32 0 4194304 0 8388610 0 536870912 0 131073 2147483670 67108880 202375168 0 0 0 0 16777249 536870912 33554465 2097152 512 71827536 0 131072 671088640 0 11010064 0 16777226 0 0 36 16777216 0 524288 1075970048 8192 0 0 131136 0 2147487744 0 2147483648 16777536 0 0 270549040 8 33554432 0 65 2147483648 134221824 0 0 2 2415919104 0 1048576 578846784 2181038210 0 268435456 1024 0 0 4096 8 536903680 0 16512 65664 2 536875008 0 12582912 67108864 2099712 0 269746176 0 134217728 0 33554432 32 8396800 294912 0 16777217 4 32 2147484672 16777218 10756112 0 262144 0 2097152 1024 1073741824 2048 2 2147483648 0 1074003968 520 0 1073742336 16777216 0 0 0 2147516544 538447876 268435456 0 0 1073741824 75497472 0 8388608 0 67240961 2138112 0 1048704 64 0 0 8388612 262176 36864 5767424 33556480 2147483648 0 0 33689600 516 1024 65536 256 128 64 268435456 0 2214723584 0 2151678528 67635200 0 524288 2 0 0 1073741824 37748736 134218880 128 2 33554432 0 1073743872 0 4194304 8704 0 0 16777216 0 4096 256 0 67108864 0 16777216 1 0 0 33554432 1049088 1572868 0 0 64 80 0 1024 0 3145730 0 1114112 545259520 67108865 4194304 0 0 32 0 0 0 0 2097152 0 0 0 0 0 0 0 0 0 0 0 0 0 0 0 0 0 0 0 0 0 0 0 0 0 0 0 0 0 0 0 0 0 0 8192 0 0 1024 0 0 0 0 0 0 0 0 0 10485760 16777472 0 0 0 0 0 0 0 8 0 0 0 0 0 0 0 1073741824 81921 64 0 0 0 0 0 0 0 0 0 0 0 0 0 0 0 0 0 0 256 0 268435456 0 0 0 0 0 0 0 1074790400 4329601 150994978 1074036736 16 0 0 1073741824 0 1114112 33554432 0 16 262665 4210700 1073741888 0 4194314 128 671088640 0 268469248 8 0 0 16777224 2097152 0 268435458 131072 16793600 0 17047552 0 0 8192 2147483648 640 524288 0 0 1073743872 4096 0 268566592 67108864 0 0 0 2048 0 10240 2048 2147483648 32768 2082 0 262145 0 6356992 0 0 0 16384 4194304 0 0 0 0 0 0 0 0 0 0 0 1048840 0 0 0 4
is_linear=0
shrinkage=0.05


Tree=5
num_leaves=31
num_cat=14
split_feature=2 4 9 7 12 9 0 8 0 9 0 13 9 0 1 9 9 9 1 0 1 9 9 0 5 10 9 13 0 0
split_gain=103624 19327.4 2458.06 2086.56 833.637 453.68 419.963 412.303 394.851 321.735 281.246 254.375 302.72 233.678 262.702 186.617 148.007 117.945 114.515 129.105 108.998 94.2447 86.7757 77.7766 94.6393 84.1351 77.3006 84.1864 76.3224 98.2839
threshold=1.0000000180025095e-35 1.0000000180025095e-35 0 0.19500000000000003 220.50000000000003 1 1750.0000000000002 2 2250.0000000000005 3 1950.0000000000002 184.50000000000003 4 1050.0000000000002 5 6 7 8 9 1350.0000000000002 10 11 12 1.0000000180025095e-35 1331.5000000000002 1887.5000000000002 13 70.500000000000014 1250.0000000000002 1.0000000180025095e-35
decision_type=2 2 9 2 2 9 2 9 2 9 2 2 9 2 9 9 9 9 9 2 9 9 9 2 2 2 9 2 2 2
left_child=1 2 7 6 5 -4 18 -1 9 -6 11 17 -13 14 -5 -11 -14 -7 19 -3 -15 -19 -22 -16 -25 -26 -23 -28 29 -20
right_child=-2 3 4 13 8 10 -8 -9 -10 15 -12 12 16 20 23 -17 -18 21 28 -21 22 26 -24 24 25 -27 27 -29 -30 -31
leaf_value=-0.014423032297512337 0.053902139458095667 -0.063496879540868301 0.016492878430588515 -0.012431966876391053 0.016266208280963354 -0.095602888428633181 -0.10674466692819862 -0.090606697242617329 -0.11504084324130447 -0.03887066115196721 -0.14618543186696076 -0.0031907032995868363 -0.061361105996485421 -0.061740770526042169 -0.15758399168426185 -0.01068140758472714 -0.035299809116935782 -0.0010801895044079254 -0.19041840843141941 -0.13809662453212845 -0.065568236720922893 -0.011539959560428609 -0.14686752869384503 -0.14468875944575024 -0.10461337706077722 0.042450204574233492 -0.076317365143750537 -0.050006576952876386 -0.053652784953105104 -0.0059733845977561909
leaf_weight=211.24878172576427 35724.624110907316 210.88229628652334 314.77483697980642 71.463358879089355 896.41935083270073 230.00206750631332 787.86951392889023 2326.727277725935 91.746439725160599 770.48917964100838 68.348947882652283 586.67293646931648 831.86023981124163 88.88301195204258 156.03872041404247 2489.612867154181 2068.0811010971665 90.843131817877293 7.5316743403673163 79.998744077980518 88.584031239151955 106.77881176024675 7824.5208210945129 190.70666754245758 293.21037369966507 10.059035323560236 528.23349779099226 716.29944217205048 335.47000432014465 175.95273742824793
leaf_count=2320 531994 1866 3942 486 11217 1776 4965 16398 563 7577 379 6610 7045 451 762 27609 20373 959 49 601 448 1036 38326 1073 1783 96 4451 6634 2717 1729
internal_value=0.000858501 -0.0828069 -0.0405454 -0.133286 -0.0290745 -0.0418786 -0.0807551 -0.084347 -0.0124399 -0.0101752 -0.0453385 -0.0440903 -0.0364013 -0.142907 -0.115654 -0.0174421 -0.0429608 -0.0601227 -0.0554706 -0.0812212 -0.145365 -0.0534307 -0.146041 -0.12489 -0.11709 -0.0997355 -0.0569162 -0.0606864 -0.0387256 -0.0135445
internal_weight=58373.9 22649.3 12328.1 10321.2 9790.16 5541.9 1597.7 2537.98 4248.27 4156.52 5227.12 5158.77 3486.61 8723.47 721.478 3260.1 2899.94 1672.16 809.835 290.881 8001.99 1442.15 7913.1 650.015 493.976 303.269 1351.31 1244.53 518.954 183.484
internal_count=706235 174241 118889 55352 100171 53205 11927 18718 46966 46403 49263 48884 34028 43425 4200 35186 27418 14856 6962 2467 39225 13080 38774 3714 2952 1879 12121 11085 4495 1778
cat_boundaries=0 25 51 54 78 101 207 232 256 281 385 491 517 540 563
cat_threshold=1342177288 65568 16384 67108864 80 0 0 1073745920 2048 0 0 262400 73416704 0 9437192 8388608 0 1073741828 0 536870912 3072 2147483648 16777217 4096 32 0 2181038080 8192 2 8 536870912 0 16777217 33555478 67108880 202375168 0 0 0 0 16777249 536870912 0 2097152 512 0 2 32768 0 4194820 32 671088640 0 11010064 2147483648 4456449 0 14745600 0 0 0 147456 2688548864 128 0 0 1152 0 0 64 0 34635809 0 0 89784640 0 131072 67108864 0 16 0 0 0 285212672 1073742336 2148532228 142606400 2147484162 0 32896 537526272 32 4096 0 0 2 0 8406016 8388612 1 134242320 0 0 0 0 0 0 0 0 0 0 0 0 0 0 0 0 0 0 0 0 0 0 0 0 0 0 32 0 0 0 0 0 0 0 0 0 0 0 0 0 0 0 0 0 0 0 0 0 0 0 0 0 16 524544 0 0 0 0 0 0 0 0 0 0 0 0 0 0 0 0 0 2048 0 0 0 0 0 0 0 0 0 0 0 0 0 0 0 0 0 0 0 0 0 0 0 0 0 536870912 0 1024 0 0 1 512 33554432 260 0 10502784 0 33816576 0 0 0 67633152 1092616192 2105348 0 0 50331664 0 0 1024 16777216 86245952 0 0 3221225504 0 0 133120 1 0 8 0 1 0 33554432 0 2097168 262657 8933388 32768 0 10 128 671088672 0 268436482 536879120 0 0 16777216 2097152 0 1342308352 0 0 1082130432 32 1114112 4194560 2048 33554432 8 4194368 1074135104 516 0 0 0 192 32768 0 0 67108873 8 96 134217728 2 131072 1 0 0 0 2097152 0 0 0 0 0 0 0 0 0 0 0 0 0 0 0 0 0 0 0 0 0 0 0 0 0 0 0 0 0 0 0 0 0 0 8192 0 524288 1024 0 0 33554432 0 0 0 0 0 0 10485760 256 0 0 0 0 0 0 0 8 0 0 0 0 0 0 0 1073741824 16384 64 0 0 0 0 0 0 0 0 0 0 0 0 0 0 0 0 0 0 0 0 0 0 0 0 0 0 524288 0 1073741840 131201 150994978 1074003968 0 0 0 0 0 0 0 0 0 0 0 0 0 0 0 0 0 0 0 1073741824 64 0 0 0 0 0 36 0 0 2048 0 0 268435456 4194304 0 0 0 256 0 0 0 0 0 32 0 0 16 0 0 0 0 0 131072 0 0 0 0 0 0 0 0 0 0 0 0 0 0 0 0 0 0 0 0 0 64 0 0 0 134217856 0 0 32 524292 0 0 0 512 0 0 537137152 2 0 8192 0 0 805306368 0 0 0 2 0 1048576 0 0 8912896 2048 16384 0 262144 0 0 2147483648 2147483649 268435488 67665920 0 0 1073741824 4096 0 268435524 0 1048712 0 67108864 1073741824 0 270336 1610612736 33620992 8421376 2050 67635200 0 0 2 0 4 1073741824 37748736 142607488 134217872 536870914 34603024 0 1073741824 0 4194560 8704 0 0 50331648 0 4096 256 16777216 0 16777728 1090519040 0 2097152 1024 1664 262144 1179650 4194304 0 0 2 16941056 67110912 0 0 0 2048 0 83904512 2692
is_linear=0
shrinkage=0.05


Tree=6
num_leaves=31
num_cat=14
split_feature=2 4 9 10 12 9 0 0 8 9 0 5 0 9 9 13 9 1 9 1 9 1 9 1 7 7 0 10 7 10
split_gain=92984.1 15807.6 2013.14 1736.73 760.25 411.994 383.464 348.825 333.473 273.29 226.711 217.137 175.063 128.247 126.934 124.392 192.446 121.066 118.159 115.097 105.491 103.187 88.8693 84.3158 80.6686 71.06 66.7769 65.8868 65.8703 64.6711
threshold=1.0000000180025095e-35 1.0000000180025095e-35 0 2643.0000000000005 220.50000000000003 1 1450.0000000000002 1950.0000000000002 2 3 1850.0000000000002 1906.5000000000002 1350.0000000000002 4 5 72.500000000000014 6 7 8 9 10 11 12 13 0.33500000000000008 0.36500000000000005 2850.0000000000005 9.5000000000000018 0.26500000000000007 28.500000000000004
decision_type=2 2 9 2 2 9 2 2 9 9 2 2 2 9 9 2 9 9 9 9 9 9 9 9 2 2 2 2 2 2
left_child=1 2 8 12 5 -4 21 9 -1 -6 11 15 14 -11 -3 20 -17 -14 -13 -8 -7 -5 -18 -16 -22 -15 -9 -26 -19 -25
right_child=-2 3 4 6 7 10 19 26 -10 13 -12 18 17 25 23 16 22 28 -20 -21 24 -23 -24 29 27 -27 -28 -29 -30 -31
leaf_value=-0.012547275566628597 0.053697372999000847 -0.037017203288102089 0.014625557474474452 -0.059430184569406186 0.015269284612272189 -0.0021401169721639631 -0.0055775973677986562 -0.063693010637563816 -0.081847529615552111 -0.0018884488563094427 -0.12608540758494158 -0.049354266430411214 -0.052492561127199459 -0.045557017120660785 -0.045784432479338312 -0.0078707296550123741 -0.065810682090132563 -0.10490845079017636 -0.019288102891920452 -0.09239980983976076 -0.11496245323655739 -0.01446501440113953 -0.042355262366402267 -0.074116073220859266 -0.017065585428162243 -0.0192092373282302 -0.13854680712273601 -0.073654889373881358 -0.13300924627201471 -0.12299565473064406
leaf_weight=205.58256802707911 34108.622372478247 85.202623076736927 339.45705056190491 268.89516984671354 924.22354275733232 66.882178120315075 52.344134971499443 74.382067866623402 2409.3140979334712 1130.0144737735391 79.482317313551903 444.77475096285343 93.643665015697479 299.45816331356764 82.535254575312138 349.40023575723171 643.01077909767628 214.78109568357468 1380.8999919444323 1056.7418194264174 105.80549014359713 276.6327560544014 1938.5324992090464 70.777945034205914 58.628841578960419 1759.4797120988369 49.704430878162384 419.27616568654776 7178.3379360437393 1540.9691327512264
leaf_count=2247 531994 461 4271 2252 11675 668 332 551 16029 12705 430 3836 456 2881 485 3745 5003 1172 13954 6575 778 2527 17648 389 463 18472 240 3293 33025 7678
internal_value=0.000904728 -0.0753981 -0.0374183 -0.11949 -0.0271686 -0.0389156 -0.0723041 -0.0110809 -0.0764677 -0.00858913 -0.042178 -0.0410226 -0.127916 -0.0155031 -0.113819 -0.0481762 -0.043786 -0.131266 -0.0269889 -0.0891856 -0.0679541 -0.0379833 -0.0484289 -0.116773 -0.0741876 -0.02293 -0.0936767 -0.0667126 -0.132014 -0.120104
internal_weight=57707.8 23599.2 12678.3 10920.9 10063.4 5826.15 1654.61 4237.26 2614.9 4113.18 5486.69 5407.21 9266.25 3188.95 1779.48 3581.54 2930.94 7486.76 1825.67 1109.09 650.593 545.528 2581.54 1694.28 583.71 2058.94 124.086 477.905 7393.12 1611.75
internal_count=706235 174241 118889 55352 100613 54089 11686 46524 18276 45733 49818 49388 43666 34058 9013 31598 26396 34653 17790 6907 5202 4779 22651 8552 4534 21353 791 3756 34197 8067
cat_boundaries=0 25 50 53 77 102 127 153 259 282 385 411 517 541 647
cat_threshold=1342177288 2162720 16384 67108864 80 0 0 1073745920 2048 0 0 262400 69222400 0 9437192 8388608 16777216 4 0 0 3072 2147483648 16777217 4096 32 0 2181038080 8192 2 8 805306368 0 1 33555478 100663312 202375168 0 0 0 0 16777249 536870912 0 2097152 0 0 2 32768 0 4194820 671088640 0 8388624 2147483648 4456449 0 14745600 0 0 0 537018368 2151677952 128 0 0 1152 0 0 64 0 33587233 0 0 89850176 0 131072 67108864 16384 201895936 0 2148007936 3 0 0 0 537936896 1024 0 268435456 256 0 1073741824 0 0 542113792 0 0 268440192 0 4104 2281701376 130 2415919104 2050 0 1048576 1 0 134217730 33554432 1074790400 1048576 64 0 64 82 545259520 1024 0 1048576 0 1048576 545260064 67108864 6291456 16777216 65536 2 0 512 1073741824 512 0 1073742336 16777216 0 0 524288 2281734272 538447872 2 4096 0 262152 67108864 0 8388608 4 67240961 24576 0 1048576 64 0 0 0 0 0 0 0 8 0 0 0 0 0 0 0 0 524288 0 0 0 0 16384 0 0 0 0 32 0 0 2048 0 0 0 4194304 0 0 0 0 0 0 0 0 64 0 0 0 1024 0 0 0 0 0 131072 0 0 0 0 0 0 0 0 0 0 0 0 0 0 0 0 0 0 0 0 0 64 0 0 0 134217856 0 0 0 524288 0 1048576 0 512 0 0 266240 2 0 8192 0 0 805306400 0 0 8388608 0 0 1048576 0 0 8912896 2048 4194304 2048 0 269484032 0 134217728 0 0 0 8388608 262144 0 7 12 544 2147491840 2050 10493968 0 262146 0 2097152 1024 0 0 0 0 0 0 0 0 0 0 0 0 0 0 0 0 1073741824 0 67108864 32768 32 0 0 0 0 536870912 0 0 0 0 134217728 0 0 0 0 4 0 0 0 0 0 0 0 0 0 0 0 0 0 0 0 0 16 0 16 0 0 0 0 0 0 0 0 0 0 64 0 0 0 0 0 0 0 0 2097152 0 0 2 536870912 128 0 1 0 0 0 0 2176 0 8192 0 0 134217728 0 8388608 81920 0 0 0 0 4194304 0 0 1073741824 16793600 0 17039360 16777216 0 2147483648 4 672 524288 2 0 1073741824 4096 0 268566596 67110912 34603008 0 0 2048 0 11264 2048 0 8421376 2082 0 0 0 0 2097152 0 0 0 0 0 0 0 0 0 0 0 0 0 0 0 0 0 0 0 0 0 0 0 0 0 0 0 0 0 0 0 0 0 0 8192 0 0 1024 0 0 0 0 0 0 0 0 0 10485760 256 0 0 0 0 0 0 0 8 0 0 0 0 16384 0 0 0 81920 64 8192 0 0 0 0 0 0 0 0 0 0 0 0 0 0 0 0 0 256 0 268435456 0 0 0 0 0 0 0 1074790400 4325507 150994946 1074036736 0 256 0 8 1073741824 0 1114112 33554432 0 35651600 521 4210692 32832 0 4194440 128 671088640 0 268469248 8 0 536870912 16777224 2097152 0 268435458 0 0 0 0 8388608 0 0 0 0 0 0 0 0 0 67108864 0 0 0 0 0 0 0 0 0 0 0 32 0 0 0 0 0 268435456 0 0 0 0 0 0 0 0 0 0 0 0 0 0 0 0 0 0 1073741824 16 537395200 32 0 0 0 0 0 0 0 0 0 0 0 0 0 0 4 2097152 0 0 0 0 0 0 0 0 0 0 0 4 0 0 0 2048 0 0 0 0 0 0 0 0 0 0 545259521 0 1024 0 256 0 0 33554432 256
is_linear=0
shrinkage=0.05


Tree=7
num_leaves=31
num_cat=14
split_feature=2 4 9 5 9 12 0 9 0 8 9 9 0 13 1 9 9 7 9 1 0 1 12 0 9 0 1 10 7 0
split_gain=83978.4 13261 1691.67 1498.38 666.821 437.328 344.467 307.918 278.643 277.174 193.546 177.793 154.889 138.229 118.883 114.275 107.549 94.4099 89.895 86.8764 82.5159 72.8036 66.4061 69.6672 63.4064 60.7136 75.2558 59.4544 54.5166 51.4664
threshold=1.0000000180025095e-35 1.0000000180025095e-35 0 1.0000000180025095e-35 1 121.50000000000001 1950.0000000000002 2 1850.0000000000002 3 4 5 1150.0000000000002 184.50000000000003 6 7 8 0.57500000000000007 9 10 1250.0000000000002 11 192.50000000000003 1650.0000000000002 12 1.0000000180025095e-35 13 2915.0000000000005 0.33500000000000008 1.0000000180025095e-35
decision_type=2 2 9 2 9 2 2 9 2 9 9 9 2 2 9 9 9 2 9 9 2 9 2 2 9 2 9 2 2 2
left_child=1 2 9 8 -4 10 7 -7 20 -1 -6 -5 14 17 -13 -15 -9 18 -12 -14 25 -22 -21 -24 -18 -3 -27 29 -20 -16
right_child=-2 3 4 11 5 6 -8 16 -10 -11 13 12 19 15 27 -17 24 -19 28 22 21 -23 23 -25 -26 26 -28 -29 -30 -31
leaf_value=-0.011832877141534187 0.053504074824106018 -0.15501645141441855 0.01871911317225218 -0.042018618662884401 0.0049769540824747653 -0.044479701643536838 -0.096161375612898559 -0.029402254498206749 -0.088623178942004152 -0.074678706113577659 -0.0086841642470210281 -0.024354231309520032 -0.043408473908151245 -0.054233051304918581 -0.13098664509004515 -0.028351397703951231 0.0054850578414342285 -0.0046906141982651639 -0.083071074568760533 -0.12340136132592357 -0.093123610569212853 -0.046139579690843424 -0.098885758662921874 -0.11780832553529422 -0.011613196060257531 -0.047246503706167627 -0.0028365945700111819 0.0030460047352295154 -0.057127610271228861 -0.1007580299813553
leaf_weight=207.64382614195347 32559.380629733205 9.5853328704833967 789.55957363545895 118.99981297552586 219.96086905896664 879.94158800691366 143.38799822330475 740.99868620932102 746.71371096372604 2485.2043762952089 104.23320158571005 74.807572640478611 76.772982865571976 638.88716740906239 169.69500882923603 1629.0795709714293 659.31443685293198 87.722182556986809 244.36534193903208 5230.0394599288702 143.40820906311274 436.14731188118458 599.66004477441311 2575.7309299558401 2988.4409794807434 208.00306919962168 184.43050163239241 12.681214451789854 1181.782137952745 827.17244607955217
leaf_count=2247 531994 56 10262 561 2554 7468 831 7043 4125 15598 979 454 364 4901 748 15239 7806 732 1825 23003 958 3124 2740 11472 32002 1718 1753 114 9402 4162
internal_value=0.000938528 -0.0691637 -0.0346358 -0.108491 -0.0253322 -0.0290022 -0.0196974 -0.0176164 -0.065605 -0.0698944 -0.0413373 -0.116144 -0.1169 -0.0438588 -0.0992283 -0.0360064 -0.0121015 -0.0551359 -0.0580275 -0.119297 -0.0480944 -0.0601685 -0.119796 -0.114235 -0.00851622 -0.0306883 -0.0276516 -0.10351 -0.0611442 -0.105904
internal_weight=56973.8 24414.4 13000.5 11413.8 10307.7 9518.11 5412.08 5268.7 1728.29 2692.85 4106.03 9685.56 9566.56 3886.07 1084.36 2267.97 4388.75 1618.1 1530.38 8482.2 981.574 579.556 8405.43 3175.39 3647.76 402.019 392.434 1009.55 1426.15 996.867
internal_count=706235 174241 118889 55352 101044 90782 55150 54319 11734 17845 35632 43618 43057 33078 5478 20140 46851 12938 12206 37579 7609 4082 37215 14212 39808 3527 3471 5024 11227 4910
cat_boundaries=0 25 50 75 78 104 127 233 258 283 307 413 517 542 647
cat_threshold=1342177288 65568 16384 67108896 80 256 0 1073745920 2048 0 0 262400 69222400 0 9437192 8388608 0 4 0 67108864 3072 2147483648 16777217 4096 32 0 33816577 0 14745602 0 0 0 147457 2151677974 16 201326592 0 0 0 0 16777217 536870912 33554465 2097152 512 68681984 0 0 0 4 0 2114056 0 268435456 0 0 0 68157440 262144 8912896 262144 0 16777225 132 0 9216 17825794 2367504 0 262144 1090519040 0 1049600 131072 8 671088640 0 8388624 16384 2147483648 8192 0 8 2952790016 2147483648 17825792 33588288 100663808 1048576 134217728 537395200 2 0 4096 0 0 0 16384 0 0 32768 33554432 4227072 2082 2048 1073741824 0 128 257 0 1107296256 54525952 142607488 134217872 2 33587201 0 1073741824 16384 4194560 0 0 536870912 16777216 0 16384 1048832 0 0 0 0 0 0 0 0 0 0 0 0 0 0 0 0 0 0 0 0 0 0 0 0 0 0 32 4096 0 0 0 0 0 0 0 0 0 0 0 8192 0 0 0 0 0 0 0 0 0 0 0 0 16 256 0 0 0 0 0 0 0 0 0 0 0 0 0 0 0 0 0 0 557056 0 0 0 0 0 0 0 0 0 0 0 0 0 0 0 0 0 0 0 0 0 0 0 0 545259520 0 1024 0 256 1 0 33554432 256 67108864 0 67141632 1048577 0 33554432 0 2097168 513 20492 32768 0 4194306 0 671088672 0 268436480 536872968 0 536870912 0 2097152 0 1342308352 256 4194304 8388608 0 33816576 0 134217728 0 134742016 18939904 538976260 0 0 37750866 0 33554432 0 0 832 0 0 2147483680 8 8388608 34816 65 17825792 0 512 0 2097152 0 1025 268435456 524288 131072 4718608 1073741824 4096 0 131076 67110914 34603008 0 67108864 2048 0 288768 268437504 33792 0 0 0 0 0 0 0 0 0 0 0 0 0 0 0 0 0 0 0 0 0 0 0 0 0 0 32 0 0 2048 0 0 268435456 0 0 0 0 256 0 0 0 0 64 0 0 0 0 0 0 64 0 0 0 0 0 0 0 0 0 0 0 0 0 0 0 0 0 0 0 0 0 0 0 0 0 0 0 0 134217856 0 0 32 4 0 0 0 0 0 0 4096 2 0 0 0 0 805306400 0 0 0 8 0 1048576 0 0 8912896 2048 1 0 0 0 0 0 0 0 0 0 0 0 0 0 0 0 0 0 0 0 0 0 0 0 0 32768 16 0 0 0 0 0 0 0 0 0 0 0 0 8192 0 524288 0 0 0 33554432 0 0 0 0 0 0 2097152 1028 0 0 0 0 0 0 0 8 0 0 0 0 0 0 0 1073741824 16385 64 2 0 0 0 0 0 0 0 0 0 0 0 0 0 0 0 0 0 0 0 131072 0 0 0 0 0 524288 0 1074790400 1 150994978 1074003968 2147483648 71864320 0 0 0 0 512 536870912 545259520 2147483778 0 0 1152 0 0 96 0 135299072 0 128 4390976 2 537006080 67108864 640 0 0 0 0 2097152 0 0 0 0 0 0 0 0 0 0 0 0 0 0 0 0 0 0 0 0 0 0 0 0 0 0 0 0 0 0 0 0 0 0 0 0 0 0 0 0 0 0 0 0 0 0 0 10496000 256 0 0 0 0 0 0 0 8 0 0 0 0 0 0 0 0 1 64 0 0 0 0 0 0 0 0 0 0 0 0 0 0 0 0 0 0 0 0 0 0 0 0 0 0 0 0 1073741824 4329473 150994946 1074036736 4112
is_linear=0
shrinkage=0.05


Tree=8
num_leaves=31
num_cat=14
split_feature=2 4 9 7 9 12 0 8 0 9 0 0 1 5 9 9 9 13 9 1 1 9 7 0 0 1 0 5 10 9
split_gain=76246.4 11360 1404.87 1330.98 592.165 390.392 239.232 232.996 229.266 189.522 186.874 181.635 196.034 156.729 117.326 109.471 101.478 120.388 118.807 100.669 82.2668 80.4351 66.906 64.151 61.5702 63.1361 60.0895 79.5486 61.6032 56.1453
threshold=1.0000000180025095e-35 1.0000000180025095e-35 0 0.23500000000000001 1 297.50000000000006 1850.0000000000002 2 1950.0000000000002 3 1950.0000000000002 1050.0000000000002 4 1906.5000000000002 5 6 7 145.50000000000003 8 9 10 11 0.57500000000000007 1250.0000000000002 1.0000000180025095e-35 12 1.0000000180025095e-35 1331.5000000000002 1887.5000000000002 13
decision_type=2 2 9 2 9 2 2 9 2 9 2 2 9 2 9 9 9 2 9 9 9 9 2 2 2 9 2 2 2 9
left_child=1 2 7 6 -4 8 20 -1 9 -6 14 12 -5 16 -7 -15 -11 22 -19 -13 -3 -21 29 24 -22 -26 -14 -28 -29 -18
right_child=-2 3 4 11 5 10 -8 -9 -10 13 -12 19 26 15 -16 -17 17 18 -20 21 23 -23 -24 -25 25 -27 27 28 -30 -31
leaf_value=-0.01116535381728808 0.053321518156475269 0.014740031638988261 0.018077136610931414 -0.0034957976630299774 0.0065553909542953705 -0.02522816438286328 -0.080579278235891019 -0.068535804037926709 -0.10826192305713256 -0.057739170203881834 -0.07994734280903687 -0.042668295302146247 -0.11865065902842867 -0.041759690140514297 -0.0032172139693116848 -0.016932144973691315 -0.0045497339553496859 -0.0085038674874236431 -0.036022319012304495 -0.047417976120400308 -0.13808261844293129 -0.11004497231842858 -0.0013187254778353242 -0.058684461717147723 -0.046242484682372346 -0.0042066720966832533 -0.10866218188804098 -0.074363714456360766 0.044608285460835978 -0.055713055800102801
leaf_weight=209.60105285793543 31074.796158827841 57.196420192718506 777.39012783765793 80.244453527033329 298.4721095636487 857.69954376667738 829.12157091498375 2509.9384233504534 101.84254189580679 745.51439063996077 98.271439112722874 100.98931643366814 175.42755198478699 629.90263424068689 2037.0208987370133 1658.9085517153144 70.63617192953825 536.31935635209084 1721.5345949977636 103.70559346675873 13.317732930183409 8916.6034205853939 67.024304673075676 577.28080012649298 207.18368448317051 169.15325064957142 223.37523226439953 345.96798555552959 11.233924232423304 979.17976386100054
leaf_count=2247 531994 456 10262 495 3632 8313 4373 15084 506 5316 563 468 749 5171 22530 16314 667 5564 14710 470 69 38163 563 3899 1667 1594 1064 1780 105 7447
internal_value=0.000962712 -0.0638336 -0.0321408 -0.0995205 -0.0238241 -0.0271622 -0.0606138 -0.0641712 -0.0338053 -0.0326748 -0.0121393 -0.106762 -0.0844591 -0.0344583 -0.00983728 -0.0240214 -0.0403397 -0.0362175 -0.0296829 -0.108806 -0.04445 -0.109378 -0.0497524 -0.0476112 -0.0324279 -0.0286891 -0.0917924 -0.0852579 -0.0706221 -0.0528446
internal_weight=56184.9 25110.1 13299.3 11810.8 10579.7 9802.33 1853.25 2719.54 6809.33 6707.49 2992.99 9957.55 836.249 6409.02 2894.72 2288.81 4120.21 3374.69 2257.85 9121.3 1024.13 9020.31 1116.84 966.935 389.655 376.337 756.005 580.577 357.202 1049.82
internal_count=706235 174241 118889 55352 101558 91296 12058 17331 59890 59384 31406 43294 4193 55752 30843 21485 34267 28951 20274 39101 7685 38633 8677 7229 3330 3261 3698 2949 1885 8114
cat_boundaries=0 25 50 53 79 185 210 234 258 284 390 496 521 627 652
cat_threshold=268435464 65568 16384 67108896 64 0 0 1073745920 2048 0 262144 262400 69222400 0 9437192 8388608 0 4 0 67108864 3072 2147483648 16777217 4096 32 0 33816577 0 14745602 0 0 0 147457 2151677974 16 201326592 0 0 0 0 16777217 536870912 33554465 2097152 512 68681984 0 0 0 4 671088640 0 8388624 0 2151677952 8192 0 8 2952790016 2147483648 16777216 41944128 2214592642 1048576 0 524288 0 0 4128 0 32768 0 0 0 8194 32768 0 4194816 2082 0 0 0 0 2097152 0 0 0 0 0 0 0 0 0 0 0 0 0 0 0 0 0 0 0 0 0 32 0 0 0 0 0 0 0 0 0 0 0 0 0 0 0 0 0 0 0 0 0 0 0 0 0 0 524544 0 0 0 0 0 0 0 0 0 0 0 0 0 0 0 0 0 0 0 0 0 0 0 0 0 0 0 0 0 0 0 0 0 0 0 0 0 0 0 0 0 0 0 536870912 0 1024 0 0 1 0 33554432 260 0 8536196 0 33947648 0 0 0 67633152 1361051648 2105344 0 0 16777296 0 0 1024 2147483648 84148288 0 0 2149842976 0 4194304 2048 1 4194304 2099712 0 269484032 0 134217728 0 0 0 8388612 0 0 4194305 12 544 2147491840 16779266 10493968 0 262146 512 2097152 1024 131072 1073741824 16392 1082130432 0 1048592 4194560 0 35651600 520 4210692 64 4 136 0 671088896 0 1024 1073741832 0 536870912 16777224 64 0 268435456 536870914 128 0 2147483648 262660 0 1073873408 4 0 0 16777216 32896 536875012 0 4096 0 8 335544320 67108864 9437184 4 1 2121728 262144 0 512 0 0 0 0 0 0 0 0 0 0 0 0 0 0 0 0 0 0 0 0 64 0 8388608 0 0 0 36 0 0 2048 0 0 268435584 4194304 0 0 0 256 0 0 0 0 0 0 0 0 1024 0 0 0 0 0 0 0 0 0 0 0 0 0 0 0 0 0 0 0 0 0 0 0 0 0 0 0 64 0 0 0 134217856 0 0 0 524292 0 0 0 512 0 0 536875008 2 0 8192 536870912 0 805306400 0 0 0 0 0 1048576 0 0 8912896 2048 0 0 0 0 0 0 0 0 0 0 0 0 0 0 0 16384 1073741824 0 67108864 0 0 0 0 262144 1026 536870912 0 0 0 0 0 0 0 0 0 0 16777216 256 0 0 0 0 0 0 0 0 0 2048 0 0 0 33554432 33554432 0 0 0 0 0 0 0 0 0 4194304 0 0 0 0 0 0 0 536870912 0 1024 0 0 0 0 0 0 0 0 0 16384 0 0 131072 128 0 8192 0 0 134217728 0 0 1 0 0 25198720 0 1024 0 0 256 0 0 8192 67635200 0 0 2 0 4 1073741824 37748736 142607488 134217872 536870914 34603024 0 0 0 4194560 512 0 0 50331648 0 4096 1048832 0 4194304 0 0 0 0 2097152 0 0 0 0 0 0 0 0 0 0 0 0 0 0 0 0 0 0 0 0 0 0 0 0 0 0 0 0 0 0 0 0 0 0 0 0 0 0 0 0 0 0 0 0 0 0 0 10496000 256 0 0 0 0 0 0 0 8 0 0 0 0 0 0 0 0 1 64 0 0 0 0 0 0 0 0 0 0 0 0 0 0 0 0 0 0 0 0 268435456 0 0 0 0 0 524288 0 1073741824 4325505 150994946 1074003968 4096 256 16793600 0 512 16777216 2097152 0 4 672 524288 131072 0 1207959552 4096 2 268566596 67108864 1048576 0 0 2048 0 149504 1073743872 0 32768
is_linear=0
shrinkage=0.05


Tree=9
num_leaves=31
num_cat=16
split_feature=2 4 9 7 9 12 0 0 8 9 0 0 5 1 9 1 9 9 13 9 9 1 0 0 9 9 7 9 9 13
split_gain=69530.5 9887.15 1215.79 1200.94 518.407 339.195 202.458 196.221 183.747 169.767 169.639 164.551 129.443 121.872 109.586 105.133 99.596 84.3305 98.5584 97.4982 81.0896 71.6249 55.1532 56.3894 53.9276 53.1917 51.5828 51.351 49.6973 47.3682
threshold=1.0000000180025095e-35 1.0000000180025095e-35 0 0.26500000000000007 1 298.50000000000006 1850.0000000000002 1950.0000000000002 2 3 1150.0000000000002 2750.0000000000005 1906.5000000000002 4 5 6 7 8 184.50000000000003 9 10 11 1250.0000000000002 1.0000000180025095e-35 12 13 0.59500000000000008 14 15 213.50000000000003
decision_type=2 2 9 2 9 2 2 2 9 9 2 2 2 9 9 9 9 9 2 9 9 9 2 2 9 9 2 9 9 2
left_child=1 2 8 6 -4 7 21 9 -1 -6 13 14 17 -5 -7 -12 -14 -11 24 -20 -17 -3 23 -23 -19 -15 28 -18 -26 -10
right_child=-2 3 4 10 5 11 -8 -9 29 12 15 -13 16 25 -16 20 27 18 19 -21 -22 22 -24 -25 26 -27 -28 -29 -30 -31
leaf_value=-0.012930999262842413 0.053149048992818283 0.011577778976787769 0.017733081569008539 -0.017435818077767635 0.0057884299157757195 -0.023432133780801351 -0.074264265321375672 -0.098703150499457812 -0.086500943307218345 -0.052408412797303551 -0.037762612639993594 -0.10931131703320572 -0.038962877053416937 -0.034683985055522316 -0.0030983950162227938 -0.042362438408710151 0.0024542086118218907 -0.0028147123206379299 -0.0084423606167055906 -0.033198005188930103 -0.10267019890624501 -0.12073894445066534 -0.055051694295483289 -0.027819334728968134 -0.01394113008522929 -0.08993828166513182 0.0034782384632609784 -0.019955397259520471 -0.051479822165065726 -0.061570988927594689
leaf_weight=217.00642838329077 29652.756326757371 60.835782311856747 749.98432219028473 91.997848749160767 315.93638045340776 989.10667531937361 911.14604267477989 106.38240958750248 207.40995499491692 802.67023448646069 104.88003847002983 42.228611245751381 656.18209557235241 90.847358755767345 1999.6432729586959 104.43692152202129 320.37645687907934 89.164232946932316 573.57796528935432 1494.5870507061481 8722.9595477730036 17.021474108099937 628.35127395391464 400.53802029043436 124.80904185026884 993.33442009985447 49.934048891067505 1338.8317587450147 1152.6055749505758 2342.4493414014578
leaf_count=2281 531994 467 10048 544 3838 9348 4588 507 1238 5442 474 186 5231 480 22058 461 3302 858 5904 12379 36340 81 4019 3356 1052 4542 409 12798 8504 13506
internal_value=0.000979314 -0.0592161 -0.0299022 -0.0920269 -0.0222591 -0.0252564 -0.0568093 -0.0313133 -0.0594568 -0.0302771 -0.0990572 -0.0113013 -0.0319632 -0.0812073 -0.00991648 -0.101408 -0.0224852 -0.0371564 -0.033397 -0.0265337 -0.102005 -0.0424393 -0.0452592 -0.0316071 -0.0436534 -0.0856676 -0.0460287 -0.0156395 -0.0483243 -0.0633504
internal_weight=55352 25699.2 13572.9 12126.3 10806 10056 2017.89 7025.06 2766.87 6918.67 10108.5 3030.98 6602.74 1176.18 2988.75 8932.28 2315.39 4287.35 3484.68 2068.17 8827.4 1106.75 1045.91 417.559 1416.51 1084.18 1327.35 1659.21 1277.41 2549.86
internal_count=706235 174241 118889 55352 101864 91816 12511 60224 17025 59717 42841 31592 55879 5566 31406 37275 21331 34548 29106 18283 36801 7923 7456 3437 10823 5022 9965 16100 9556 14744
cat_boundaries=0 25 50 53 79 185 210 316 340 364 390 413 519 544 569 594 620
cat_threshold=8 65568 16384 67108896 64 256 0 1107300352 2048 0 393216 262400 69222400 0 9437192 8388608 0 4 0 67108864 3072 2147483648 16777217 4096 32 0 33816577 0 14745602 0 536870912 0 147457 2151677974 16 201326592 0 0 0 0 16777217 536870912 33554465 2097152 512 68157696 0 0 0 4 671088640 0 8388624 0 2151677952 8192 0 8 2415919104 2147483648 16777216 41976896 2214592642 1048576 0 524288 0 0 32 8 32768 0 0 0 8194 536907776 0 4194816 2082 0 0 262144 0 0 0 0 0 0 0 0 0 0 0 0 0 0 0 0 0 0 0 0 0 2 0 32 4096 0 0 0 0 0 0 0 0 0 0 0 8192 0 0 0 0 0 0 0 0 0 0 0 0 16 134742272 0 0 0 0 0 0 0 0 0 0 0 0 0 0 0 0 0 0 32768 0 0 0 0 0 0 0 0 0 0 0 0 0 0 0 0 0 0 0 0 0 0 0 0 536870912 0 1024 0 0 0 0 33554432 260 0 8405132 0 33947648 0 0 0 67633152 1092616192 2105344 0 0 16777296 0 0 1024 2147483648 84148288 0 0 2149859360 0 4194304 2048 1 0 0 0 0 0 0 0 0 0 0 0 0 0 0 0 0 0 0 0 0 0 0 8388608 0 0 0 32 0 0 2048 0 0 268435456 4194304 0 0 0 0 0 0 0 0 0 0 0 0 0 0 0 0 0 0 0 0 0 0 0 0 0 0 0 0 0 0 0 0 0 0 0 0 0 0 0 0 0 67108864 0 0 134217856 0 0 0 524292 0 0 0 512 0 0 536875008 2 0 8192 536870912 0 805306400 0 0 8388608 10 0 1048576 0 0 8912896 2048 4194304 2099712 0 269484032 0 134217728 0 0 0 8388612 0 0 4194309 12 544 2147491840 16779266 10493968 0 262146 512 2097152 1024 131104 1342177280 16392 1082130432 0 1048592 4194304 0 2097168 521 4210692 64 516 4194432 0 671088896 0 1024 1073741824 0 536870912 16777224 64 0 268435456 536870912 128 0 2147483648 516 0 1073873408 4 0 64 16777216 32896 545259520 0 4096 0 0 67108864 67108864 9502720 33554436 1 136339456 262144 0 512 67635200 0 524288 2 0 4 1073741824 37748736 142609536 128 2 1048576 4096 2048 0 4194304 33563136 0 0 50331648 0 4096 1048832 0 0 0 0 0 0 0 0 0 0 0 0 0 0 0 16384 1073741824 0 67108864 0 0 0 0 262144 1026 536870912 0 0 0 0 0 0 0 0 0 0 16777216 256 0 0 0 0 0 0 0 0 0 2048 0 0 0 0 33554432 0 0 0 0 0 0 0 131072 0 0 0 0 0 0 0 0 4 536870912 0 0 0 16384 0 0 0 0 0 0 8 16384 0 0 0 128 0 8192 128 0 134217728 0 0 129 0 0 25165952 0 1024 0 262144 8448 0 0 8192 16793600 0 17039360 16777216 0 0 5 672 786432 0 16 1073741824 4096 2 268566596 0 1048576 0 67108864 1073743872 0 67110912 1073743872 0 8421376 0 8 1073741824 117440512 65 0 0 67108864 0 4722688 0 0 2097216 0 536879104 1024 2048 67174400 0 0 268435472 1 21037057 0 256 16384 4096 0 0 0 2097152 0 2416968704 201326600 33686016 4194304 0 128 32 0 4096 147456 134218760 0 16576 8388608 262144 144 4195328 2 1048582 0 2097664 1073741824 2097152 65536 1073741824 0 0 134219776 524290 2283808768 4 0 65536 2048 1107558400 0 0 128 134217728 147456 268435456 0 134217728 64
is_linear=0
shrinkage=0.05


Tree=10
num_leaves=31
num_cat=16
split_feature=2 4 7 9 9 12 0 0 0 8 0 9 13 9 1 9 9 9 1 1 9 1 0 9 5 7 9 12 0 9
split_gain=63633.4 8716.29 1106.41 1036.69 460.281 296.422 175.591 160.95 156.593 156.047 154.01 142.293 129.974 154.439 119.659 96.8146 88.8296 88.7552 86.3985 78.2448 77.1401 68.8133 56.235 94.9778 52.5958 51.479 51.0406 49.6249 60.934 42.6304
threshold=1.0000000180025095e-35 1.0000000180025095e-35 0.23500000000000001 0 1 290.50000000000006 1550.0000000000002 1150.0000000000002 1850.0000000000002 2 2850.0000000000005 3 181.00000000000003 4 5 6 7 8 9 10 11 12 1.0000000180025095e-35 13 1622.5000000000002 0.58500000000000008 14 306.00000000000006 1550.0000000000002 15
decision_type=2 2 2 9 9 2 2 2 2 9 2 9 2 9 9 9 9 9 9 9 9 9 2 9 2 2 9 2 2 9
left_child=1 3 6 9 -5 8 18 14 11 -1 15 -6 16 -14 -4 -7 -13 -9 -3 -19 -15 -8 -16 -24 -25 26 -18 -21 -29 -22
right_child=-2 2 7 4 5 10 21 17 -10 -11 -12 12 13 20 22 -17 25 19 -20 27 29 -23 23 24 -26 -27 -28 28 -30 -31
leaf_value=-0.012191143333334499 0.052986048862745119 -0.054636084908124861 -0.0045174736543156071 0.01714623319246612 -0.047562550046158336 0.0023812937560429063 -0.0030407688412790066 -0.029240002071467642 -0.08828269098705302 -0.05841986488310158 -0.10199476222794973 0.0073854600490696233 0.0022274068011402834 -0.037970517606563989 -0.10445420146695515 -0.016056121857820554 -0.0069638318608189094 -0.039663320352177914 -0.017315932355412823 -0.09779972563802744 -0.030616132111538463 -0.06491378071558318 -0.010007943753706013 -0.089067041623040355 -0.064184876607025695 0.00031384286282757544 -0.043133176090852959 -0.066382935701412446 -0.092181011920700759 -0.016181840985073807
leaf_weight=219.21566196531057 28291.152464181185 253.07586680352688 69.748008325695992 738.39675278961658 865.86874283850193 1105.1132182255387 58.770195007324219 83.738292410969734 110.78251441568136 2604.2749169915915 45.706257164478302 113.87055356055498 634.66968892514706 857.05388010293245 186.68515448272228 2000.8362994417548 122.79525709152222 112.01323255896568 462.30949062854052 6704.7648921757936 756.43690820783377 1197.0411304235458 70.219420082867146 547.91637030243874 346.80868437886238 79.33090603351593 1618.9469314366579 258.09524382650852 2022.6901380121708 1951.8685862794518
leaf_count=2281 531994 1791 434 10042 5808 12490 311 367 531 14557 194 1247 7229 6385 766 19848 1138 496 3716 27397 6200 6240 390 2443 1603 666 11914 1088 8310 18359
internal_value=0.000989936 -0.0551583 -0.0856425 -0.0278741 -0.0208728 -0.0236221 -0.0512961 -0.0921508 -0.0293019 -0.0548864 -0.0108808 -0.0283686 -0.0255404 -0.0206424 -0.0750991 -0.00954002 -0.0363043 -0.0944192 -0.0315241 -0.0948827 -0.0246505 -0.0625593 -0.0786516 -0.0744747 -0.0785445 -0.0388633 -0.0408708 -0.0955262 -0.0892617 -0.0203112
internal_weight=54490.2 26199 12373.9 13825.2 11001.7 10263.3 1971.2 10402.7 7111.62 2823.49 3151.66 7000.84 6134.97 4200.03 1221.38 3105.95 1934.94 9181.3 715.385 9097.56 3565.36 1255.81 1151.63 964.944 894.725 1821.07 1741.74 8985.55 2280.79 2708.31
internal_count=706235 174241 55352 118889 102051 92009 12058 43294 59477 16838 32532 58946 53138 38173 5636 32338 14965 37658 5507 37291 30944 6551 5202 4436 4046 13718 13052 36795 9398 24559
cat_boundaries=0 24 49 52 77 102 208 233 259 282 388 494 519 620 645 669 693
cat_threshold=8 66080 16384 67108896 1048640 256 0 1107296256 2048 0 393216 262400 69222400 0 9437192 8388608 0 4 0 67108864 3072 2147483648 16777217 4096 0 33816577 0 6356994 0 536870912 0 147457 2151677974 16 201326592 0 0 0 0 16777217 536870912 33554465 2097152 512 68157760 0 0 0 4 671088640 0 8388624 1342177280 2113544 1073741824 0 16 4194304 0 4112 1 12599300 32832 512 4194304 0 671088896 0 16778240 0 0 536870912 16777224 576 0 268435456 131104 0 71303184 0 2147483648 0 268435456 0 2148532228 142606400 2147484290 1048576 32768 537395200 32 0 32 0 32770 0 16384 8388612 0 134254608 0 514 0 0 0 0 0 0 0 0 0 0 0 0 0 0 0 0 0 0 0 0 0 0 0 0 0 0 32 0 0 0 0 0 0 0 0 0 0 0 0 0 0 0 0 0 0 0 0 0 0 0 0 0 16 524544 0 0 0 0 0 0 0 0 0 0 0 0 0 0 0 0 0 0 0 0 0 0 0 0 0 0 0 0 0 0 0 0 0 0 0 0 0 0 0 0 0 0 0 536870912 0 1024 0 0 1 0 33554432 256 2147500032 569344 0 8912896 2 0 0 536870912 536887296 1024 0 268435456 1024 0 1073741824 64 0 542113792 0 0 21693064 0 131072 2214592512 128 16384 2147483648 270336 1090519040 8 2147483648 1 16777376 33850368 67108864 0 0 0 0 268435456 0 136 0 67108864 0 4096 8194 536870912 65536 12615680 34 2048 0 0 2 0 0 0 37748736 134220928 128 0 1048576 0 1073743872 0 4194560 8704 0 0 16777216 0 4096 1048832 0 0 0 0 2097152 0 0 0 0 0 0 0 0 0 0 0 0 0 0 0 0 0 0 0 0 0 0 0 0 0 0 0 0 0 0 0 0 0 0 8192 0 0 1024 0 0 0 0 0 0 0 0 0 10485760 256 0 0 0 0 0 0 0 8 0 0 0 0 0 0 0 0 81920 64 0 0 0 0 0 0 0 0 0 0 0 0 0 0 0 0 0 0 0 0 268435456 0 0 0 0 0 0 0 1073741840 4225 150994946 262144 0 256 0 0 0 0 0 0 0 0 0 0 0 0 0 0 0 0 0 0 0 0 0 0 0 0 0 0 36 0 0 2048 0 0 268435456 4194304 0 0 0 256 0 0 0 0 0 0 0 0 1024 0 0 64 0 0 0 0 0 0 0 0 0 0 0 0 0 0 0 0 0 0 0 0 0 0 0 0 64 67108864 32768 0 1152 0 0 0 524292 0 0 0 0 0 0 536875008 2 0 8192 536870912 0 805306400 0 0 8388608 8 0 1048576 0 0 8912896 2048 67108864 0 32768 1 256 33554432 0 2097152 262656 528392 0 0 2147483659 132 0 0 268435458 536881424 0 0 512 2097152 1024 131072 6408 0 0 0 0 0 0 4096 0 0 0 0 0 0 0 0 0 1073741824 0 0 32768 32 0 0 0 0 0 0 0 0 0 0 0 4194304 0 0 35651584 0 0 0 0 0 0 0 0 0 0 0 0 0 0 512 0 16 0 16 0 0 0 4194304 0 0 0 0 0 0 0 0 0 0 0 33554432 0 0 0 0 0 0 0 536870912 128 0 1 2147483648 0 0 0 0 0 8192 0 0 134217728 0 8388608 8454144 0 0 0 0 4194304 16384 0 8 536870912 34078720 1 0 0 67108864 0 4722688 0 0 2097216 0 536879104 0 0 0 0 0 268518416 1 20971520 0 256 16777216 0 16777728 0 2097152 2097152 0 268435968 67633152 1179648 524288 1207959552 4096 2 163908 67110912 34603008 0 0 1073741952 0 278528 1074266624 1024 0 0 67108864 269484032 0 134217728 1 64 32 0 8192 0 0 0 32 3489669120 1574912 10485888 0 786434 1073741824 256 2182349312 1140916224
is_linear=0
shrinkage=0.05


Tree=11
num_leaves=31
num_cat=14
split_feature=2 4 7 5 9 9 9 0 0 0 9 1 9 9 13 9 13 9 10 10 7 1 9 13 9 9 11 0 1 0
split_gain=58415.2 7767.95 1026.42 892.917 433.709 299.303 252.118 246.028 158.187 157.131 147.132 124.552 104.435 84.2681 80.4874 73.937 68.4872 66.9024 63.6296 62.9554 62.8506 61.0975 58.4376 55.9595 65.7692 55.4506 44.2303 42.0945 54.7431 44.3797
threshold=1.0000000180025095e-35 1.0000000180025095e-35 0.26500000000000007 1809.0000000000002 0 1 2 1950.0000000000002 1350.0000000000002 1850.0000000000002 3 4 5 6 283.50000000000006 7 213.50000000000003 8 2915.0000000000005 71.500000000000014 0.57500000000000007 9 10 47.500000000000007 11 12 130.50000000000003 1250.0000000000002 13 1.0000000180025095e-35
decision_type=2 2 2 2 9 9 9 2 2 2 9 9 9 9 2 9 2 9 2 2 2 9 9 2 9 9 2 2 9 2
left_child=1 3 9 4 16 -5 -6 10 12 21 -7 -10 -4 -12 20 -16 -1 -13 19 -14 22 -3 -8 -24 -25 -15 -23 29 -29 -28
right_child=-2 2 8 5 6 7 14 -9 11 -11 13 17 18 25 15 -17 -18 -19 -20 -21 -22 26 23 24 -26 -27 27 28 -30 -31
leaf_value=-0.082989159583584535 0.052831950544168942 0.012250840831727231 -0.017248088542918032 0.015018076378277954 0.0076746443915943902 -0.037122816095003716 -0.0053302376478196788 -0.076668034724766937 -0.033081972728238311 -0.063421520728622643 0.00404980308968523 -0.038025641071872264 -0.0545030388368479 -0.029579847005362449 -0.034392139245823447 -0.013226396270799808 -0.051500466839406039 -0.091084408209399517 0.0071269082626904514 -0.081454399876753 0.0028974883679007686 -0.091362110863164828 -0.059654525055427066 -0.012881635296879516 -0.04254777857193278 -0.012530310300195184 -0.10661271158838051 -0.068494529908968968 -0.033009318596541569 -0.021562016746449475
leaf_weight=184.51105213165283 26987.887792751193 63.328074961900711 100.90926823019981 834.17497247457504 444.78516964614391 668.39680419117212 130.39228947460651 167.31948155164719 135.97969587147236 964.8467140942812 691.49392594397068 109.2246091067791 248.74867321550846 553.74722879379988 867.53816737234592 865.39563903957605 2692.8479517400265 8132.3153356313705 22.215057015419006 1680.5068256705999 88.30973519384861 38.946615420281887 379.79566818475723 250.72419753670692 1392.9566503316164 3845.9168043211102 15.943794950842856 191.25415970385075 451.01119786500931 403.66661939024925
leaf_count=1018 531994 477 461 11043 5217 4965 1159 843 585 4588 8077 462 1114 4560 5881 8143 15214 32867 162 7190 720 178 2378 2097 9827 37747 73 1097 2817 3281
internal_value=0.000996515 -0.0515608 -0.0801389 -0.0260308 -0.0381601 -0.0129395 -0.0280974 -0.0168713 -0.086597 -0.0485008 -0.0151634 -0.0896448 -0.0741563 -0.0121836 -0.0321092 -0.0240971 -0.0533343 -0.0904282 -0.076618 -0.0779794 -0.0384449 -0.0361346 -0.0401399 -0.0421484 -0.0383598 -0.0147384 -0.038678 -0.0371099 -0.0451565 -0.0247937
internal_weight=53605.1 26617.2 12558.9 14058.3 7297.26 6761.05 4419.9 5926.87 10429.9 2129 5759.55 8377.52 2052.38 5091.16 3975.11 1732.93 2877.36 8241.54 1951.47 1929.26 2242.18 1164.15 2153.87 2023.48 1643.68 4399.66 1100.82 1061.88 642.265 419.61
internal_count=706235 174241 55352 118889 51654 67235 35422 56192 42841 12511 55349 33914 8927 50384 30205 14024 16232 33329 8466 8304 16181 7923 15461 14302 11924 42307 7446 7268 3914 3354
cat_boundaries=0 23 48 74 98 204 228 253 278 304 410 436 459 483 587
cat_threshold=8 40 8404992 67108896 1048640 256 0 0 2048 4194308 0 262404 69206016 0 9437192 8388608 1024 4 0 67108864 16780296 2147483648 16777217 8 33816577 0 6356992 0 268435456 0 1196032 2722103296 16 0 0 0 0 0 33 0 33554465 0 576 72878472 0 0 0 4 0 2151677952 8192 2 8 2684354560 2147483648 16777217 22 67108864 201326592 134217728 536870912 0 0 16777216 536870912 0 2097152 0 516 0 32768 2147483648 128 2080 67108864 2099712 0 1310720 0 0 0 33554432 32 8388672 270336 0 16777217 4 544 2147484672 16777218 10756368 0 0 0 2097152 1024 1073741824 0 0 0 0 0 0 0 0 0 0 0 0 0 0 0 0 0 0 0 0 64 0 8388608 0 0 0 32 0 0 2048 0 32 0 4194304 0 0 0 0 0 0 0 0 256 0 0 0 1040 0 0 0 268435456 0 0 0 32 0 0 0 0 0 0 0 0 0 0 0 0 0 0 0 0 0 0 0 0 67108864 0 0 134217856 1048576 0 0 524288 0 0 0 512 0 0 537133056 2 0 8192 536870912 0 805306400 0 0 0 10 0 1048576 0 0 8912896 2048 2147483648 2050 0 1048576 65 0 134217728 33554432 1074790400 1572868 64 0 64 592 545259520 1024 0 1048576 0 1048576 536871968 67108864 6291456 16777216 2147483648 134774792 0 8388608 0 0 0 536870912 8421440 2181038210 1048576 0 1024 0 0 4160 0 672169984 0 128 196672 2 537006080 0 4194816 1342177280 0 67108864 0 0 0 1 2097168 262656 16392 0 0 10 128 536870912 1073741824 269484032 536870912 0 537395200 1073741824 0 1310720 268435456 2080 67110912 0 524288 2 147457 4 1073741824 37748736 134218880 128 0 1081345 0 16 0 0 33554432 0 0 50335744 0 4096 1048832 0 4194304 512 0 0 0 0 0 0 0 0 0 0 0 0 0 0 0 16384 1073741824 0 67108864 0 0 0 0 262144 1026 536870912 0 0 0 0 0 0 0 0 0 0 16777216 256 0 0 0 0 0 0 0 0 0 2048 0 0 0 0 33554432 0 0 0 0 0 0 0 131072 0 0 0 0 0 0 0 0 4 536870912 0 0 0 16384 0 0 0 0 0 0 8 16384 33554432 0 0 128 0 8192 128 0 134217728 0 0 129 0 0 25165952 0 1024 0 262144 256 0 0 8192 17842180 256 16777216 0 2097152 0 1 128 524288 134217728 16 1073776640 4096 0 196608 2048 34668544 8388608 0 0 0 155648 268435456 0 134250496 66 8194 0 133120 1073741824 512 66048 1073872896 0 0 64 16842752 2147483776 142639104 268435456 64 136314880 1207959808 335675392 2147483648 256 0 1024 16384 4194304 8388864 0 301989888 128 134217728 2048 67108928 0 2105344 4 0 4194308 8 16384 8192 542720 67174400 0 262146 2147483648 0 176160768 133152 1 0 0 0 0 0 0 0 0 0 0 0 0 0 0 0 0 0 0 0 0 0 0 0 4096 0 16 0 0 0 0 0 0 0 0 0 0 0 0 8192 0 524288 1024 0 0 33554432 0 0 0 0 0 0 2097152 1028 0 0 0 0 0 0 0 8 0 0 0 0 0 0 0 1073741824 16385 64 2 0 0 0 0 0 0 0 0 16777344 0 0 0 0 0 0 0 0 0 0 131072 0 0 0 0 0 524288 0 1074790400 131201 150994978 1074036736
is_linear=0
shrinkage=0.05


Tree=12
num_leaves=31
num_cat=16
split_feature=2 4 5 5 9 9 9 0 9 9 0 0 1 9 13 9 13 9 1 11 1 9 9 0 12 9 9 7 0 1
split_gain=53760.7 6983.35 960.795 771.475 372.753 266.892 229.889 223.167 152.082 134.594 130.038 125.324 104.952 78.5159 74.4745 74.0416 73.049 109.038 63.2351 63.9807 61.0959 49.8664 47.9651 46.5798 43.654 60.6371 43.6301 39.6307 37.133 37.0886
threshold=1.0000000180025095e-35 1.0000000180025095e-35 1.0000000180025095e-35 1809.0000000000002 0 1 2 1950.0000000000002 3 4 1750.0000000000002 1350.0000000000002 5 6 164.50000000000003 7 72.500000000000014 8 9 673.50000000000011 10 11 12 950.00000000000011 192.50000000000003 13 14 0.57500000000000007 3050.0000000000005 15
decision_type=2 2 2 2 9 9 9 2 9 9 2 2 9 9 2 9 2 9 9 2 9 9 9 2 2 9 9 2 2 9
left_child=1 3 10 4 14 -5 -6 9 -4 -7 20 15 -13 -11 -1 -10 21 -18 -17 -20 23 27 -15 -3 -14 -26 -19 -8 -9 -12
right_child=-2 2 8 5 6 7 16 28 11 13 29 12 24 22 -16 18 17 26 19 -21 -22 -23 -24 -25 25 -27 -28 -29 -30 -31
leaf_value=-0.089929038103205738 0.052686213600395618 -0.023322361628614317 -0.022265769663771195 0.014675668155990149 0.0071125668413538085 -0.035475167325641814 -0.077702270068951598 -0.055516495918568678 -0.022037995269645838 0.0040264205114942222 -0.013150265708737044 -0.032187156751887942 -0.088426119111316787 -0.02710252967215554 -0.048105956075520484 -0.015460625744162943 -0.0041295800988192521 -0.04249246291946595 -0.076789647797354935 -0.011269045418470793 -0.022002716157883913 -0.034473137073499832 -0.011759545782077073 -0.066957842866396541 -0.091802782132549318 -0.073002865866317643 -0.026846813075863632 0.0081398553037709178 -0.10480551133894896 -0.058740209573382489
leaf_weight=110.66431428492069 25740.889316104352 91.008810430765152 135.84203906357288 809.66085541248322 463.48384968936443 652.90228838473558 176.69266079366207 113.37433484941721 105.62029606103897 711.1839363053441 70.838771522045135 135.68287736177444 5053.4042610824108 597.97346785664558 2790.1873989999294 67.602544650435448 466.03386051207781 672.95942062139511 1853.8917350172997 38.023373752832413 720.83766910433769 552.81080311536789 3875.8269847407937 186.46382247656584 1323.2069659978151 1979.4119144380093 2209.688168361783 14.552684381604193 57.638692811131477 931.43398763239384
leaf_count=583 531994 690 585 10776 5457 4731 1026 605 483 8375 345 578 20267 4862 15316 363 4514 4002 7761 233 5139 3683 37651 1123 5325 8023 16965 108 235 4437
internal_value=0.000999756 -0.0483332 -0.0753156 -0.0243416 -0.0354562 -0.0121861 -0.0263288 -0.0158037 -0.0812658 -0.0141808 -0.0435129 -0.0819263 -0.0846905 -0.011409 -0.0495307 -0.070957 -0.030124 -0.0270489 -0.0731082 -0.075076 -0.0307401 -0.0443687 -0.0138662 -0.0508144 -0.0854023 -0.0810341 -0.0306336 -0.0676337 -0.072129 -0.0562353
internal_weight=52709.8 26968.9 12693.3 14275.6 7457.07 6818.56 4556.22 6008.9 10692.7 5837.89 2000.58 10556.8 8491.71 5184.98 2900.85 2065.14 4092.74 3348.68 1959.52 1891.92 998.31 744.056 4473.8 277.473 8356.02 3302.62 2882.65 191.245 171.013 1002.27
internal_count=706235 174241 55352 118889 51654 67235 35755 56459 43618 55619 11734 43033 34193 50888 15899 8840 30298 25481 8357 7994 6952 4817 42513 1813 33615 13348 20967 1134 840 4782
cat_boundaries=0 23 48 74 97 121 227 252 278 304 410 514 539 563 587 612 713
cat_threshold=8 40 1082146816 32 64 256 0 0 2048 4 0 262916 69222400 0 1048584 8388608 1024 4 0 67108864 16780296 2147483648 16777217 8 262145 0 14745600 0 268435456 0 1064960 2185232384 16 0 0 0 0 0 1 0 33554465 0 576 72878536 0 135168 0 4 16384 2151677952 8192 2 8 2684354560 2147483648 16777345 22 67108864 201326592 134217728 537395200 0 0 16777216 536870912 0 2097152 0 516 0 32768 2147483648 128 2082 2052 1073741824 0 128 16641 0 1073741824 54525952 142609408 134217856 2 33587201 0 1073741824 0 4194560 0 0 0 16777216 8388608 16384 256 67108864 2099712 0 1310720 0 0 0 33554432 32 8388672 270336 0 16777221 4 544 1024 16777218 10756368 0 0 0 2097152 1024 1073743872 0 0 0 0 0 0 0 0 0 0 0 0 0 0 0 0 0 0 0 2048 64 0 0 0 0 0 36 0 0 2048 0 0 0 0 0 0 0 0 0 0 0 0 0 0 0 0 0 0 0 0 268435456 0 0 0 32 0 4 0 0 0 0 0 0 0 0 0 0 0 0 0 0 0 0 0 4096 2214592512 0 0 128 1048576 0 0 524288 0 0 0 512 524288 0 537137152 2 0 0 0 2 805306400 0 0 0 10 0 1048576 0 0 8912896 2048 2147483648 34111496 0 0 0 0 0 2684485632 8388608 2181038210 1048576 0 1024 0 0 4192 8 672169984 0 128 196608 2 536870912 0 4194818 3221225472 2050 0 17825792 64 0 134217728 0 1074790400 1572868 64 0 64 594 536870912 1024 0 1048576 0 1048576 536871968 67108864 6291456 16777216 0 32 2 256 131072 3221487616 0 65536 1073742336 0 0 64 0 2147516544 135270400 0 8392704 0 0 343932928 0 8388608 0 67240961 2121728 262144 0 64 0 0 0 0 0 0 0 0 0 0 0 0 0 0 0 0 0 0 0 0 0 0 0 0 1073741824 0 32 0 0 0 0 0 268435456 0 0 0 0 0 0 0 0 0 0 0 0 0 0 0 0 0 0 0 0 0 0 0 0 0 0 0 0 0 0 0 0 0 0 0 0 4 0 0 0 0 0 0 0 0 0 0 0 0 4 0 0 0 0 0 0 0 0 0 0 0 0 0 0 536870913 0 1024 0 0 1 0 33554432 256 1 0 0 0 2097152 0 0 0 0 0 0 0 0 0 0 0 0 0 0 0 0 0 0 0 0 0 0 0 0 0 0 0 0 0 0 0 0 0 0 8192 0 524288 1024 0 0 33554432 0 0 0 0 0 0 10485760 0 0 0 0 0 0 0 0 0 0 0 0 0 0 0 0 1073741824 16384 64 0 0 0 0 0 0 0 0 0 0 0 0 0 0 0 0 0 0 0 0 0 0 0 0 0 0 524288 0 1073741824 1 150994946 262144 0 65536 4 262144 36864 5767170 33556480 2147483648 0 0 33685544 0 1024 81920 8388864 132 64 1342177280 0 2147483648 0 4194880 0 0 34078720 4194304 8388864 0 301989888 128 134217728 0 67108928 0 2105344 4 0 0 1073741832 16448 2147491840 542720 67108864 0 262146 2147483648 0 176161024 196640 0 524808 0 131072 4 0 0 8470528 17825792 1319168 0 0 4194304 0 0 64 0 556269632 0 0 1077170216 8 0 131072 268435456 0 0 67108864 1114128 33554432 0 1075843088 521 4210720 1073791040 0 4194304 0 671088640 0 32768 8 0 536870920 0 0 0 268566530 131104 0 0 0 0 0 0 0 0 0 0 0 0 0 0 0 0 1073741824 0 0 32768 0 16 0 0 0 0 0 0 0 0 0 0 0 0 0 4 0 0 0 0 0 0 0 0 0 0 0 0 0 0 2147483648 0 2097152 0 16 0 0 1048576 4194304 0 0 0 0 0 0 0 0 0 0 0 0 0 0 0 0 6 0 16384 536870912 128 0 16777217 0 34603008 0 67108864 0 65536 8192 0 0 0 0 0 16384 0 0 0 0 4194304 16384
is_linear=0
shrinkage=0.05


Tree=13
num_leaves=31
num_cat=15
split_feature=2 4 7 5 9 9 9 0 0 1 0 9 9 9 13 1 0 0 9 11 13 9 1 0 9 1 11 9 9 0
split_gain=49591.5 6322.41 912.087 669.373 320.17 242.99 202.948 192.204 160.334 134.535 122.219 121.247 105.807 74.5622 65.1466 62.9383 62.8367 57.7052 76.8264 56.4952 55.316 88.354 54.0272 43.8565 128.491 46.9272 42.1391 41.0751 40.3644 39.726
threshold=1.0000000180025095e-35 1.0000000180025095e-35 0.26500000000000007 1809.0000000000002 0 1 2 1950.0000000000002 1050.0000000000002 3 1850.0000000000002 4 5 6 213.50000000000003 7 1750.0000000000002 1.0000000180025095e-35 8 332.00000000000006 72.500000000000014 9 10 1650.0000000000002 11 12 673.50000000000011 13 14 1.0000000180025095e-35
decision_type=2 2 2 2 9 9 9 2 2 9 2 9 9 9 2 9 2 2 9 2 2 9 9 2 9 9 2 9 9 2
left_child=1 3 10 4 14 -5 -6 11 9 29 22 -7 -10 -13 -1 -14 20 -11 -19 -20 28 -22 -3 24 -17 -26 -27 -15 -8 -4
right_child=-2 2 8 5 6 7 16 -9 12 17 -12 13 15 27 -16 23 -18 18 19 -21 21 -23 -24 -25 25 26 -28 -29 -30 -31
leaf_value=-0.076325615713311479 0.052548352360927621 0.01327794221441776 -0.11826048641470055 0.013718394554558378 0.0066791320223070459 -0.033880532244856688 -0.0037571396845101539 -0.066850956863603553 -0.027455774515424605 -0.089392791739419289 -0.054767807829080667 0.003495000200217418 -0.030084147904686998 -0.025711967833561764 -0.044217819715069849 -0.015442508136684744 -0.084404100957539738 -0.095266235881646441 -0.053207015672749894 -0.0042587249545856607 -0.0040547724593378185 -0.027989535404761907 -0.033541879624234813 -0.082785520103196814 -0.018170505610505854 -0.079437224883572133 -0.035109363297637267 -0.011407752265209964 -0.043747797462903644 0.0067286976931011976
leaf_weight=167.39575044810772 24548.105838030577 64.912125557661057 6.7907992303371421 834.91574137657881 468.06558872014284 641.17812038958073 84.039789102971554 173.54920759052038 134.81296533346176 182.17937476933002 1007.9971914887428 771.13174310326576 104.52029399573803 589.76644442975521 2809.5814946591854 107.6248779296875 49.1264294013381 121.25196935236454 448.9247894436121 67.859780594706535 462.95353800803423 2903.9034748151898 1145.8581593632698 6152.2116564065218 56.759858831763268 3027.0407623797655 54.579923272132874 3861.0426230058074 659.16801693290472 99.576539449393749
leaf_count=854 531994 476 29 11260 5472 4528 669 836 564 732 4588 8943 449 4590 15069 437 232 511 1953 368 4490 20817 7447 24626 228 12155 241 37078 4051 548
internal_value=0.000998928 -0.0454244 -0.0710495 -0.0227961 -0.0330169 -0.0114856 -0.024596 -0.0149694 -0.0771704 -0.0573045 -0.0419065 -0.0134593 -0.0790803 -0.0108661 -0.0458692 -0.0797 -0.0281232 -0.0637959 -0.057487 -0.0458915 -0.0275189 -0.0247936 -0.0311991 -0.0802192 -0.0756023 -0.0773696 -0.0783977 -0.0133566 -0.039865 -0.00114347
internal_weight=51806.8 27258.7 12782.9 14475.8 7604.23 6871.58 4627.26 6036.67 10564.1 926.583 2218.77 5863.12 9637.55 5221.94 2976.98 9502.74 4159.19 820.216 638.037 516.785 4110.06 3366.86 1210.77 9398.22 3246.01 3138.38 3081.62 4450.81 743.208 106.367
internal_count=706235 174241 55352 118889 51654 67235 35731 55975 42841 4141 12511 55139 38700 50611 15923 38136 30259 3564 2832 2321 30027 25307 7923 37687 13061 12624 12396 41668 4720 577
cat_boundaries=0 23 48 74 180 204 229 254 360 382 408 514 537 643 667 692
cat_threshold=8 40 8404992 67108896 1048640 0 0 0 2048 4 0 262916 69206016 0 1048584 8388608 1024 4 0 67108864 16780296 2147484160 16777217 8 33816577 0 6356992 0 268435456 0 1196032 2722103296 16 0 0 0 0 0 33 0 33554465 0 576 72354184 0 0 0 516 16384 2151677952 8192 262146 8 2684354560 0 16777345 22 67108864 201326592 134219776 536870912 0 0 16777216 536870912 0 2097152 0 516 0 32768 2147483648 128 2082 0 0 0 0 2097152 0 0 0 0 0 0 0 0 0 0 0 0 0 0 0 0 0 0 0 0 0 32 0 0 0 0 0 0 0 0 0 0 65536 0 0 0 0 0 0 0 0 0 0 0 0 0 0 0 524544 0 0 0 0 0 0 0 0 0 0 0 0 0 0 0 0 0 2048 0 0 0 0 0 0 0 0 0 0 0 0 0 0 0 0 0 0 0 0 0 0 0 0 0 536870912 0 1024 0 0 0 512 33554432 260 71303168 2099712 0 1310720 0 0 0 33554432 32 10485824 270336 0 16777221 4 544 1024 16777218 2367760 0 0 0 2097152 1024 1073743872 526336 4194304 0 2 1 0 0 37748736 142609536 134218896 536870912 33554432 0 1073741824 16384 4194560 512 0 2097152 16777216 0 0 1048832 0 4194304 2147483648 134778888 0 524288 0 0 0 536870912 8421440 2181038722 1048576 0 1024 0 0 4160 0 135299072 0 128 720960 2 537001984 0 4194304 0 0 0 0 0 0 0 0 0 0 0 0 0 0 0 0 0 0 0 1073741824 64 0 8388608 0 0 0 36 0 0 2048 0 0 268435584 4194304 0 0 0 256 0 0 0 0 0 0 0 0 0 0 0 0 0 0 0 0 0 0 0 0 0 0 0 0 0 0 0 0 0 0 0 0 0 0 0 0 0 0 32768 0 128 0 0 0 4 0 0 0 512 0 0 262144 2 0 8192 0 0 805306400 0 0 8388608 10 0 1048576 0 0 8912896 2048 16843264 0 2148532224 262144 0 536870912 0 8388608 8192 65792 2147483648 4718592 2560 0 1024 0 2147483648 268435460 512 2214592640 2097152 2048 2 256 131072 3221225472 512 65536 1073742336 0 0 16777280 0 2147516544 135794688 0 8392704 0 0 343932928 0 8388608 0 67240961 2121728 0 0 64 0 0 0 0 0 0 0 0 0 0 0 0 0 0 0 16384 1073741824 0 67108864 0 0 0 0 262144 1026 536870912 0 0 0 0 0 0 0 0 0 0 16777216 256 0 0 0 0 0 0 0 0 0 2048 0 0 0 33554432 33554432 0 0 0 0 0 0 0 0 0 0 0 0 0 0 0 0 4 536870912 0 524288 0 16384 0 0 0 0 0 0 0 16384 33554432 0 0 128 0 8192 128 0 134217728 0 0 129 0 0 16777344 0 1024 0 0 256 0 0 8192 0 1024 0 0 0 0 0 16385 1077936128 304087040 0 671088640 524352 0 64 268436994 134234112 131072 0 262144 536937488 4194305 2151677952 0 0 0 0 0 0 4096 0 0 0 0 0 0 0 67108864 0 0 0 0 0 0 0 256 0 1073741824 0 0 0 0 0 0 0 0 0 0 0 0 0 0 0 0 0 0 0 0 0 0 0 0 0 0 0 0 524288 32 0 0 0 0 0 8192 0 2147483648 0 0 0 0 0 0 0 0 0 0 0 0 0 0 0 0 0 0 0 1048576 0 0 0 0 0 0 0 0 0 0 0 2 0 0 0 0 0 0 0 0 0 1073741824 8194 0 8388864 0 301989888 8320 134217728 2048 67108928 0 8192 4 0 4194306 1073741832 16384 2147491840 542720 75497472 0 262146 2684354560 0 134217984 131104 17825796 0 2424832 0 2097152 0 0 4128 524288 134219776 16 1075838992 0 0 268632128 2048 34603008 0 0 0 0 24576 268435456 0 142639104
is_linear=0
shrinkage=0.05


Tree=14
num_leaves=31
num_cat=16
split_feature=2 4 7 9 9 0 12 9 0 0 1 9 8 9 1 13 9 1 9 1 0 9 11 12 9 0 1 0 9 0
split_gain=45834.6 5759.72 870.357 583.638 293.403 182.111 198.771 154.429 133.16 112.364 99.8039 98.5181 95.0579 79.3464 76.856 71.9085 89.573 69.696 68.4438 66.8765 46.4388 63.9645 73.779 42.2322 66.7423 42.1182 60.8409 41.6311 41.9725 38.5263
threshold=1.0000000180025095e-35 1.0000000180025095e-35 0.19500000000000003 0 1 1950.0000000000002 290.50000000000006 2 1150.0000000000002 1450.0000000000002 3 4 5 6 7 181.00000000000003 8 9 10 11 1.0000000180025095e-35 12 336.50000000000006 298.50000000000006 13 2450.0000000000005 14 1.0000000180025095e-35 15 1650.0000000000002
decision_type=2 2 2 9 9 2 2 9 2 2 9 9 9 9 9 2 9 9 9 9 2 9 2 2 9 2 9 2 9 2
left_child=1 3 9 12 -5 6 11 -4 10 17 -9 -6 -1 -13 -10 -15 -17 -3 -8 -11 -12 -22 -23 -16 -25 26 -21 28 -18 -26
right_child=-2 2 7 4 5 -7 18 8 14 19 20 13 -14 15 23 16 27 -19 -20 25 21 22 -24 24 29 -27 -28 -29 -30 -31
leaf_value=-0.0075204355054264488 0.052417895776456891 -0.043975549615933612 -0.020800829454921194 0.015888919766165133 0.0049729202746536423 -0.062529506042071498 -0.018688373782727554 -0.0075012181264328508 -0.029890667284564167 -0.0004515445378837799 -0.086277091049105858 -0.037466964809097336 -0.043300386366093097 -0.028729337785100326 -0.078586409039198585 -0.00076982730166071914 -0.030330827747504258 -0.008711421561254146 -0.0020945944388060418 -0.076334495767679519 -0.088418371108740665 -0.056362847049956644 -0.0082338693556618762 -0.043440822704639517 -0.059520356282230263 -0.067115663789181032 -0.038544959172606169 0.021516119281999792 -0.017655599263162555 -0.077820230935780471
leaf_weight=218.55389847606421 23407.527780793607 206.54666973650455 168.46083837747574 666.30683469027281 336.27571225911379 226.71575178951025 848.18936908990145 104.40443649142981 133.69957676529884 87.934102565050125 183.74422051012516 846.85450537502766 2844.6114136874676 2002.1013159006834 6764.0126674920321 702.5574829056859 952.16920945048332 445.69763688743114 2284.8934123069048 144.43447795510292 185.07258284091949 711.55260318517685 89.660336919128895 311.06801030039787 345.46621802449226 249.32690654695034 982.82083601504564 58.184300951659679 2674.75042578578 1717.2746869176626
leaf_count=2147 531994 1334 711 9449 4170 1058 7437 565 563 446 738 5179 14434 14004 27113 7329 6318 3410 24621 719 760 2996 461 1248 1397 1085 4933 455 22288 6873
internal_value=0.000996961 -0.0427823 -0.067246 -0.0213735 -0.0161993 -0.0181677 -0.0172452 -0.0730341 -0.0737788 -0.0379483 -0.0586947 -0.0216274 -0.0407803 -0.0228388 -0.0759318 -0.0208445 -0.0172942 -0.0206863 -0.0066532 -0.0456361 -0.0626631 -0.0588992 -0.0503485 -0.076489 -0.0708349 -0.0481693 -0.044406 -0.0203871 -0.0211155 -0.0743947
internal_weight=50900.9 27493.3 12831.2 14662.2 11599 10932.7 10706 10714.4 10546 2116.76 1274.43 7572.89 3063.17 7236.62 9271.52 6389.76 4387.66 652.244 3133.08 1464.52 1170.03 986.286 801.213 9137.82 2373.81 1376.58 1127.26 3685.1 3626.92 2062.74
internal_count=706235 174241 55352 118889 102308 92859 91801 43425 42714 11927 5520 59743 16581 55573 37194 50394 36390 4744 32058 7183 4955 4217 3457 36631 9518 6737 5652 29061 28606 8270
cat_boundaries=0 24 49 72 178 204 207 232 338 362 468 493 596 619 644 748 773
cat_threshold=8 66080 1073758208 32 80 0 0 33558528 2048 0 393216 262912 69222400 0 1048584 8388608 0 4 0 67108864 3072 2147484160 16777217 4096 0 262145 0 14745602 0 536870912 0 16385 2185232406 67108880 201326592 0 0 0 0 16777217 536870912 33554465 2097152 0 68157696 0 4096 0 4 2052 1077936128 0 0 16641 0 1073741888 54525952 142609408 134218880 2 33587201 0 3221225472 0 4194560 0 0 0 16777216 8388608 16384 1048832 0 0 0 0 2097152 0 0 0 0 0 0 0 0 0 0 0 0 0 0 0 0 0 0 0 0 0 32 4096 0 0 0 0 0 0 0 0 0 0 0 8192 0 0 0 0 0 0 0 0 0 0 0 0 16 256 0 0 0 0 0 0 0 0 0 0 0 0 0 0 0 0 0 0 32768 0 0 0 0 0 0 0 0 0 0 0 0 0 0 0 0 0 0 0 0 0 0 0 0 536870912 0 1024 0 0 1 0 33554432 260 16384 2185232384 8192 0 8 2147483648 2147483648 16777216 33856 2147483778 1048576 0 524288 0 0 32 136 32768 0 0 4096 8194 536903680 0 4194818 2082 671088640 0 8388608 268435456 2113544 8388608 67108864 1048576 4718848 0 1073741840 1 8388612 8421440 0 4194304 0 142606592 0 16811008 0 0 536870912 16777224 64 0 268435456 131104 0 0 0 0 0 0 0 0 0 0 0 0 0 0 0 0 0 0 0 0 64 16777216 8388608 0 0 0 36 0 0 2048 0 32 268435456 0 0 0 0 0 0 0 0 0 0 0 0 0 1024 0 0 0 268435456 0 0 0 0 0 0 0 0 0 0 0 262144 0 65536 0 0 0 0 0 0 0 0 0 64 67108864 32768 0 128 0 0 0 524288 0 0 0 512 0 0 537137152 2 0 8192 0 0 805306400 0 0 8388608 8 0 1048576 0 0 8912896 2048 0 67108880 0 2281701376 0 285212672 512 2148532228 142606336 576 0 32896 537001984 32 4096 0 0 67108866 0 8406016 8388612 1 134225936 262144 0 0 0 0 2097152 0 0 0 0 0 0 0 0 0 0 0 0 0 0 0 0 0 0 0 0 0 0 0 0 0 0 0 0 0 0 0 0 0 0 8192 0 0 1024 0 0 0 0 0 0 0 0 0 10485760 256 0 0 0 0 0 0 0 0 0 0 0 0 0 0 0 0 65536 64 0 0 0 0 0 0 0 0 0 0 0 0 0 0 0 0 0 0 256 0 268435456 0 0 0 0 0 0 0 16 1 150994946 262144 0 256 0 8536196 0 33947648 0 0 0 67633152 1361051648 2367488 0 0 16777296 0 0 1024 0 86245440 0 0 2147745824 0 4194304 2048 1 0 0 0 0 0 0 4096 0 0 0 0 0 0 0 0 0 1073741824 0 0 32768 32 16 0 0 0 536870912 0 0 0 0 0 0 4194304 0 0 35651588 0 0 0 0 0 0 1073741824 0 0 0 0 0 0 0 512 0 16 0 16 0 0 0 4194304 0 0 0 0 0 0 0 0 0 0 0 0 0 0 0 0 0 0 0 671088640 128 0 1 2147483648 0 0 0 268435456 0 8192 0 0 0 0 8388608 8454144 0 0 0 0 4195328 16384 0 1073741826 16842752 0 2148532224 262144 0 536870912 0 8388608 8192 256 2147483648 4718592 2560 0 1280 134217728 2147483648 268435460 2097664 2214625408 2097152 2048 8192 2097152 9707522 0 32768 66 0 0 786432 3221241856 0 0 0 33554704 0 0 512 1073741824 1310752 0 0 2433220672 0 0 2214594560 128 1 0 0 0 0 0 0 0 0 0 0 0 0 0 0 0 0 0 0 0 0 0 0 0 0 0 0 0 0 0 0 0 0 0 0 0 0 65536 0 0 0 524288 0 0 0 33554432 0 0 2147483648 0 0 0 0 1024 0 0 0 0 0 0 0 8 0 0 8388608 2048 0 0 0 1073741824 16385 0 2 0 0 0 0 0 0 0 0 8 0 0 0 0 0 0 0 0 0 0 0 64 0 4 0 0 524288 0 1074790400 1 150994976 1074003968 1140850688 0 32768 1 256 33554432 0 2097152 262656 544776 0 0 2147483659 132 536870912 0 268435456 10240 0 524288 512 2097152 1024 131072 6408
is_linear=0
shrinkage=0.05


Tree=15
num_leaves=31
num_cat=13
split_feature=2 4 7 5 9 9 9 0 0 1 1 9 0 9 9 13 1 0 9 0 9 12 9 13 9 0 0 0 11 0
split_gain=42440.2 5274.73 829.065 515.225 250.066 197.356 163.633 161.588 151.215 112.599 111.196 100.782 100.313 88.0636 68.0309 54.0203 53.3066 52.1839 75.3437 50.0118 47.5916 43.2511 93.4183 41.5408 50.0853 38.0217 44.8912 37.9729 36.7473 34.9738
threshold=1.0000000180025095e-35 1.0000000180025095e-35 0.26500000000000007 1809.0000000000002 0 1 2 1850.0000000000002 1050.0000000000002 3 4 5 1850.0000000000002 6 7 213.50000000000003 8 1.0000000180025095e-35 9 1.0000000180025095e-35 10 331.00000000000006 11 70.500000000000014 12 1.0000000180025095e-35 1250.0000000000002 3050.0000000000005 332.00000000000006 1.0000000180025095e-35
decision_type=2 2 2 2 9 9 9 2 2 9 9 9 2 9 9 2 9 2 9 2 9 2 9 2 9 2 2 2 2 2
left_child=1 3 12 4 15 -5 -6 11 10 -10 29 -7 16 -11 -13 -1 -3 -12 -19 -16 -8 -15 -23 -22 -25 -18 -27 -9 -20 -4
right_child=-2 2 8 5 6 7 20 27 9 13 17 14 -14 21 19 -17 25 18 28 -21 23 22 -24 24 -26 26 -28 -29 -30 -31
leaf_value=-0.064996604490555943 0.052294420836167255 -0.048556030172211058 -0.10942235474805376 0.013232443845604814 0.0061799247226273181 -0.03138922734829893 -0.039024354131958927 -0.043721359826389118 -0.021011187383731134 -0.025999436200603555 -0.080909688672181068 0.0037511553093484127 -0.048056961985916608 -0.074913662112943771 -0.012694459592439047 -0.038444120480199455 -0.097394353093489122 -0.086835683061736987 -0.04574049520322418 0.024610190471572424 -0.033565935934308684 -0.041947768912305762 -0.072222816159850448 -0.0048038781007337678 -0.022780282463438776 -0.0051833641648754113 -0.027736038912351636 -0.092184669967900812 -0.0075085717313683178 0.0068803043721368615
